{"learner":{"attributes":{},"feature_names":["B0_Hlt2Topo3BodyDecision_TOS","B0_ENDVERTEX_CHI2","B0_M","B0_Hlt2TopoMuMu3BodyDecision_TOS","B0_Hlt2TopoMuMu4BodyDecision_TOS","B0_Hlt2Topo4BodyDecision_TOS","B0_Hlt2TopoMu3BodyDecision_TOS","mu_plus_AtVtx_PZ","B0_Hlt1TwoTrackMVADecision_TOS","jpsi_ENDVERTEX_CHI2","jpsi_M","kaon_ProbNNghost","B0_Hlt2Topo2BodyDecision_TOS","B0_L0HadronDecision_TOS","B0_Hlt1TrackMuonMVADecision_TOS","pion_PIDp","mu_minus_AtVtx_PX","pion_PT","mu_minus_ETA","mu_plus_AtVtx_PX","B0_PT","mu_minus_PT","B0_pmu_ISOLATION_BDT4","mu_minus_PZ","kstar_PT","mu_plus_PT","mu_plus_PY","kstar_P","kaon_PZ","mu_plus_PZ","jpsi_P","mu_minus_AtVtx_PZ","jpsi_PT","mu_plus_MC15TuneV1_ProbNNk","B0_PX","mu_minus_PX","B0_PY","mu_minus_ProbNNe","pion_PE","pion_PZ","mu_plus_PX","mu_plus_MC15TuneV1_ProbNNp","pion_PX","B0_pmu_TR3_CH","B0_pmu_TR4_PZ","mu_minus_MC15TuneV1_ProbNNp","kstar_PY"],"feature_types":["i","float","float","i","i","i","i","float","i","float","float","float","i","i","i","float","float","float","float","float","float","float","float","float","float","float","float","float","float","float","float","float","float","float","float","float","float","float","float","float","float","float","float","int","float","float","float"],"gradient_booster":{"model":{"gbtree_model_param":{"num_parallel_tree":"1","num_trees":"200"},"iteration_indptr":[0,1,2,3,4,5,6,7,8,9,10,11,12,13,14,15,16,17,18,19,20,21,22,23,24,25,26,27,28,29,30,31,32,33,34,35,36,37,38,39,40,41,42,43,44,45,46,47,48,49,50,51,52,53,54,55,56,57,58,59,60,61,62,63,64,65,66,67,68,69,70,71,72,73,74,75,76,77,78,79,80,81,82,83,84,85,86,87,88,89,90,91,92,93,94,95,96,97,98,99,100,101,102,103,104,105,106,107,108,109,110,111,112,113,114,115,116,117,118,119,120,121,122,123,124,125,126,127,128,129,130,131,132,133,134,135,136,137,138,139,140,141,142,143,144,145,146,147,148,149,150,151,152,153,154,155,156,157,158,159,160,161,162,163,164,165,166,167,168,169,170,171,172,173,174,175,176,177,178,179,180,181,182,183,184,185,186,187,188,189,190,191,192,193,194,195,196,197,198,199,200],"tree_info":[0,0,0,0,0,0,0,0,0,0,0,0,0,0,0,0,0,0,0,0,0,0,0,0,0,0,0,0,0,0,0,0,0,0,0,0,0,0,0,0,0,0,0,0,0,0,0,0,0,0,0,0,0,0,0,0,0,0,0,0,0,0,0,0,0,0,0,0,0,0,0,0,0,0,0,0,0,0,0,0,0,0,0,0,0,0,0,0,0,0,0,0,0,0,0,0,0,0,0,0,0,0,0,0,0,0,0,0,0,0,0,0,0,0,0,0,0,0,0,0,0,0,0,0,0,0,0,0,0,0,0,0,0,0,0,0,0,0,0,0,0,0,0,0,0,0,0,0,0,0,0,0,0,0,0,0,0,0,0,0,0,0,0,0,0,0,0,0,0,0,0,0,0,0,0,0,0,0,0,0,0,0,0,0,0,0,0,0,0,0,0,0,0,0,0,0,0,0,0,0],"trees":[{"base_weights":[-2.821105E-4,-2.4132176E-1,1.0414125E0,-3.8765126E-1,2.7640718E-1,6.934464E-1,1.3815212E0,-2.3752086E-1,-6.806053E-1,4.5612705E-1,-2.6090138E-2,5.5364347E-1,9.524122E-1,1.1183492E0,1.455894E0,-3.15651E-1,-2.19572E-2,-8.6309916E-1,-3.9933836E-1,3.03458E-1,7.816977E-1,-1.9305569E-1,3.2884046E-1,6.0623914E-1,1.8120728E-1,8.630083E-1,1.1339405E0,9.484864E-1,1.2600319E0,1.3537067E0,1.5775282E0,-4.7263438E-1,-1.8467882E-1,-3.5319127E-2,1.2689956E0,-7.3722744E-1,-1.0105779E0,-4.2672223E-1,8.570628E-1,2.8713763E-1,1.352216E0,6.340371E-1,9.5119494E-1,-2.2231002E-1,9.8386616E-1,1.7064618E-1,5.038771E-1,8.280641E-1,5.4844654E-1,2.5961561E-2,6.3098496E-1,7.966105E-1,1.070494E0,1.3830475E0,1.0601822E0,1.0449909E0,7.4581325E-1,1.1911478E0,1.4354516E0,1.3902313E0,1.0992773E0,1.5945556E0,9.649298E-1,-1.9417679E-2,-3.2179262E-2,-6.642545E-3,-3.2770604E-2,-4.3079915E-4,-1.9102626E-2,-0E0,6.57415E-2,-4.3140423E-2,-3.1023646E-2,-5.560846E-2,-4.265387E-2,-9.4052665E-3,-2.6118437E-2,4.9858615E-2,1.5671538E-2,9.830039E-3,2.1059327E-2,7.963004E-2,5.827123E-2,4.364658E-2,2.816856E-2,4.9746033E-2,2.3103902E-2,-5.953004E-3,-2.376838E-2,5.1080048E-2,-1.0460305E-2,6.675081E-3,5.4859944E-2,3.0834809E-2,1.6546223E-2,3.6394507E-2,5.7237037E-2,2.4229942E-2,4.1056402E-2,1.9443592E-2,-6.0106018E-3,5.4585155E-2,2.3735665E-2,4.8011675E-2,3.398359E-2,5.796339E-2,3.8835716E-2,6.9578424E-2,1.4272404E-2,5.0366748E-2,6.703988E-2,5.5918258E-2,3.768793E-2,2.4760826E-2,4.9283322E-2,7.044914E-2,5.5686038E-2,2.7678763E-2,7.261368E-2,6.276455E-2,7.177063E-2,6.853553E-2,4.6377376E-2,8.065877E-2,6.339692E-2,5.7228398E-2,-2.6363456E-3],"categories":[],"categories_nodes":[],"categories_segments":[],"categories_sizes":[],"default_left":[0,0,0,0,0,0,0,0,0,0,0,0,0,0,0,0,0,0,0,0,0,0,0,0,0,0,0,0,0,0,0,0,0,0,0,0,0,0,0,0,0,0,0,0,0,0,0,0,0,0,0,0,0,0,0,0,0,0,0,0,0,0,0,0,0,0,0,0,0,0,0,0,0,0,0,0,0,0,0,0,0,0,0,0,0,0,0,0,0,0,0,0,0,0,0,0,0,0,0,0,0,0,0,0,0,0,0,0,0,0,0,0,0,0,0,0,0,0,0,0,0,0,0,0,0,0,0],"id":0,"left_children":[1,3,5,7,9,11,13,15,17,19,21,23,25,27,29,31,33,35,37,39,41,43,45,47,49,51,53,55,57,59,61,63,65,67,69,71,73,75,77,79,81,83,85,87,89,91,93,95,97,99,101,103,105,107,109,111,113,115,117,119,121,123,125,-1,-1,-1,-1,-1,-1,-1,-1,-1,-1,-1,-1,-1,-1,-1,-1,-1,-1,-1,-1,-1,-1,-1,-1,-1,-1,-1,-1,-1,-1,-1,-1,-1,-1,-1,-1,-1,-1,-1,-1,-1,-1,-1,-1,-1,-1,-1,-1,-1,-1,-1,-1,-1,-1,-1,-1,-1,-1,-1,-1,-1,-1,-1,-1],"loss_changes":[5.923228E4,1.451364E4,5.244082E3,6.568463E3,2.2952056E3,7.9208887E2,4.358203E2,1.6630669E3,2.5966172E3,1.3155176E3,9.323525E2,2.7833398E2,1.2266406E2,1.1670361E2,2.135625E2,1.4898516E3,4.5264957E2,5.680996E2,6.8539575E2,3.0741504E2,2.101499E2,3.682836E2,1.3893225E2,1.5874219E2,1.2283406E2,6.91875E1,4.3784424E1,4.241809E1,2.9497559E1,8.554883E1,8.0302734E1,4.7418994E2,9.6364856E2,2.405921E2,1.4981415E1,2.4158203E2,2.241211E2,4.4443652E2,3.1387054E1,2.1510791E2,9.137787E0,7.512439E1,8.289746E1,2.7250183E2,1.2294418E1,9.032332E1,4.5901367E1,7.9882935E1,1.7128662E2,6.9848755E1,3.1225739E1,7.3312744E1,3.0580444E1,4.123047E0,2.6501709E1,3.0766235E1,4.2790222E1,2.9896973E1,9.347778E0,4.7490234E1,5.3496338E1,4.365039E1,4.0609818E1,0E0,0E0,0E0,0E0,0E0,0E0,0E0,0E0,0E0,0E0,0E0,0E0,0E0,0E0,0E0,0E0,0E0,0E0,0E0,0E0,0E0,0E0,0E0,0E0,0E0,0E0,0E0,0E0,0E0,0E0,0E0,0E0,0E0,0E0,0E0,0E0,0E0,0E0,0E0,0E0,0E0,0E0,0E0,0E0,0E0,0E0,0E0,0E0,0E0,0E0,0E0,0E0,0E0,0E0,0E0,0E0,0E0,0E0,0E0,0E0,0E0,0E0,0E0,0E0],"parents":[2147483647,0,0,1,1,2,2,3,3,4,4,5,5,6,6,7,7,8,8,9,9,10,10,11,11,12,12,13,13,14,14,15,15,16,16,17,17,18,18,19,19,20,20,21,21,22,22,23,23,24,24,25,25,26,26,27,27,28,28,29,29,30,30,31,31,32,32,33,33,34,34,35,35,36,36,37,37,38,38,39,39,40,40,41,41,42,42,43,43,44,44,45,45,46,46,47,47,48,48,49,49,50,50,51,51,52,52,53,53,54,54,55,55,56,56,57,57,58,58,59,59,60,60,61,61,62,62],"right_children":[2,4,6,8,10,12,14,16,18,20,22,24,26,28,30,32,34,36,38,40,42,44,46,48,50,52,54,56,58,60,62,64,66,68,70,72,74,76,78,80,82,84,86,88,90,92,94,96,98,100,102,104,106,108,110,112,114,116,118,120,122,124,126,-1,-1,-1,-1,-1,-1,-1,-1,-1,-1,-1,-1,-1,-1,-1,-1,-1,-1,-1,-1,-1,-1,-1,-1,-1,-1,-1,-1,-1,-1,-1,-1,-1,-1,-1,-1,-1,-1,-1,-1,-1,-1,-1,-1,-1,-1,-1,-1,-1,-1,-1,-1,-1,-1,-1,-1,-1,-1,-1,-1,-1,-1,-1,-1],"split_conditions":[1E0,1.169044E3,1E0,3.8566997E0,3.1019785E0,1.194293E3,1E0,9.170062E2,2.654396E3,1.5087166E3,1.5235636E3,1E0,1.6119208E3,1.073864E3,1.2141626E3,1.6255427E3,1E0,8.6451845E0,1E0,1E0,1.7056172E3,1E0,1.7353679E3,1.18237E4,1.1683323E4,8.793652E3,3.2439656E4,6.1318984E4,8.994E3,1E0,2.4667676E3,1.2251366E0,1E0,1E0,9.2988324E2,1.4952714E3,1.8235547E3,2.6734977E0,3.5837567E0,-5.703878E-1,3.4246305E4,2.2059035E4,2.4667676E3,1.0891864E1,-2.370192E-1,1E0,9.689552E0,1.90318E4,8.89604E3,2.430837E4,2.6823294E0,3.7468285E4,1E0,4.1609387E0,3.0423697E4,3.445867E4,1.8687295E4,3.3790363E4,5.9023486E2,8.018916E3,3.1258342E0,6.657733E0,-3.3140582E-1,-1.9417679E-2,-3.2179262E-2,-6.642545E-3,-3.2770604E-2,-4.3079915E-4,-1.9102626E-2,-0E0,6.57415E-2,-4.3140423E-2,-3.1023646E-2,-5.560846E-2,-4.265387E-2,-9.4052665E-3,-2.6118437E-2,4.9858615E-2,1.5671538E-2,9.830039E-3,2.1059327E-2,7.963004E-2,5.827123E-2,4.364658E-2,2.816856E-2,4.9746033E-2,2.3103902E-2,-5.953004E-3,-2.376838E-2,5.1080048E-2,-1.0460305E-2,6.675081E-3,5.4859944E-2,3.0834809E-2,1.6546223E-2,3.6394507E-2,5.7237037E-2,2.4229942E-2,4.1056402E-2,1.9443592E-2,-6.0106018E-3,5.4585155E-2,2.3735665E-2,4.8011675E-2,3.398359E-2,5.796339E-2,3.8835716E-2,6.9578424E-2,1.4272404E-2,5.0366748E-2,6.703988E-2,5.5918258E-2,3.768793E-2,2.4760826E-2,4.9283322E-2,7.044914E-2,5.5686038E-2,2.7678763E-2,7.261368E-2,6.276455E-2,7.177063E-2,6.853553E-2,4.6377376E-2,8.065877E-2,6.339692E-2,5.7228398E-2,-2.6363456E-3],"split_indices":[3,10,4,9,9,10,5,10,32,10,10,13,10,10,10,32,5,9,4,5,10,4,10,28,20,20,30,30,20,13,10,9,13,13,10,32,32,18,18,22,30,30,10,9,22,4,9,38,20,28,18,30,13,18,38,28,38,30,25,38,18,9,22,0,0,0,0,0,0,0,0,0,0,0,0,0,0,0,0,0,0,0,0,0,0,0,0,0,0,0,0,0,0,0,0,0,0,0,0,0,0,0,0,0,0,0,0,0,0,0,0,0,0,0,0,0,0,0,0,0,0,0,0,0,0,0,0],"split_type":[0,0,0,0,0,0,0,0,0,0,0,0,0,0,0,0,0,0,0,0,0,0,0,0,0,0,0,0,0,0,0,0,0,0,0,0,0,0,0,0,0,0,0,0,0,0,0,0,0,0,0,0,0,0,0,0,0,0,0,0,0,0,0,0,0,0,0,0,0,0,0,0,0,0,0,0,0,0,0,0,0,0,0,0,0,0,0,0,0,0,0,0,0,0,0,0,0,0,0,0,0,0,0,0,0,0,0,0,0,0,0,0,0,0,0,0,0,0,0,0,0,0,0,0,0,0,0],"sum_hessian":[2.3590047E5,1.9157323E5,4.432724E4,1.493598E5,4.2213438E4,2.1912758E4,2.2414482E4,9.875451E4,5.0605293E4,2.6481426E4,1.5732012E4,1.4233733E4,7.6790244E3,4.9437017E3,1.747078E4,7.248121E4,2.6273295E4,3.0689346E4,1.991595E4,1.803009E4,8.451336E3,1.0700278E4,5.0317334E3,1.2470651E4,1.7630823E3,5.1507524E3,2.528272E3,2.2533691E3,2.6903325E3,9.503199E3,7.9675806E3,3.2964043E4,3.9517164E4,2.6005486E4,2.6780823E2,1.6562658E4,1.4126687E4,1.9492166E4,4.2378275E2,1.7755535E4,2.745548E2,4.5207188E3,3.9306172E3,1.0441962E4,2.5831622E2,2.645563E3,2.3861702E3,2.572946E3,9.897705E3,1.3122976E3,4.5078467E2,3.9075432E3,1.2432094E3,5.719776E2,1.9562943E3,1.5220222E3,7.313471E2,1.9394039E3,7.509285E2,8.304607E3,1.1985922E3,7.749755E3,2.1782574E2,2.2083041E4,1.0881002E4,3.559994E4,3.9172244E3,2.4148215E4,1.8572714E3,9.748478E0,2.5805975E2,7.97456E3,8.588099E3,8.58192E3,5.544766E3,5.5798555E3,1.3912311E4,3.3554834E2,8.8234406E1,1.0601478E4,7.1540566E3,1.1559324E2,1.5896158E2,1.0277751E3,3.4929436E3,3.606178E3,3.2443915E2,7.418563E3,3.0233992E3,2.5094218E2,7.374049E0,2.5452117E3,1.0035123E2,1.440838E3,9.453323E2,1.9583434E3,6.146028E2,8.023608E3,1.8740975E3,3.7730634E2,9.349913E2,1.11848564E2,3.389361E2,1.623884E3,2.2836592E3,9.511462E2,2.9206317E2,5.668536E2,5.124049E0,1.6516218E3,3.046724E2,1.2120873E3,3.0993497E2,3.6018152E2,3.7116556E2,5.0236954E2,1.4370343E3,1.5246957E1,7.356816E2,2.0931064E3,6.211501E3,4.6063168E2,7.3796045E2,7.3266104E3,4.2314462E2,1.8545549E2,3.2370247E1],"tree_param":{"num_deleted":"0","num_feature":"47","num_nodes":"127","size_leaf_vector":"1"}},{"base_weights":[2.6586384E-3,-2.1816319E-1,1.0667044E0,-3.6757645E-1,2.4822533E-1,7.6185787E-1,1.3760217E0,-4.1141954E-1,3.685798E-1,6.853749E-2,5.1888525E-1,5.633612E-1,8.9676285E-1,1.1792217E0,1.4266938E0,-4.8875448E-1,-2.0184389E-1,2.5898913E-1,7.190595E-1,-4.843992E-2,2.9283565E-1,3.821257E-1,7.215402E-1,5.241775E-1,1.3429021E0,7.524692E-1,1.0723312E0,1.079937E0,1.3547612E0,1.2493998E0,1.4739033E0,-5.6390756E-1,-3.2343206E-1,-1.3174102E-1,-6.310099E-1,4.6836546E-1,9.332125E-2,9.212399E-1,4.419041E-1,-8.985461E-2,4.366132E-1,2.3880465E-1,7.6540536E-1,5.308375E-1,2.0501047E-1,8.756949E-1,5.674893E-1,3.674235E-1,7.208935E-1,1.4218304E0,8.65547E-1,6.3611674E-1,9.8777115E-1,9.9790907E-1,1.3568608E0,1.0072612E0,1.3716484E0,1.1795609E0,1.4615219E0,1.1578197E0,1.4742441E0,1.405698E0,1.5747222E0,-3.5135113E-2,-2.3866411E-2,-1.5133055E-2,-3.386153E-2,-1.1019074E-2,5.667198E-3,-4.1067492E-2,-5.4613794E-3,1.7604612E-2,3.873606E-2,8.312735E-3,-1.2325816E-2,5.3113353E-2,2.870741E-2,1.6131593E-2,4.7675658E-2,1.372548E-3,-1.7788906E-2,1.4435123E-2,4.08115E-2,1.9029034E-2,3.6865473E-3,5.6327593E-2,2.9067947E-2,2.0732583E-2,3.5294164E-2,3.2125271E-3,3.596923E-2,4.583358E-2,2.1108314E-2,2.1606015E-2,4.6434235E-2,2.136733E-2,-6.055057E-3,3.9802026E-2,1.8281905E-2,4.7606736E-2,7.3480144E-2,1.3504572E-2,5.5907954E-2,3.4021024E-2,1.0758772E-2,6.3188516E-2,4.477695E-2,5.7939436E-2,4.6485446E-2,7.4736886E-2,6.3365124E-2,6.0592104E-2,4.5360018E-2,5.79336E-2,7.191638E-2,6.656041E-2,5.123021E-2,7.449045E-2,5.421589E-2,6.327038E-2,5.2869875E-2,7.512536E-2,4.7376987E-2,7.183028E-2,5.9445214E-2,7.9894364E-2,3.9312698E-2],"categories":[],"categories_nodes":[],"categories_segments":[],"categories_sizes":[],"default_left":[0,0,0,0,0,0,0,0,0,0,0,0,0,0,0,0,0,0,0,0,0,0,0,0,0,0,0,0,0,0,0,0,0,0,0,0,0,0,0,0,0,0,0,0,0,0,0,0,0,0,0,0,0,0,0,0,0,0,0,0,0,0,0,0,0,0,0,0,0,0,0,0,0,0,0,0,0,0,0,0,0,0,0,0,0,0,0,0,0,0,0,0,0,0,0,0,0,0,0,0,0,0,0,0,0,0,0,0,0,0,0,0,0,0,0,0,0,0,0,0,0,0,0,0,0,0,0],"id":1,"left_children":[1,3,5,7,9,11,13,15,17,19,21,23,25,27,29,31,33,35,37,39,41,43,45,47,49,51,53,55,57,59,61,63,65,67,69,71,73,75,77,79,81,83,85,87,89,91,93,95,97,99,101,103,105,107,109,111,113,115,117,119,121,123,125,-1,-1,-1,-1,-1,-1,-1,-1,-1,-1,-1,-1,-1,-1,-1,-1,-1,-1,-1,-1,-1,-1,-1,-1,-1,-1,-1,-1,-1,-1,-1,-1,-1,-1,-1,-1,-1,-1,-1,-1,-1,-1,-1,-1,-1,-1,-1,-1,-1,-1,-1,-1,-1,-1,-1,-1,-1,-1,-1,-1,-1,-1,-1,-1],"loss_changes":[5.5463004E4,1.362199E4,3.8232266E3,4.7785527E3,2.3063525E3,5.4597266E2,1.9779688E2,2.2642285E3,3.1895447E2,7.481046E2,5.236196E2,2.5105664E2,3.064121E2,6.930713E1,1.3075781E2,1.2674668E3,1.1327671E3,2.1966205E2,1.09895386E2,3.7622772E2,2.4885071E2,2.972057E2,1.7978516E2,2.4215039E2,1.2495911E1,1.814729E2,1.1357178E2,5.350415E1,2.475879E1,6.645947E1,8.315625E1,8.4221094E2,2.3373975E2,7.0351904E2,5.24584E2,9.889856E1,8.782019E1,5.453253E1,5.0212296E1,5.38691E2,8.192227E1,2.0505368E2,6.504724E1,1.2404993E2,3.732719E2,6.9678955E1,1.8553564E2,1.2867017E2,9.234412E1,4.934204E0,7.9468765E0,8.28562E1,5.397876E1,4.5621582E1,1.0710449E1,4.1292236E1,4.4677734E0,1.084729E1,6.889038E0,2.3473877E1,1.1811523E1,4.7546875E1,9.0444336E1,0E0,0E0,0E0,0E0,0E0,0E0,0E0,0E0,0E0,0E0,0E0,0E0,0E0,0E0,0E0,0E0,0E0,0E0,0E0,0E0,0E0,0E0,0E0,0E0,0E0,0E0,0E0,0E0,0E0,0E0,0E0,0E0,0E0,0E0,0E0,0E0,0E0,0E0,0E0,0E0,0E0,0E0,0E0,0E0,0E0,0E0,0E0,0E0,0E0,0E0,0E0,0E0,0E0,0E0,0E0,0E0,0E0,0E0,0E0,0E0,0E0,0E0,0E0,0E0],"parents":[2147483647,0,0,1,1,2,2,3,3,4,4,5,5,6,6,7,7,8,8,9,9,10,10,11,11,12,12,13,13,14,14,15,15,16,16,17,17,18,18,19,19,20,20,21,21,22,22,23,23,24,24,25,25,26,26,27,27,28,28,29,29,30,30,31,31,32,32,33,33,34,34,35,35,36,36,37,37,38,38,39,39,40,40,41,41,42,42,43,43,44,44,45,45,46,46,47,47,48,48,49,49,50,50,51,51,52,52,53,53,54,54,55,55,56,56,57,57,58,58,59,59,60,60,61,61,62,62],"right_children":[2,4,6,8,10,12,14,16,18,20,22,24,26,28,30,32,34,36,38,40,42,44,46,48,50,52,54,56,58,60,62,64,66,68,70,72,74,76,78,80,82,84,86,88,90,92,94,96,98,100,102,104,106,108,110,112,114,116,118,120,122,124,126,-1,-1,-1,-1,-1,-1,-1,-1,-1,-1,-1,-1,-1,-1,-1,-1,-1,-1,-1,-1,-1,-1,-1,-1,-1,-1,-1,-1,-1,-1,-1,-1,-1,-1,-1,-1,-1,-1,-1,-1,-1,-1,-1,-1,-1,-1,-1,-1,-1,-1,-1,-1,-1,-1,-1,-1,-1,-1,-1,-1,-1,-1,-1,-1],"split_conditions":[1E0,1.1389905E3,1E0,1E0,1.431276E3,1E0,1E0,1.5079592E3,1E0,1.3171848E3,1.6791088E3,1E0,1.105457E3,1.518496E3,6.675512E2,8.596297E2,1E0,1.907472E4,4.990116E4,1E0,1E0,1E0,1E0,1.2938026E3,1E0,1.6076785E3,1.946227E3,1.6325781E3,9.644912E2,1.5235636E3,1.287478E3,6.495625E2,1E0,2.3768237E3,3.609841E3,1.7711589E3,1E0,2.468694E4,2.079201E3,1E0,1E0,1E0,1.285843E4,1.0945138E3,1E0,2.4667676E3,1E0,1E0,1E0,2.93873E2,7.573506E2,1E0,1.296339E4,3.5672164E4,1.665285E4,1.82982E4,-1.27058E3,2.173023E4,1.570736E-2,6.3501304E-4,2.4667676E3,1E0,2.4667676E3,-3.5135113E-2,-2.3866411E-2,-1.5133055E-2,-3.386153E-2,-1.1019074E-2,5.667198E-3,-4.1067492E-2,-5.4613794E-3,1.7604612E-2,3.873606E-2,8.312735E-3,-1.2325816E-2,5.3113353E-2,2.870741E-2,1.6131593E-2,4.7675658E-2,1.372548E-3,-1.7788906E-2,1.4435123E-2,4.08115E-2,1.9029034E-2,3.6865473E-3,5.6327593E-2,2.9067947E-2,2.0732583E-2,3.5294164E-2,3.2125271E-3,3.596923E-2,4.583358E-2,2.1108314E-2,2.1606015E-2,4.6434235E-2,2.136733E-2,-6.055057E-3,3.9802026E-2,1.8281905E-2,4.7606736E-2,7.3480144E-2,1.3504572E-2,5.5907954E-2,3.4021024E-2,1.0758772E-2,6.3188516E-2,4.477695E-2,5.7939436E-2,4.6485446E-2,7.4736886E-2,6.3365124E-2,6.0592104E-2,4.5360018E-2,5.79336E-2,7.191638E-2,6.656041E-2,5.123021E-2,7.449045E-2,5.421589E-2,6.327038E-2,5.2869875E-2,7.512536E-2,4.7376987E-2,7.183028E-2,5.9445214E-2,7.9894364E-2,3.9312698E-2],"split_indices":[0,10,4,3,10,3,5,17,4,17,10,5,10,17,17,10,13,28,30,3,3,14,14,17,13,17,17,10,10,10,10,25,13,17,17,17,13,28,17,14,4,14,28,17,3,10,3,13,13,25,10,13,28,30,28,28,40,28,45,33,10,13,10,0,0,0,0,0,0,0,0,0,0,0,0,0,0,0,0,0,0,0,0,0,0,0,0,0,0,0,0,0,0,0,0,0,0,0,0,0,0,0,0,0,0,0,0,0,0,0,0,0,0,0,0,0,0,0,0,0,0,0,0,0,0,0,0],"split_type":[0,0,0,0,0,0,0,0,0,0,0,0,0,0,0,0,0,0,0,0,0,0,0,0,0,0,0,0,0,0,0,0,0,0,0,0,0,0,0,0,0,0,0,0,0,0,0,0,0,0,0,0,0,0,0,0,0,0,0,0,0,0,0,0,0,0,0,0,0,0,0,0,0,0,0,0,0,0,0,0,0,0,0,0,0,0,0,0,0,0,0,0,0,0,0,0,0,0,0,0,0,0,0,0,0,0,0,0,0,0,0,0,0,0,0,0,0,0,0,0,0,0,0,0,0,0,0],"sum_hessian":[2.3604461E5,1.9547742E5,4.056718E4,1.4804931E5,4.7428117E4,2.0433803E4,2.0133377E4,1.3972864E5,8.320667E3,2.8506256E4,1.892186E4,8.271763E3,1.216204E4,4.129474E3,1.6003903E4,1.02062945E5,3.7665695E4,6.341061E3,1.9796061E3,1.8734352E4,9.771903E3,1.1300913E4,7.6209463E3,7.8780835E3,3.9367926E2,6.680061E3,5.481979E3,2.6440212E3,1.4854528E3,3.373372E3,1.2630531E4,7.0162625E4,3.1900322E4,3.2379139E4,5.2865557E3,2.7988896E3,3.5421714E3,1.1422358E3,8.3737024E2,1.726231E4,1.4720411E3,8.771574E3,1.00032983E3,6.1404062E3,5.160507E3,3.805226E3,3.8157202E3,4.3873867E3,3.490697E3,3.3522537E2,5.8453876E1,4.4737188E3,2.2063425E3,4.350355E3,1.1316241E3,2.1216167E3,5.2240466E2,5.687812E2,9.166716E2,2.4029949E3,9.7037726E2,7.545675E3,5.084857E3,2.6948629E4,4.3213996E4,3.0134443E4,1.7658782E3,2.3780521E4,8.598617E3,3.872413E3,1.4141428E3,2.0316031E3,7.6728644E2,2.917929E3,6.242423E2,8.0973193E2,3.3250397E2,6.811748E2,1.5619547E2,1.1977673E4,5.284638E3,1.0615177E3,4.105234E2,4.7164473E3,4.0551265E3,3.350459E2,6.6528394E2,3.6944546E3,2.4459517E3,4.0533838E3,1.107123E3,3.487962E3,3.172642E2,2.7781165E3,1.0376038E3,3.9090464E3,4.7834015E2,2.8790457E3,6.116512E2,3.384644E1,3.0137894E2,1.8617453E1,3.9836426E1,4.0460688E3,4.2764984E2,5.4809076E2,1.6582517E3,1.2882158E3,3.0621392E3,4.3722855E2,6.9439557E2,6.9156305E2,1.4300536E3,1.3072816E2,3.916765E2,2.8199304E2,2.8678815E2,8.487474E2,6.7924194E1,1.1521034E3,1.2508914E3,9.1829926E2,5.2077988E1,6.597198E3,9.484765E2,4.9381147E3,1.4674225E2],"tree_param":{"num_deleted":"0","num_feature":"47","num_nodes":"127","size_leaf_vector":"1"}},{"base_weights":[1.5649504E-3,4.6085995E-1,-6.1555636E-1,2.4121958E-1,1.1253593E0,-7.187186E-1,3.7882802E-1,9.009785E-2,6.3937736E-1,8.464402E-1,1.3680077E0,-8.2408905E-1,-7.718972E-2,6.731913E-1,-9.7947605E-3,2.615499E-1,-1.3421835E-1,4.977845E-1,9.04364E-1,7.047281E-1,1.0420526E0,1.2995231E0,1.4999762E0,-5.6620634E-1,-9.774302E-1,-2.9188102E-1,2.1110417E-1,4.7821638E-1,1.076006E0,-2.021838E-1,3.0803677E-1,4.6050814E-1,1.7582783E-1,-1.840754E-1,5.134427E-1,6.7989117E-1,2.9177123E-1,1.0481607E0,7.049607E-1,9.3962616E-1,6.3923687E-1,9.91928E-1,1.3009889E0,1.4395618E0,1.2465817E0,1.5141417E0,1.0514387E0,-7.016017E-1,-2.0273614E-1,-1.0484495E0,-7.716634E-1,1.726464E-2,-4.3133795E-1,2.7163472E-2,3.7425753E-1,2.952334E-1,6.9883597E-1,8.770704E-1,1.2204486E0,-3.5890523E-1,3.308405E-1,5.7335347E-1,-9.754612E-2,3.1955533E-2,1.8192288E-2,4.3275347E-3,1.7183116E-2,-1.6021462E-2,1.3282237E-3,4.1586503E-2,2.0332148E-2,4.420938E-2,2.95448E-2,7.584414E-3,2.5672933E-2,4.7385056E-2,6.297075E-2,2.8114578E-2,4.727827E-2,5.0045557E-2,3.4666087E-2,4.4319373E-2,2.9014388E-2,4.632907E-2,6.0679477E-2,5.6854684E-2,7.1387164E-2,7.9060666E-2,7.007521E-2,5.5777084E-2,6.490906E-2,7.2489195E-2,8.080085E-2,6.473885E-2,3.1546976E-2,-4.3438807E-2,-2.8490959E-2,2.3543518E-3,-1.6803572E-2,-5.3971704E-2,-4.134655E-2,-3.9779615E-2,-9.761521E-3,-9.563317E-3,1.6906379E-2,-2.354799E-2,1.2082894E-2,4.0222894E-2,-1.1091254E-3,1.7090831E-2,3.472909E-2,3.2209598E-2,7.581492E-3,2.598238E-2,4.557282E-2,5.2696038E-2,3.251369E-2,5.230508E-2,6.744197E-2,-2.428311E-2,-1.0558352E-3,8.870463E-3,2.919431E-2,1.1115175E-2,4.4369705E-2,-1.3740209E-2,1.4443501E-2],"categories":[],"categories_nodes":[],"categories_segments":[],"categories_sizes":[],"default_left":[0,0,0,0,0,0,0,0,0,0,0,0,0,0,0,0,0,0,0,0,0,0,0,0,0,0,0,0,0,0,0,0,0,0,0,0,0,0,0,0,0,0,0,0,0,0,0,0,0,0,0,0,0,0,0,0,0,0,0,0,0,0,0,0,0,0,0,0,0,0,0,0,0,0,0,0,0,0,0,0,0,0,0,0,0,0,0,0,0,0,0,0,0,0,0,0,0,0,0,0,0,0,0,0,0,0,0,0,0,0,0,0,0,0,0,0,0,0,0,0,0,0,0,0,0,0,0],"id":2,"left_children":[1,3,5,7,9,11,13,15,17,19,21,23,25,27,29,31,33,35,37,39,41,43,45,47,49,51,53,55,57,59,61,63,65,67,69,71,73,75,77,79,81,83,85,87,89,91,93,95,97,99,101,103,105,107,109,111,113,115,117,119,121,123,125,-1,-1,-1,-1,-1,-1,-1,-1,-1,-1,-1,-1,-1,-1,-1,-1,-1,-1,-1,-1,-1,-1,-1,-1,-1,-1,-1,-1,-1,-1,-1,-1,-1,-1,-1,-1,-1,-1,-1,-1,-1,-1,-1,-1,-1,-1,-1,-1,-1,-1,-1,-1,-1,-1,-1,-1,-1,-1,-1,-1,-1,-1,-1,-1],"loss_changes":[6.674016E4,1.9701666E4,1.030691E4,6.1045107E3,2.2673555E3,6.15275E3,1.0806619E3,2.828729E3,1.0461729E3,4.3097363E2,1.5870703E2,3.0904023E3,7.9504626E2,4.2079614E2,2.4890549E2,7.1059106E2,1.0287532E3,6.8196484E2,2.770503E2,1.378916E2,8.260449E1,8.445508E1,3.5992188E1,1.4343213E3,7.147383E2,3.1764862E2,1.6429715E2,1.4559735E2,4.820215E1,2.1207938E2,1.6539197E2,2.1594019E2,4.3635693E2,8.49899E2,7.6442505E1,1.7430615E2,2.6481628E2,1.1746338E2,1.3864685E2,2.8197632E1,1.0197168E2,7.7404785E1,1.9070068E1,1.3716797E1,5.5384766E1,3.498047E1,1.7827972E1,4.6677734E2,2.638445E2,2.4828516E2,1.7294385E2,1.5327849E2,1.3555951E2,9.933803E1,2.9416107E1,9.8923904E1,6.1334106E1,2.8210205E1,2.0012451E1,8.3738846E1,2.1890049E1,1.01598785E2,4.1638947E1,0E0,0E0,0E0,0E0,0E0,0E0,0E0,0E0,0E0,0E0,0E0,0E0,0E0,0E0,0E0,0E0,0E0,0E0,0E0,0E0,0E0,0E0,0E0,0E0,0E0,0E0,0E0,0E0,0E0,0E0,0E0,0E0,0E0,0E0,0E0,0E0,0E0,0E0,0E0,0E0,0E0,0E0,0E0,0E0,0E0,0E0,0E0,0E0,0E0,0E0,0E0,0E0,0E0,0E0,0E0,0E0,0E0,0E0,0E0,0E0,0E0,0E0,0E0,0E0],"parents":[2147483647,0,0,1,1,2,2,3,3,4,4,5,5,6,6,7,7,8,8,9,9,10,10,11,11,12,12,13,13,14,14,15,15,16,16,17,17,18,18,19,19,20,20,21,21,22,22,23,23,24,24,25,25,26,26,27,27,28,28,29,29,30,30,31,31,32,32,33,33,34,34,35,35,36,36,37,37,38,38,39,39,40,40,41,41,42,42,43,43,44,44,45,45,46,46,47,47,48,48,49,49,50,50,51,51,52,52,53,53,54,54,55,55,56,56,57,57,58,58,59,59,60,60,61,61,62,62],"right_children":[2,4,6,8,10,12,14,16,18,20,22,24,26,28,30,32,34,36,38,40,42,44,46,48,50,52,54,56,58,60,62,64,66,68,70,72,74,76,78,80,82,84,86,88,90,92,94,96,98,100,102,104,106,108,110,112,114,116,118,120,122,124,126,-1,-1,-1,-1,-1,-1,-1,-1,-1,-1,-1,-1,-1,-1,-1,-1,-1,-1,-1,-1,-1,-1,-1,-1,-1,-1,-1,-1,-1,-1,-1,-1,-1,-1,-1,-1,-1,-1,-1,-1,-1,-1,-1,-1,-1,-1,-1,-1,-1,-1,-1,-1,-1,-1,-1,-1,-1,-1,-1,-1,-1,-1,-1,-1],"split_conditions":[1.131973E1,1E0,1E0,1.1000836E3,1E0,1.3126785E3,2.7688301E1,4.5041184E0,1.431276E3,1.105457E3,1.3776749E3,2.5986277E1,1.5731578E3,1E0,1E0,2.9643068E0,1E0,4.066979E0,4.5041184E0,-4.99823E1,1.7353679E3,2.9082417E0,2.4667676E3,3.4048733E3,9.7801105E2,2.2116543E1,1.7681609E3,1E0,3.3084702E3,1.4088839E3,6.9045334E1,-4.25647E1,8.119161E2,2.7433003E3,2.8423302E0,-4.42805E1,2.7311514E3,1.7056172E3,1.6791088E3,3.613401E0,2.8499146E0,3.949401E3,2.3508586E3,-5.87232E1,9.844296E3,1.7681609E3,2.8840625E3,8.103702E2,2.827125E0,4.692577E3,6.387114E3,2.8574207E3,5.889428E3,-1.57239E3,1.26216E3,2.827125E0,1.1000836E3,1.72843E1,1E0,1E0,1E0,3.6234546E3,4.748696E3,3.1955533E-2,1.8192288E-2,4.3275347E-3,1.7183116E-2,-1.6021462E-2,1.3282237E-3,4.1586503E-2,2.0332148E-2,4.420938E-2,2.95448E-2,7.584414E-3,2.5672933E-2,4.7385056E-2,6.297075E-2,2.8114578E-2,4.727827E-2,5.0045557E-2,3.4666087E-2,4.4319373E-2,2.9014388E-2,4.632907E-2,6.0679477E-2,5.6854684E-2,7.1387164E-2,7.9060666E-2,7.007521E-2,5.5777084E-2,6.490906E-2,7.2489195E-2,8.080085E-2,6.473885E-2,3.1546976E-2,-4.3438807E-2,-2.8490959E-2,2.3543518E-3,-1.6803572E-2,-5.3971704E-2,-4.134655E-2,-3.9779615E-2,-9.761521E-3,-9.563317E-3,1.6906379E-2,-2.354799E-2,1.2082894E-2,4.0222894E-2,-1.1091254E-3,1.7090831E-2,3.472909E-2,3.2209598E-2,7.581492E-3,2.598238E-2,4.557282E-2,5.2696038E-2,3.251369E-2,5.230508E-2,6.744197E-2,-2.428311E-2,-1.0558352E-3,8.870463E-3,2.919431E-2,1.1115175E-2,4.4369705E-2,-1.3740209E-2,1.4443501E-2],"split_indices":[1,0,3,10,4,10,1,1,10,10,10,1,10,4,4,18,3,1,1,15,10,18,10,24,10,1,10,0,24,10,1,15,10,24,18,15,24,10,10,18,18,24,24,15,38,10,24,25,18,24,24,24,24,42,42,18,10,1,5,0,0,24,24,0,0,0,0,0,0,0,0,0,0,0,0,0,0,0,0,0,0,0,0,0,0,0,0,0,0,0,0,0,0,0,0,0,0,0,0,0,0,0,0,0,0,0,0,0,0,0,0,0,0,0,0,0,0,0,0,0,0,0,0,0,0,0,0],"split_type":[0,0,0,0,0,0,0,0,0,0,0,0,0,0,0,0,0,0,0,0,0,0,0,0,0,0,0,0,0,0,0,0,0,0,0,0,0,0,0,0,0,0,0,0,0,0,0,0,0,0,0,0,0,0,0,0,0,0,0,0,0,0,0,0,0,0,0,0,0,0,0,0,0,0,0,0,0,0,0,0,0,0,0,0,0,0,0,0,0,0,0,0,0,0,0,0,0,0,0,0,0,0,0,0,0,0,0,0,0,0,0,0,0,0,0,0,0,0,0,0,0,0,0,0,0,0,0],"sum_hessian":[2.3546252E5,1.3499386E5,1.0046866E5,1.01459914E5,3.3533945E4,9.102596E4,9.442694E3,7.3547336E4,2.791258E4,1.560401E4,1.7929938E4,7.818336E4,1.2842601E4,5.37326E3,4.069435E3,4.1686824E4,3.186051E4,1.8195021E4,9.717559E3,9.052822E3,6.551188E3,1.1813839E4,6.1160977E3,2.9156736E4,4.9026625E4,7.3619253E3,5.480675E3,3.6230286E3,1.7502312E3,2.5361785E3,1.5332565E3,1.2549535E4,2.9137291E4,2.9584572E4,2.2759375E3,9.655371E3,8.53965E3,5.642088E3,4.0754707E3,1.9691333E3,7.083689E3,5.4943564E3,1.0568314E3,3.23119E3,8.582649E3,5.9254727E3,1.9062505E2,2.1241729E4,7.9150083E3,3.6442254E4,1.2584372E4,2.2877568E3,5.0741685E3,2.5782085E3,2.9024663E3,1.982958E3,1.6400706E3,7.4066876E2,1.00956244E3,1.9608949E3,5.752836E2,9.274039E2,6.0585266E2,4.403125E3,8.1464097E3,1.9022852E4,1.0114439E4,1.7960213E4,1.1624359E4,5.689297E2,1.7070079E3,2.9253696E3,6.730002E3,5.2353833E3,3.3042673E3,3.8290698E3,1.8130181E3,2.5618245E3,1.5136462E3,1.5727189E3,3.9641446E2,1.3598502E3,5.7238384E3,4.2491323E3,1.245224E3,4.6696005E2,5.898713E2,6.7291125E2,2.5582788E3,2.4339055E3,6.1487437E3,3.6437454E3,2.2817275E3,1.1867874E2,7.1946304E1,9.35938E3,1.1882348E4,2.7532632E3,5.161745E3,3.1965059E4,4.4771953E3,1.2081595E4,5.0277734E2,1.385898E3,9.018588E2,4.793028E3,2.8114078E2,1.5359654E2,2.4246118E3,2.6388445E3,2.6362177E2,5.760884E2,1.4068698E3,8.931518E2,7.469187E2,4.128709E2,3.2779782E2,4.336855E2,5.7587695E2,1.424446E3,5.364488E2,3.6042264E2,2.1486096E2,4.3945712E2,4.8794672E2,4.1641583E2,1.8943684E2],"tree_param":{"num_deleted":"0","num_feature":"47","num_nodes":"127","size_leaf_vector":"1"}},{"base_weights":[2.8203109E-3,-5.0250787E-1,6.5646577E-1,-1.1383338E-1,-1.037311E0,1.0568995E0,-6.112463E-2,-5.151121E-1,1.20531596E-1,-7.968397E-1,-1.2263075E0,7.5508475E-1,1.387482E0,-4.2744958E-1,1.6050093E-1,-5.69528E-1,5.837772E-1,4.5206666E-2,9.08605E-1,-9.9526155E-1,-4.5927313E-1,-1.2779515E0,-7.105264E-1,9.643494E-1,4.449968E-1,1.4131538E0,-4.4489287E-2,-1.5112723E-1,-7.5318104E-1,6.184541E-1,-2.1404088E-2,-4.2139313E-1,-7.454949E-1,6.4483345E-1,2.3073924E-1,2.1243113E-1,-1.575844E-1,1.0021516E0,6.4824307E-1,-1.1898066E0,-7.982201E-1,-6.902885E-1,-2.0144361E-1,-1.3751034E0,-1.0213689E0,-9.347623E-1,-5.450732E-1,7.4692166E-1,1.1319139E0,3.2947716E-1,1.0245796E0,1.2335479E0,1.5389185E0,4.19724E-1,-1.1900151E-1,-3.7942317E-1,2.504559E-1,-5.329825E-1,-1.062693E0,2.6420507E-1,9.293732E-1,-2.852262E-1,1.7203386E-1,-2.991057E-2,-1.3088159E-2,-4.486169E-2,-2.6580328E-2,3.6473006E-2,1.9646514E-2,-2.484573E-3,2.9214893E-2,1.8494261E-2,3.298576E-4,-1.3088469E-2,7.5594666E-3,5.563889E-2,4.3732867E-2,4.2278892E-3,3.494833E-2,-6.343553E-2,-5.0294586E-2,-3.28017E-2,-5.0894905E-2,-3.7785616E-2,-8.171297E-3,-1.55123845E-2,1.3353057E-2,-7.403929E-2,-6.1507165E-2,-4.0698387E-2,-6.592392E-2,-5.6573402E-2,-3.5395443E-2,-3.176393E-2,-1.1650784E-2,4.364733E-2,2.1769332E-2,6.073125E-2,3.867762E-2,5.4988014E-3,3.0006438E-2,5.5782374E-2,3.7574694E-2,6.991666E-2,3.9236173E-2,7.853329E-2,3.9848216E-2,-1.3519536E-2,3.3738084E-2,-1.6032614E-2,1.4177106E-3,-8.169006E-3,-3.545491E-2,2.431322E-2,-4.853257E-3,-3.0523969E-2,-7.423387E-5,-5.941401E-2,-2.499297E-2,-1.9024625E-4,2.132505E-2,3.2374103E-2,5.8947306E-2,7.914325E-3,-1.8942652E-2,-1.6911713E-2,1.5352403E-2],"categories":[],"categories_nodes":[],"categories_segments":[],"categories_sizes":[],"default_left":[0,0,0,0,0,0,0,0,0,0,0,0,0,0,0,0,0,0,0,0,0,0,0,0,0,0,0,0,0,0,0,0,0,0,0,0,0,0,0,0,0,0,0,0,0,0,0,0,0,0,0,0,0,0,0,0,0,0,0,0,0,0,0,0,0,0,0,0,0,0,0,0,0,0,0,0,0,0,0,0,0,0,0,0,0,0,0,0,0,0,0,0,0,0,0,0,0,0,0,0,0,0,0,0,0,0,0,0,0,0,0,0,0,0,0,0,0,0,0,0,0,0,0,0,0,0,0],"id":3,"left_children":[1,3,5,7,9,11,13,15,17,19,21,23,25,27,29,31,33,35,37,39,41,43,45,47,49,51,53,55,57,59,61,63,65,67,69,71,73,75,77,79,81,83,85,87,89,91,93,95,97,99,101,103,105,107,109,111,113,115,117,119,121,123,125,-1,-1,-1,-1,-1,-1,-1,-1,-1,-1,-1,-1,-1,-1,-1,-1,-1,-1,-1,-1,-1,-1,-1,-1,-1,-1,-1,-1,-1,-1,-1,-1,-1,-1,-1,-1,-1,-1,-1,-1,-1,-1,-1,-1,-1,-1,-1,-1,-1,-1,-1,-1,-1,-1,-1,-1,-1,-1,-1,-1,-1,-1,-1,-1],"loss_changes":[7.774917E4,2.7594074E4,2.9491508E4,7.230665E3,2.5373438E3,6.570383E3,2.984575E3,1.6954336E3,2.8806052E3,1.6460078E3,8.3134375E2,2.2335605E3,1.1563867E3,1.2466931E3,1.9082129E3,7.031963E2,2.8245148E1,1.5024296E3,1.0164087E2,5.917031E2,5.418356E2,7.0614844E2,1.0449609E2,7.472793E2,9.2823193E2,6.943086E2,1.9071812E1,6.877021E2,4.3202686E2,7.1639307E2,8.366428E2,4.134585E2,3.9940137E2,2.3424408E1,2.0124516E1,7.8678186E2,6.441698E2,4.191626E1,3.1667023E1,1.1062109E2,2.3894727E2,1.6492798E2,2.1960579E2,3.1270703E2,4.7937842E2,5.216028E1,4.568875E1,3.504624E2,3.4213672E2,6.8721045E2,5.5561035E1,9.3899805E2,4.2528516E2,1.3753301E1,1.4397996E1,3.400747E2,2.2297092E2,1.5285742E2,1.8527197E2,1.3270404E2,2.4222656E2,2.8818134E2,6.5162134E2,0E0,0E0,0E0,0E0,0E0,0E0,0E0,0E0,0E0,0E0,0E0,0E0,0E0,0E0,0E0,0E0,0E0,0E0,0E0,0E0,0E0,0E0,0E0,0E0,0E0,0E0,0E0,0E0,0E0,0E0,0E0,0E0,0E0,0E0,0E0,0E0,0E0,0E0,0E0,0E0,0E0,0E0,0E0,0E0,0E0,0E0,0E0,0E0,0E0,0E0,0E0,0E0,0E0,0E0,0E0,0E0,0E0,0E0,0E0,0E0,0E0,0E0,0E0,0E0],"parents":[2147483647,0,0,1,1,2,2,3,3,4,4,5,5,6,6,7,7,8,8,9,9,10,10,11,11,12,12,13,13,14,14,15,15,16,16,17,17,18,18,19,19,20,20,21,21,22,22,23,23,24,24,25,25,26,26,27,27,28,28,29,29,30,30,31,31,32,32,33,33,34,34,35,35,36,36,37,37,38,38,39,39,40,40,41,41,42,42,43,43,44,44,45,45,46,46,47,47,48,48,49,49,50,50,51,51,52,52,53,53,54,54,55,55,56,56,57,57,58,58,59,59,60,60,61,61,62,62],"right_children":[2,4,6,8,10,12,14,16,18,20,22,24,26,28,30,32,34,36,38,40,42,44,46,48,50,52,54,56,58,60,62,64,66,68,70,72,74,76,78,80,82,84,86,88,90,92,94,96,98,100,102,104,106,108,110,112,114,116,118,120,122,124,126,-1,-1,-1,-1,-1,-1,-1,-1,-1,-1,-1,-1,-1,-1,-1,-1,-1,-1,-1,-1,-1,-1,-1,-1,-1,-1,-1,-1,-1,-1,-1,-1,-1,-1,-1,-1,-1,-1,-1,-1,-1,-1,-1,-1,-1,-1,-1,-1,-1,-1,-1,-1,-1,-1,-1,-1,-1,-1,-1,-1,-1,-1,-1,-1],"split_conditions":[2.510846E3,1.2327402E1,1.4667198E1,2.067632E3,2.9507223E1,2.830992E3,2.7963684E3,1E0,1E0,5.695042E3,-2.7563336E-1,1.1506747E3,3.9176072E3,4.0604553E1,3.5261208E1,4.6568437E0,6.7357984E-3,4.428775E0,1.0290315E3,2.1131235E3,2.1998003E3,6.800998E3,-1.3092655E-1,2.621778E3,1E0,2.9996252E3,1.02126134E-4,3.2179365E3,1.1220615E3,5.3130005E3,1.0290315E3,1.8694966E3,4.903621E3,7.494741E2,9.516139E1,8.715457E2,3.3461296E3,3.288914E0,1E0,4.514147E3,9.2131805E2,1E0,1E0,2.1519014E3,7.773569E1,2.2045298E3,2.3836167E3,6.582879E0,8.146806E0,2.69816E3,1.4808353E3,1.4680759E3,-1.4471315E-1,1.0273624E-3,1.665285E4,1.1752856E3,1.1447848E3,4.871129E3,-4.3123183E-1,3.0786868E3,2.9996252E3,2.98481E0,2.9996252E3,-2.991057E-2,-1.3088159E-2,-4.486169E-2,-2.6580328E-2,3.6473006E-2,1.9646514E-2,-2.484573E-3,2.9214893E-2,1.8494261E-2,3.298576E-4,-1.3088469E-2,7.5594666E-3,5.563889E-2,4.3732867E-2,4.2278892E-3,3.494833E-2,-6.343553E-2,-5.0294586E-2,-3.28017E-2,-5.0894905E-2,-3.7785616E-2,-8.171297E-3,-1.55123845E-2,1.3353057E-2,-7.403929E-2,-6.1507165E-2,-4.0698387E-2,-6.592392E-2,-5.6573402E-2,-3.5395443E-2,-3.176393E-2,-1.1650784E-2,4.364733E-2,2.1769332E-2,6.073125E-2,3.867762E-2,5.4988014E-3,3.0006438E-2,5.5782374E-2,3.7574694E-2,6.991666E-2,3.9236173E-2,7.853329E-2,3.9848216E-2,-1.3519536E-2,3.3738084E-2,-1.6032614E-2,1.4177106E-3,-8.169006E-3,-3.545491E-2,2.431322E-2,-4.853257E-3,-3.0523969E-2,-7.423387E-5,-5.941401E-2,-2.499297E-2,-1.9024625E-4,2.132505E-2,3.2374103E-2,5.8947306E-2,7.914325E-3,-1.8942652E-2,-1.6911713E-2,1.5352403E-2],"split_indices":[2,1,1,2,1,2,2,4,4,20,22,10,2,1,1,1,41,1,10,2,2,20,22,2,4,2,33,24,10,20,10,2,20,10,19,10,24,18,3,20,10,3,3,2,1,2,2,1,1,2,10,10,22,11,28,10,10,24,22,20,2,18,2,0,0,0,0,0,0,0,0,0,0,0,0,0,0,0,0,0,0,0,0,0,0,0,0,0,0,0,0,0,0,0,0,0,0,0,0,0,0,0,0,0,0,0,0,0,0,0,0,0,0,0,0,0,0,0,0,0,0,0,0,0,0,0,0],"split_type":[0,0,0,0,0,0,0,0,0,0,0,0,0,0,0,0,0,0,0,0,0,0,0,0,0,0,0,0,0,0,0,0,0,0,0,0,0,0,0,0,0,0,0,0,0,0,0,0,0,0,0,0,0,0,0,0,0,0,0,0,0,0,0,0,0,0,0,0,0,0,0,0,0,0,0,0,0,0,0,0,0,0,0,0,0,0,0,0,0,0,0,0,0,0,0,0,0,0,0,0,0,0,0,0,0,0,0,0,0,0,0,0,0,0,0,0,0,0,0,0,0,0,0,0,0,0,0],"sum_hessian":[2.3538342E5,1.3275277E5,1.0263066E5,7.688085E4,5.5871918E4,6.58724E4,3.6758258E4,2.8346697E4,4.8534156E4,2.4591096E4,3.128082E4,3.4436973E4,3.1435426E4,1.3856377E4,2.290188E4,2.7010121E4,1.336577E3,4.4301465E4,4.2326914E3,1.5485363E4,9.105733E3,2.8431586E4,2.8492363E3,2.0558936E4,1.3878038E4,3.0882148E4,5.5327783E2,7.498391E3,6.357986E3,6.510865E3,1.6391016E4,1.4668187E4,1.2341935E4,1.1375928E3,1.9898425E2,2.4281229E4,2.0020236E4,3.1103794E3,1.1223121E3,7.7882305E3,7.6971323E3,4.8006934E3,4.3050396E3,2.061838E4,7.8132046E3,1.206464E3,1.6427722E3,8.9517705E3,1.1607165E4,1.1573662E4,2.3043755E3,1.27246875E4,1.8157459E4,7.495607E1,4.7832175E2,4.7814727E3,2.7169182E3,3.7175312E3,2.6404546E3,3.044986E3,3.4658792E3,6.9348994E3,9.456115E3,6.9566216E3,7.7115645E3,7.216674E3,5.1252603E3,8.4861926E2,2.8897345E2,1.1065875E2,8.83255E1,1.3755578E4,1.052565E4,1.4970674E4,5.049563E3,1.6591198E3,1.4512596E3,9.368841E1,1.0286238E3,5.4440024E3,2.3442278E3,4.6765234E3,3.0206091E3,4.2691797E3,5.315138E2,3.494819E3,8.1022076E2,1.19173955E4,8.700985E3,4.6044385E3,3.2087664E3,6.4285205E2,5.63612E2,1.2723427E3,3.7042957E2,6.371079E3,2.5806917E3,9.427484E3,2.1796812E3,6.3925195E3,5.1811426E3,1.7244089E3,5.799666E2,9.305106E3,3.4195818E3,1.7410686E4,7.4677405E2,1.9680708E1,5.527536E1,2.0289064E2,2.754311E2,2.8903665E3,1.8911061E3,1.6192347E3,1.0976836E3,3.2435107E3,4.7402032E2,2.1571272E3,4.833273E2,1.1476656E3,1.8973204E3,1.6301885E3,1.8356908E3,1.2077457E3,5.7271533E3,1.9774392E3,7.4786763E3],"tree_param":{"num_deleted":"0","num_feature":"47","num_nodes":"127","size_leaf_vector":"1"}},{"base_weights":[-1.3173554E-3,-2.0085149E-1,8.687295E-1,-3.1648368E-1,2.3902981E-1,7.4996483E-1,1.0982078E0,-1.569535E-1,-5.511167E-1,4.0449548E-1,-2.958817E-2,6.506159E-1,9.215282E-1,1.031153E0,1.2582792E0,-2.2785749E-1,6.264791E-2,-6.93803E-1,-2.974228E-1,2.8482464E-1,6.841935E-1,-1.5368743E-1,2.4070579E-1,6.8050313E-1,2.602421E-1,9.8142153E-1,6.2480974E-1,9.4969124E-1,1.1872594E0,1.274939E0,4.74752E-1,-3.240408E-1,-9.8360695E-2,1.3334648E-1,-3.8552144E-1,-5.6079274E-1,-8.44556E-1,-2.2426833E-1,-6.1583024E-1,2.0058323E-1,5.0755304E-1,8.557902E-1,4.346455E-1,-2.5354654E-1,2.3778892E-1,1.5426213E-1,5.4407996E-1,7.137762E-1,3.6019108E-1,-5.1489407E-1,3.129737E-1,9.0198886E-1,1.1189401E0,4.0502423E-1,1.053814E0,1.1653146E0,9.1160685E-1,1.222203E0,7.253848E-1,1.206274E0,1.3885922E0,8.9329815E-1,3.8564626E-2,-2.5617406E-2,-1.1881525E-2,-9.203567E-3,2.6723917E-3,1.7204788E-3,1.5987521E-2,-2.6767794E-2,1.2413589E-2,-3.6073674E-2,-2.4150433E-2,-5.0701726E-2,-3.8110726E-2,-1.6150719E-2,3.2494185E-3,-4.7581647E-2,-1.3019422E-2,1.5547784E-2,-2.7297244E-3,2.7902303E-2,4.5524845E-3,3.632326E-2,4.7544703E-2,3.8248383E-2,1.6733935E-2,-5.6657502E-3,-1.9849716E-2,8.099674E-3,3.548323E-2,1.0066634E-3,1.5827542E-2,3.8252737E-2,1.755416E-2,4.3704253E-2,3.359559E-2,4.431871E-3,3.4181457E-2,-5.226935E-2,-6.1738637E-4,4.1629985E-2,1.22877015E-2,5.0768416E-2,4.089002E-2,6.546575E-2,5.232216E-2,9.880436E-3,4.0071033E-2,6.558469E-2,4.3338206E-2,6.895765E-2,5.6560744E-2,4.2353384E-2,5.4141026E-2,6.2961176E-2,4.4832747E-2,4.926841E-2,1.73805E-2,6.754976E-2,5.7203796E-2,7.023769E-2,3.5565805E-2,6.098449E-2,8.95301E-3,1.8283837E-2,-3.259368E-2],"categories":[],"categories_nodes":[],"categories_segments":[],"categories_sizes":[],"default_left":[0,0,0,0,0,0,0,0,0,0,0,0,0,0,0,0,0,0,0,0,0,0,0,0,0,0,0,0,0,0,0,0,0,0,0,0,0,0,0,0,0,0,0,0,0,0,0,0,0,0,0,0,0,0,0,0,0,0,0,0,0,0,0,0,0,0,0,0,0,0,0,0,0,0,0,0,0,0,0,0,0,0,0,0,0,0,0,0,0,0,0,0,0,0,0,0,0,0,0,0,0,0,0,0,0,0,0,0,0,0,0,0,0,0,0,0,0,0,0,0,0,0,0,0,0,0,0],"id":4,"left_children":[1,3,5,7,9,11,13,15,17,19,21,23,25,27,29,31,33,35,37,39,41,43,45,47,49,51,53,55,57,59,61,63,65,67,69,71,73,75,77,79,81,83,85,87,89,91,93,95,97,99,101,103,105,107,109,111,113,115,117,119,121,123,125,-1,-1,-1,-1,-1,-1,-1,-1,-1,-1,-1,-1,-1,-1,-1,-1,-1,-1,-1,-1,-1,-1,-1,-1,-1,-1,-1,-1,-1,-1,-1,-1,-1,-1,-1,-1,-1,-1,-1,-1,-1,-1,-1,-1,-1,-1,-1,-1,-1,-1,-1,-1,-1,-1,-1,-1,-1,-1,-1,-1,-1,-1,-1,-1],"loss_changes":[4.0784125E4,9.7204E3,1.1926875E3,5.663798E3,1.7682236E3,4.9093652E2,1.5794727E2,1.402721E3,2.216254E3,8.232805E2,5.0859656E2,2.1282812E2,1.8675195E2,1.318252E2,5.6018555E1,8.4793604E2,6.965298E2,7.847676E2,5.130337E2,3.23078E2,3.1476685E2,4.06373E2,1.2466339E2,1.8032568E2,5.3361183E1,9.4180664E1,1.6690942E2,5.482666E1,5.63667E1,3.0677246E1,1.6647305E1,6.3527E2,3.7775235E2,3.5005627E2,2.84686E2,2.593667E2,2.5467871E2,5.123611E2,4.9061096E2,3.5261E2,9.909387E1,5.218701E1,9.85202E1,1.6631122E2,7.498208E1,8.069278E1,4.4214264E1,1.0194141E2,1.4031172E2,2.1541794E1,4.194626E1,5.1608887E1,4.186499E1,9.644423E1,2.6833069E1,4.7320557E0,6.329297E1,3.818457E1,2.425322E1,2.149585E1,1.5615967E1,1.0109459E1,1.0851224E1,0E0,0E0,0E0,0E0,0E0,0E0,0E0,0E0,0E0,0E0,0E0,0E0,0E0,0E0,0E0,0E0,0E0,0E0,0E0,0E0,0E0,0E0,0E0,0E0,0E0,0E0,0E0,0E0,0E0,0E0,0E0,0E0,0E0,0E0,0E0,0E0,0E0,0E0,0E0,0E0,0E0,0E0,0E0,0E0,0E0,0E0,0E0,0E0,0E0,0E0,0E0,0E0,0E0,0E0,0E0,0E0,0E0,0E0,0E0,0E0,0E0,0E0,0E0,0E0],"parents":[2147483647,0,0,1,1,2,2,3,3,4,4,5,5,6,6,7,7,8,8,9,9,10,10,11,11,12,12,13,13,14,14,15,15,16,16,17,17,18,18,19,19,20,20,21,21,22,22,23,23,24,24,25,25,26,26,27,27,28,28,29,29,30,30,31,31,32,32,33,33,34,34,35,35,36,36,37,37,38,38,39,39,40,40,41,41,42,42,43,43,44,44,45,45,46,46,47,47,48,48,49,49,50,50,51,51,52,52,53,53,54,54,55,55,56,56,57,57,58,58,59,59,60,60,61,61,62,62],"right_children":[2,4,6,8,10,12,14,16,18,20,22,24,26,28,30,32,34,36,38,40,42,44,46,48,50,52,54,56,58,60,62,64,66,68,70,72,74,76,78,80,82,84,86,88,90,92,94,96,98,100,102,104,106,108,110,112,114,116,118,120,122,124,126,-1,-1,-1,-1,-1,-1,-1,-1,-1,-1,-1,-1,-1,-1,-1,-1,-1,-1,-1,-1,-1,-1,-1,-1,-1,-1,-1,-1,-1,-1,-1,-1,-1,-1,-1,-1,-1,-1,-1,-1,-1,-1,-1,-1,-1,-1,-1,-1,-1,-1,-1,-1,-1,-1,-1,-1,-1,-1,-1,-1,-1,-1,-1,-1],"split_conditions":[1E0,1.1879121E3,1.287478E3,2.831852E0,2.9904885E0,1.4772544E3,1.5509001E3,1.561808E3,5.695042E3,1.5394974E3,1.5394974E3,7.578569E0,1E0,1.7353679E3,2.4667676E3,8.000655E2,1E0,7.2996316E0,1E0,1.438211E3,1E0,1.7262426E3,1.5841371E3,1E0,6.9193115E2,2.2728667E3,3.4367827E3,2.618999E0,2.4667676E3,1.6551666E3,-7.420972E-1,5.201704E2,-4.872631E-1,2.2424048E3,4.111832E3,5.59143E2,6.043958E2,8.700364E3,5.529214E3,1E0,1E0,1.6791088E3,2.547965E0,7.2996316E0,3.4367827E3,1.7681609E3,2.929602E0,2.7966423E0,4.4855967E3,1.2778725E4,2.5373223E0,-4.35872E1,1.296339E4,6.1981914E3,2.546179E4,4.556141E3,-4.7753954E-1,5.9615445E0,-4.6737054E-1,-5.44884E1,-1.991244E-1,4.199915E4,3.457462E4,-2.5617406E-2,-1.1881525E-2,-9.203567E-3,2.6723917E-3,1.7204788E-3,1.5987521E-2,-2.6767794E-2,1.2413589E-2,-3.6073674E-2,-2.4150433E-2,-5.0701726E-2,-3.8110726E-2,-1.6150719E-2,3.2494185E-3,-4.7581647E-2,-1.3019422E-2,1.5547784E-2,-2.7297244E-3,2.7902303E-2,4.5524845E-3,3.632326E-2,4.7544703E-2,3.8248383E-2,1.6733935E-2,-5.6657502E-3,-1.9849716E-2,8.099674E-3,3.548323E-2,1.0066634E-3,1.5827542E-2,3.8252737E-2,1.755416E-2,4.3704253E-2,3.359559E-2,4.431871E-3,3.4181457E-2,-5.226935E-2,-6.1738637E-4,4.1629985E-2,1.22877015E-2,5.0768416E-2,4.089002E-2,6.546575E-2,5.232216E-2,9.880436E-3,4.0071033E-2,6.558469E-2,4.3338206E-2,6.895765E-2,5.6560744E-2,4.2353384E-2,5.4141026E-2,6.2961176E-2,4.4832747E-2,4.926841E-2,1.73805E-2,6.754976E-2,5.7203796E-2,7.023769E-2,3.5565805E-2,6.098449E-2,8.95301E-3,1.8283837E-2,-3.259368E-2],"split_indices":[3,10,10,9,9,17,17,17,20,10,10,9,13,10,10,10,13,9,13,17,14,17,17,13,21,17,17,18,10,10,22,21,22,17,17,21,21,20,24,14,13,10,18,9,17,10,18,18,24,38,18,15,28,24,28,20,22,9,22,15,22,23,38,0,0,0,0,0,0,0,0,0,0,0,0,0,0,0,0,0,0,0,0,0,0,0,0,0,0,0,0,0,0,0,0,0,0,0,0,0,0,0,0,0,0,0,0,0,0,0,0,0,0,0,0,0,0,0,0,0,0,0,0,0,0,0,0],"split_type":[0,0,0,0,0,0,0,0,0,0,0,0,0,0,0,0,0,0,0,0,0,0,0,0,0,0,0,0,0,0,0,0,0,0,0,0,0,0,0,0,0,0,0,0,0,0,0,0,0,0,0,0,0,0,0,0,0,0,0,0,0,0,0,0,0,0,0,0,0,0,0,0,0,0,0,0,0,0,0,0,0,0,0,0,0,0,0,0,0,0,0,0,0,0,0,0,0,0,0,0,0,0,0,0,0,0,0,0,0,0,0,0,0,0,0,0,0,0,0,0,0,0,0,0,0,0,0],"sum_hessian":[2.3492603E5,1.9110084E5,4.3825195E4,1.5132362E5,3.977722E4,2.8883316E4,1.4941878E4,9.0080484E4,6.1243137E4,2.4615627E4,1.5161593E4,1.829611E4,1.0587207E4,1.0538006E4,4.4038716E3,6.809613E4,2.1984354E4,3.9194867E4,2.204827E4,1.7242223E4,7.373404E3,1.0392429E4,4.7691636E3,1.6993084E4,1.3030261E3,8.805752E3,1.7814545E3,6.9313027E3,3.6067034E3,4.310945E3,9.2926704E1,3.907095E4,2.902518E4,1.8990436E4,2.9939175E3,2.082706E4,1.8367807E4,1.7931713E4,4.116556E3,1.2513465E4,4.7287583E3,4.366461E3,3.0069426E3,8.281568E3,2.1108606E3,3.7140393E3,1.0551244E3,1.5391474E4,1.6016095E3,8.183493E1,1.2211912E3,5.588786E3,3.2169658E3,1.1800211E3,6.014334E2,1.0340529E3,5.8972495E3,3.3504902E3,2.5621304E2,2.6973315E3,1.6136135E3,4.6302555E1,4.662415E1,1.2286094E4,2.6784855E4,1.8553188E4,1.0471992E4,1.2408362E4,6.5820737E3,2.4222256E3,5.7169183E2,6.788715E3,1.4038345E4,6.00032E3,1.2367486E4,1.3369325E4,4.562388E3,2.1151704E3,2.0013855E3,8.736425E3,3.7770398E3,4.216097E3,5.12661E2,1.8562185E3,2.5102424E3,6.9588007E2,2.3110625E3,4.1903984E3,4.0911697E3,1.8207964E3,2.9006418E2,2.03574E3,1.6782993E3,4.8931766E2,5.658068E2,3.1805518E3,1.2210923E4,8.721693E2,7.294402E2,3.8801044E1,4.303389E1,1.3772395E2,1.0834672E3,2.374274E3,3.2145125E3,8.805938E2,2.336372E3,7.7648364E2,4.035374E2,2.491932E2,3.522402E2,1.3477457E2,8.9927826E2,4.2892705E3,1.6079791E3,3.0044302E3,3.460602E2,1.5003056E2,1.0618248E2,8.021496E2,1.8951819E3,1.5742357E3,3.937777E1,3.0813644E1,1.548891E1,3.244641E1,1.4177738E1],"tree_param":{"num_deleted":"0","num_feature":"47","num_nodes":"127","size_leaf_vector":"1"}},{"base_weights":[2.4881198E-3,4.1795465E-1,-5.472097E-1,2.790978E-1,1.185612E0,-6.571555E-1,3.9578058E-2,1.2921254E-1,5.856699E-1,1.0578091E0,1.3455575E0,-3.810689E-1,-8.3487916E-1,-3.9643183E-2,7.8592473E-1,3.0038323E-2,4.043634E-1,4.3768302E-1,7.5288117E-1,7.257106E-1,1.1188813E0,1.2750914E0,1.422337E0,-6.2549657E-1,-3.7780743E-2,-9.931686E-1,-3.9272687E-1,-2.3187229E-1,3.158452E-1,9.894465E-1,2.501007E-1,1.8242463E-1,-1.6924399E-1,3.1908926E-1,6.3595194E-1,5.6171745E-1,2.160324E-1,6.7964864E-1,1.0379363E0,6.463708E-1,9.4154954E-1,1.2181417E0,1.0172299E0,1.2025161E0,1.3370414E0,1.4346887E0,6.678441E-1,-7.5431E-1,-4.4638273E-1,-1.2665759E-1,8.8354754E-1,-1.0310197E0,2.146026E-1,-5.0346977E-1,-1.5258177E-1,1.2681371E-1,-5.739786E-1,1.5155958E-1,4.620276E-1,7.084695E-1,1.1146348E0,1.0378029E-3,6.1775255E-1,4.426185E-3,1.5681552E-2,-1.5272522E-2,2.60906E-3,1.841296E-2,-1.66141E-2,4.2243503E-2,2.435752E-2,2.3175163E-2,3.9441183E-2,6.095869E-3,3.0367672E-2,2.9772738E-2,4.808196E-2,4.709111E-2,5.8579315E-2,3.4426693E-2,1.700323E-2,5.0689276E-2,2.1994455E-2,5.7468303E-2,6.636678E-2,4.747257E-2,5.95521E-2,3.8515482E-2,6.06799E-2,6.76646E-2,4.524877E-2,6.974633E-2,7.548913E-2,4.7155567E-2,-3.649807E-2,-4.3051135E-2,-3.0574411E-2,-1.6836068E-2,-3.2227416E-2,-1.1252163E-2,1.270132E-2,3.668694E-2,6.1659206E-2,-5.5632174E-2,-3.485682E-2,2.6163874E-2,-1.2526053E-2,-3.996289E-2,-2.1472272E-2,-2.130861E-2,-3.440952E-3,-8.079132E-4,3.2685596E-2,-3.615123E-2,-7.4047036E-3,-1.5553677E-2,1.0181304E-2,7.538046E-3,2.4452826E-2,4.1421007E-2,1.4362586E-2,4.408585E-2,6.1541665E-2,-1.3748923E-2,2.0651696E-2,1.6786847E-2,4.2695425E-2],"categories":[],"categories_nodes":[],"categories_segments":[],"categories_sizes":[],"default_left":[0,0,0,0,0,0,0,0,0,0,0,0,0,0,0,0,0,0,0,0,0,0,0,0,0,0,0,0,0,0,0,0,0,0,0,0,0,0,0,0,0,0,0,0,0,0,0,0,0,0,0,0,0,0,0,0,0,0,0,0,0,0,0,0,0,0,0,0,0,0,0,0,0,0,0,0,0,0,0,0,0,0,0,0,0,0,0,0,0,0,0,0,0,0,0,0,0,0,0,0,0,0,0,0,0,0,0,0,0,0,0,0,0,0,0,0,0,0,0,0,0,0,0,0,0,0,0],"id":5,"left_children":[1,3,5,7,9,11,13,15,17,19,21,23,25,27,29,31,33,35,37,39,41,43,45,47,49,51,53,55,57,59,61,63,65,67,69,71,73,75,77,79,81,83,85,87,89,91,93,95,97,99,101,103,105,107,109,111,113,115,117,119,121,123,125,-1,-1,-1,-1,-1,-1,-1,-1,-1,-1,-1,-1,-1,-1,-1,-1,-1,-1,-1,-1,-1,-1,-1,-1,-1,-1,-1,-1,-1,-1,-1,-1,-1,-1,-1,-1,-1,-1,-1,-1,-1,-1,-1,-1,-1,-1,-1,-1,-1,-1,-1,-1,-1,-1,-1,-1,-1,-1,-1,-1,-1,-1,-1,-1],"loss_changes":[5.355182E4,1.4234473E4,6.5122227E3,5.196302E3,4.1551953E2,4.1702266E3,9.4218024E2,2.072558E3,9.1798145E2,2.2900781E2,4.5964844E1,2.793373E3,3.618379E3,9.840608E2,1.6588544E2,1.6957043E3,3.967295E2,5.411946E2,3.62333E2,2.8930298E1,9.457129E1,1.8467773E1,3.8373047E1,4.477422E2,1.1337543E3,1.7415039E3,3.6223047E2,1.1473323E3,1.209841E2,3.7243774E1,3.8417732E1,3.8963416E2,7.298462E2,4.7131787E2,1.6719995E2,2.8076343E2,2.6005286E2,3.2802637E2,4.3566895E1,1.604181E1,1.5939331E1,3.3680664E1,5.3811523E1,8.610107E0,1.5541992E1,9.167969E0,2.8621239E1,1.7109033E2,1.7616394E2,4.7315723E2,6.191156E1,1.00460156E3,1.6646545E2,2.0333594E2,9.8412025E1,3.4409378E2,3.0321008E2,5.739783E1,2.2085815E1,1.6647018E1,1.8507446E1,2.9060633E1,1.0439957E1,0E0,0E0,0E0,0E0,0E0,0E0,0E0,0E0,0E0,0E0,0E0,0E0,0E0,0E0,0E0,0E0,0E0,0E0,0E0,0E0,0E0,0E0,0E0,0E0,0E0,0E0,0E0,0E0,0E0,0E0,0E0,0E0,0E0,0E0,0E0,0E0,0E0,0E0,0E0,0E0,0E0,0E0,0E0,0E0,0E0,0E0,0E0,0E0,0E0,0E0,0E0,0E0,0E0,0E0,0E0,0E0,0E0,0E0,0E0,0E0,0E0,0E0,0E0,0E0],"parents":[2147483647,0,0,1,1,2,2,3,3,4,4,5,5,6,6,7,7,8,8,9,9,10,10,11,11,12,12,13,13,14,14,15,15,16,16,17,17,18,18,19,19,20,20,21,21,22,22,23,23,24,24,25,25,26,26,27,27,28,28,29,29,30,30,31,31,32,32,33,33,34,34,35,35,36,36,37,37,38,38,39,39,40,40,41,41,42,42,43,43,44,44,45,45,46,46,47,47,48,48,49,49,50,50,51,51,52,52,53,53,54,54,55,55,56,56,57,57,58,58,59,59,60,60,61,61,62,62],"right_children":[2,4,6,8,10,12,14,16,18,20,22,24,26,28,30,32,34,36,38,40,42,44,46,48,50,52,54,56,58,60,62,64,66,68,70,72,74,76,78,80,82,84,86,88,90,92,94,96,98,100,102,104,106,108,110,112,114,116,118,120,122,124,126,-1,-1,-1,-1,-1,-1,-1,-1,-1,-1,-1,-1,-1,-1,-1,-1,-1,-1,-1,-1,-1,-1,-1,-1,-1,-1,-1,-1,-1,-1,-1,-1,-1,-1,-1,-1,-1,-1,-1,-1,-1,-1,-1,-1,-1,-1,-1,-1,-1,-1,-1,-1,-1,-1,-1,-1,-1,-1,-1,-1,-1,-1,-1,-1],"split_conditions":[1.1153654E1,1E0,1.3126785E3,1.0485603E3,1E0,2.5986277E1,1E0,1.5079592E3,1.3126785E3,5.717209E2,1.1778773E3,5.5247944E3,-3.419688E-1,-3.9473227E-1,4.2633385E1,4.352975E0,2.455076E3,5.0636783E0,1.6202487E3,1.3874939E3,2.050604E4,1.2008672E3,2.4667676E3,4.128023E3,1E0,1E0,9.4259674E2,2.7688301E1,1.5731578E3,7.1722695E3,4.1519097E3,4.4117695E3,4.7907744E3,1E0,1.547717E4,1.3928547E3,1.7561798E3,1.7056172E3,2.2424048E3,1E0,5.627173E4,1.5509001E3,1.3126785E3,1.5683241E3,2.4667676E3,1.431276E3,1.2346832E4,-5.2803725E-1,1.862567E1,2.455076E3,1.946227E3,7.725517E3,6.1547993E1,3.4852417E2,-2.4182807E-1,1.7711589E3,1.6791088E3,4.0915842E2,4.7348663E2,2.6539051E1,1.0698838E3,-5.329408E-1,1.5917672E3,4.426185E-3,1.5681552E-2,-1.5272522E-2,2.60906E-3,1.841296E-2,-1.66141E-2,4.2243503E-2,2.435752E-2,2.3175163E-2,3.9441183E-2,6.095869E-3,3.0367672E-2,2.9772738E-2,4.808196E-2,4.709111E-2,5.8579315E-2,3.4426693E-2,1.700323E-2,5.0689276E-2,2.1994455E-2,5.7468303E-2,6.636678E-2,4.747257E-2,5.95521E-2,3.8515482E-2,6.06799E-2,6.76646E-2,4.524877E-2,6.974633E-2,7.548913E-2,4.7155567E-2,-3.649807E-2,-4.3051135E-2,-3.0574411E-2,-1.6836068E-2,-3.2227416E-2,-1.1252163E-2,1.270132E-2,3.668694E-2,6.1659206E-2,-5.5632174E-2,-3.485682E-2,2.6163874E-2,-1.2526053E-2,-3.996289E-2,-2.1472272E-2,-2.130861E-2,-3.440952E-3,-8.079132E-4,3.2685596E-2,-3.615123E-2,-7.4047036E-3,-1.5553677E-2,1.0181304E-2,7.538046E-3,2.4452826E-2,4.1421007E-2,1.4362586E-2,4.408585E-2,6.1541665E-2,-1.3748923E-2,2.0651696E-2,1.6786847E-2,4.2695425E-2],"split_indices":[1,4,10,10,12,1,4,17,10,17,17,20,22,22,1,1,17,1,17,10,28,10,10,20,4,4,10,1,10,20,24,20,20,13,28,17,17,10,17,13,31,17,10,24,10,10,20,22,1,17,17,20,1,25,22,17,10,21,25,1,17,22,10,0,0,0,0,0,0,0,0,0,0,0,0,0,0,0,0,0,0,0,0,0,0,0,0,0,0,0,0,0,0,0,0,0,0,0,0,0,0,0,0,0,0,0,0,0,0,0,0,0,0,0,0,0,0,0,0,0,0,0,0,0,0,0,0],"split_type":[0,0,0,0,0,0,0,0,0,0,0,0,0,0,0,0,0,0,0,0,0,0,0,0,0,0,0,0,0,0,0,0,0,0,0,0,0,0,0,0,0,0,0,0,0,0,0,0,0,0,0,0,0,0,0,0,0,0,0,0,0,0,0,0,0,0,0,0,0,0,0,0,0,0,0,0,0,0,0,0,0,0,0,0,0,0,0,0,0,0,0,0,0,0,0,0,0,0,0,0,0,0,0,0,0,0,0,0,0,0,0,0,0,0,0,0,0,0,0,0,0,0,0,0,0,0,0],"sum_hessian":[2.3448281E5,1.3354755E5,1.0093527E5,1.13092875E5,2.0454668E4,8.5008125E4,1.5927149E4,7.595902E4,3.713385E4,1.1375742E4,9.078925E3,3.329368E4,5.171445E4,1.4399035E4,1.5281139E3,5.583648E4,2.0122543E4,1.9702857E4,1.7430992E4,1.7702963E3,9.605446E3,4.7466787E3,4.3322456E3,1.9445695E4,1.3847985E4,3.807965E4,1.3634799E4,9.346631E3,5.0524043E3,1.1061759E3,4.2193796E2,3.1642688E4,2.4193795E4,1.4710477E4,5.412066E3,1.2630891E4,7.071966E3,1.3872258E4,3.558735E3,1.2990814E3,4.712148E2,4.8518354E3,4.753611E3,2.1989993E3,2.5476797E3,4.260927E3,7.1319115E1,1.13076E4,8.1380957E3,1.2630935E4,1.2170504E3,3.6923055E4,1.1565935E3,9.329378E3,4.3054204E3,4.5623457E3,4.7842856E3,2.3814705E3,2.6709338E3,3.4422906E2,7.6194684E2,2.5294507E2,1.6899289E2,1.8446502E4,1.3196185E4,1.4980587E4,9.213208E3,1.3679088E4,1.0313885E3,2.2479268E3,3.1641392E3,8.821285E3,3.8096052E3,5.70296E3,1.3690063E3,1.068648E4,3.185777E3,2.0769148E3,1.4818203E3,1.1393674E3,1.5971402E2,4.1013968E2,6.1075115E1,2.986742E3,1.8650934E3,3.4266978E3,1.326913E3,5.786407E1,2.1411353E3,2.4521606E3,9.5518814E1,2.802982E3,1.4579447E3,6.015575E1,1.1163363E1,6.4670566E3,4.840543E3,5.2423125E3,2.8957832E3,1.0038312E4,2.5926235E3,8.5516595E2,3.6188446E2,2.9666676E4,7.2563804E3,6.957895E2,4.6080405E2,1.8641232E3,7.465255E3,1.00682306E3,3.2985977E3,3.5886094E3,9.7373615E2,3.5426123E3,1.2416731E3,2.3943253E2,2.1420378E3,2.1540387E2,2.45553E3,2.6625388E2,7.797519E1,2.578941E2,5.0405273E2,1.509412E2,1.0200388E2,7.908687E1,8.990602E1],"tree_param":{"num_deleted":"0","num_feature":"47","num_nodes":"127","size_leaf_vector":"1"}},{"base_weights":[4.885527E-4,-4.6758518E-1,5.9693706E-1,-1.3588032E-1,-9.5876795E-1,9.519837E-1,-6.390043E-2,-4.3708935E-1,1.2643258E-1,-7.893547E-1,-1.160687E0,6.359366E-1,1.2348695E0,-4.019848E-1,1.5530944E-1,-5.154315E-1,2.2459213E-1,2.925771E-2,5.861298E-1,-9.9602336E-1,-5.6608415E-1,-1.2767216E0,-1.0190041E0,7.913433E-1,3.8197806E-1,1.2561557E0,-4.7112778E-2,-1.2103349E-1,-6.566724E-1,5.8205104E-1,2.042408E-3,-4.0210965E-1,-7.1658814E-1,1.618304E-2,5.785796E-1,1.9042471E-1,-1.8750311E-1,3.967595E-1,8.473698E-1,-1.1532601E0,-8.1673604E-1,-7.6698446E-1,-3.3745614E-1,-1.2959046E0,-8.7308025E-1,-1.0403192E0,-1.8956259E-1,6.7835903E-1,9.5479757E-1,1.663747E-1,6.250023E-1,1.0412533E0,1.3749241E0,4.0092787E-1,-1.4450738E-1,-3.822841E-1,2.078347E-1,-7.187758E-1,-1.6627884E-1,2.3582913E-1,8.835179E-1,-2.462549E-1,1.4106688E-1,-2.9718218E-2,-1.3639075E-2,-4.7331195E-2,-3.0155927E-2,-1.3162354E-2,5.792204E-3,1.847489E-2,3.7481263E-2,2.186187E-3,1.7680911E-2,-1.6476102E-2,-2.9137134E-6,1.2733134E-2,2.9715074E-2,3.4499533E-2,5.4662295E-2,-5.2960124E-2,-6.342179E-2,-3.3446044E-2,-4.572885E-2,-4.141566E-2,-1.7897598E-2,-2.2576913E-2,4.008557E-3,-7.090662E-2,-6.2510855E-2,-4.6286065E-2,6.647907E-3,-5.354023E-2,-3.5335217E-2,-2.6853403E-2,1.5815033E-2,2.7675945E-2,4.1480664E-2,4.1132193E-2,5.3806316E-2,-7.859338E-4,1.6406499E-2,2.6677588E-2,4.4746306E-2,5.6077775E-2,3.787748E-2,7.1623E-2,5.8142968E-2,-1.4217185E-2,4.288044E-2,-3.972693E-2,-4.936693E-3,-1.080661E-2,-2.7049286E-2,5.6752726E-3,3.41209E-2,-4.044139E-2,-2.9147774E-2,9.2534E-3,-3.0966584E-2,-2.0362756E-3,1.9475127E-2,3.2312807E-2,5.4656412E-2,-2.1053087E-2,-1.9691966E-3,-6.2367073E-3,1.3106768E-2],"categories":[],"categories_nodes":[],"categories_segments":[],"categories_sizes":[],"default_left":[0,0,0,0,0,0,0,0,0,0,0,0,0,0,0,0,0,0,0,0,0,0,0,0,0,0,0,0,0,0,0,0,0,0,0,0,0,0,0,0,0,0,0,0,0,0,0,0,0,0,0,0,0,0,0,0,0,0,0,0,0,0,0,0,0,0,0,0,0,0,0,0,0,0,0,0,0,0,0,0,0,0,0,0,0,0,0,0,0,0,0,0,0,0,0,0,0,0,0,0,0,0,0,0,0,0,0,0,0,0,0,0,0,0,0,0,0,0,0,0,0,0,0,0,0,0,0],"id":6,"left_children":[1,3,5,7,9,11,13,15,17,19,21,23,25,27,29,31,33,35,37,39,41,43,45,47,49,51,53,55,57,59,61,63,65,67,69,71,73,75,77,79,81,83,85,87,89,91,93,95,97,99,101,103,105,107,109,111,113,115,117,119,121,123,125,-1,-1,-1,-1,-1,-1,-1,-1,-1,-1,-1,-1,-1,-1,-1,-1,-1,-1,-1,-1,-1,-1,-1,-1,-1,-1,-1,-1,-1,-1,-1,-1,-1,-1,-1,-1,-1,-1,-1,-1,-1,-1,-1,-1,-1,-1,-1,-1,-1,-1,-1,-1,-1,-1,-1,-1,-1,-1,-1,-1,-1,-1,-1,-1],"loss_changes":[6.534117E4,2.136472E4,2.4146266E4,6.184873E3,1.8062969E3,5.9834727E3,2.6657712E3,1.8891006E3,1.8686788E3,1.3251621E3,3.9396484E2,1.2471289E3,9.6458594E2,1.0119453E3,1.4268191E3,7.418545E2,2.8427518E2,1.2066897E3,3.6018384E2,4.1885645E2,6.340664E2,1.0038281E2,1.9124707E2,3.6078223E2,6.286669E2,8.842344E2,2.513076E1,5.783602E2,2.2541748E2,6.009425E2,5.542104E2,5.176804E2,3.050332E2,6.762574E1,5.025229E1,4.741076E2,3.919273E2,1.1830597E2,1.1699072E2,8.359766E1,9.953076E1,1.8362256E2,3.0837982E2,6.751172E1,3.2580444E1,1.060625E2,4.844394E1,2.1795264E2,1.2664209E2,1.8764786E2,1.3811499E2,2.801084E2,2.7003516E2,3.259907E1,1.3639321E1,9.842859E1,1.3288951E2,7.937134E1,1.3344684E2,1.1431818E2,1.51625E2,2.0812204E2,3.3138092E2,0E0,0E0,0E0,0E0,0E0,0E0,0E0,0E0,0E0,0E0,0E0,0E0,0E0,0E0,0E0,0E0,0E0,0E0,0E0,0E0,0E0,0E0,0E0,0E0,0E0,0E0,0E0,0E0,0E0,0E0,0E0,0E0,0E0,0E0,0E0,0E0,0E0,0E0,0E0,0E0,0E0,0E0,0E0,0E0,0E0,0E0,0E0,0E0,0E0,0E0,0E0,0E0,0E0,0E0,0E0,0E0,0E0,0E0,0E0,0E0,0E0,0E0,0E0,0E0],"parents":[2147483647,0,0,1,1,2,2,3,3,4,4,5,5,6,6,7,7,8,8,9,9,10,10,11,11,12,12,13,13,14,14,15,15,16,16,17,17,18,18,19,19,20,20,21,21,22,22,23,23,24,24,25,25,26,26,27,27,28,28,29,29,30,30,31,31,32,32,33,33,34,34,35,35,36,36,37,37,38,38,39,39,40,40,41,41,42,42,43,43,44,44,45,45,46,46,47,47,48,48,49,49,50,50,51,51,52,52,53,53,54,54,55,55,56,56,57,57,58,58,59,59,60,60,61,61,62,62],"right_children":[2,4,6,8,10,12,14,16,18,20,22,24,26,28,30,32,34,36,38,40,42,44,46,48,50,52,54,56,58,60,62,64,66,68,70,72,74,76,78,80,82,84,86,88,90,92,94,96,98,100,102,104,106,108,110,112,114,116,118,120,122,124,126,-1,-1,-1,-1,-1,-1,-1,-1,-1,-1,-1,-1,-1,-1,-1,-1,-1,-1,-1,-1,-1,-1,-1,-1,-1,-1,-1,-1,-1,-1,-1,-1,-1,-1,-1,-1,-1,-1,-1,-1,-1,-1,-1,-1,-1,-1,-1,-1,-1,-1,-1,-1,-1,-1,-1,-1,-1,-1,-1,-1,-1,-1,-1,-1],"split_conditions":[2.5057136E3,1.3212044E1,1.54767E1,2.142324E3,3.962968E1,2.7881038E3,2.8132847E3,1E0,1E0,5.0201855E3,2.1471191E3,5.3191786E0,3.9176072E3,3.6077084E1,3.5261208E1,6.0656414E0,1E0,4.9798474E0,1E0,2.1276565E3,2.1855908E3,1E0,1E0,2.7311514E3,2.6949023E3,2.934609E3,4.0646516E3,2.910985E3,5.080445E3,5.2881465E3,6.763922E2,1.8765111E3,3.7336406E3,1.8234369E3,1.9556636E3,2.3374756E3,2.6604768E3,3.2898162E3,1E0,2.30071E1,1.9340704E1,1E0,1E0,1.7526842E3,8.031813E3,5.529214E3,4.3930947E3,2.652534E3,2.6337878E3,2.627762E3,1E0,7.7505765E0,7.503448E0,1.9176256E3,9.6974546E-1,2.2116543E1,1E0,2.671597E3,8.26956E1,2.965831E3,3.4248281E3,9.3448083E2,6.176939E2,-2.9718218E-2,-1.3639075E-2,-4.7331195E-2,-3.0155927E-2,-1.3162354E-2,5.792204E-3,1.847489E-2,3.7481263E-2,2.186187E-3,1.7680911E-2,-1.6476102E-2,-2.9137134E-6,1.2733134E-2,2.9715074E-2,3.4499533E-2,5.4662295E-2,-5.2960124E-2,-6.342179E-2,-3.3446044E-2,-4.572885E-2,-4.141566E-2,-1.7897598E-2,-2.2576913E-2,4.008557E-3,-7.090662E-2,-6.2510855E-2,-4.6286065E-2,6.647907E-3,-5.354023E-2,-3.5335217E-2,-2.6853403E-2,1.5815033E-2,2.7675945E-2,4.1480664E-2,4.1132193E-2,5.3806316E-2,-7.859338E-4,1.6406499E-2,2.6677588E-2,4.4746306E-2,5.6077775E-2,3.787748E-2,7.1623E-2,5.8142968E-2,-1.4217185E-2,4.288044E-2,-3.972693E-2,-4.936693E-3,-1.080661E-2,-2.7049286E-2,5.6752726E-3,3.41209E-2,-4.044139E-2,-2.9147774E-2,9.2534E-3,-3.0966584E-2,-2.0362756E-3,1.9475127E-2,3.2312807E-2,5.4656412E-2,-2.1053087E-2,-1.9691966E-3,-6.2367073E-3,1.3106768E-2],"split_indices":[2,1,1,2,1,2,2,0,0,20,2,1,2,1,1,1,4,1,4,2,2,6,4,24,24,2,2,24,24,20,25,2,20,2,2,2,24,24,12,1,1,6,6,2,24,24,24,2,2,2,0,1,1,32,1,1,0,2,1,20,24,21,21,0,0,0,0,0,0,0,0,0,0,0,0,0,0,0,0,0,0,0,0,0,0,0,0,0,0,0,0,0,0,0,0,0,0,0,0,0,0,0,0,0,0,0,0,0,0,0,0,0,0,0,0,0,0,0,0,0,0,0,0,0,0,0,0],"split_type":[0,0,0,0,0,0,0,0,0,0,0,0,0,0,0,0,0,0,0,0,0,0,0,0,0,0,0,0,0,0,0,0,0,0,0,0,0,0,0,0,0,0,0,0,0,0,0,0,0,0,0,0,0,0,0,0,0,0,0,0,0,0,0,0,0,0,0,0,0,0,0,0,0,0,0,0,0,0,0,0,0,0,0,0,0,0,0,0,0,0,0,0,0,0,0,0,0,0,0,0,0,0,0,0,0,0,0,0,0,0,0,0,0,0,0,0,0,0,0,0,0,0,0,0,0,0,0],"sum_hessian":[2.3404295E5,1.3113319E5,1.02909766E5,7.827495E4,5.285824E4,6.69435E4,3.596626E4,3.6436656E4,4.1838297E4,2.8746695E4,2.4111545E4,3.1620883E4,3.5322617E4,1.414778E4,2.181848E4,3.2580186E4,3.8564717E3,3.453924E4,7.299059E3,1.4925408E4,1.3821287E4,1.3249224E4,1.086232E4,1.961416E4,1.2006721E4,3.47461E4,5.7651874E2,6.728675E3,7.4191055E3,5.763923E3,1.6054559E4,2.0843475E4,1.1736712E4,2.4289138E3,1.4275579E3,1.9811402E4,1.4727837E4,4.2341787E3,3.0648804E3,7.9473115E3,6.9780967E3,7.354334E3,6.466953E3,1.2644829E4,6.043948E2,1.0589337E4,2.7298383E2,1.1602438E4,8.011723E3,6.364278E3,5.6424434E3,1.2372666E4,2.2373434E4,1.0147176E2,4.7504697E2,3.7505898E3,2.9780847E3,6.5838438E3,8.3526215E2,2.6844207E3,3.0795022E3,5.761022E3,1.0293537E4,8.3794375E3,1.2464037E4,3.8730894E3,7.863622E3,6.36798E2,1.7921158E3,6.4509454E2,7.824633E2,1.0435161E4,9.37624E3,8.377294E3,6.3505425E3,2.4655022E3,1.7686764E3,1.8723046E3,1.1925758E3,4.382719E3,3.5645923E3,2.7844211E3,4.1936753E3,6.3934736E3,9.608602E2,5.080298E3,1.3866552E3,3.4293438E3,9.215485E3,5.7489044E2,2.9504341E1,9.699315E3,8.9002106E2,1.6236977E2,1.1061406E2,6.3605874E3,5.2418506E3,3.8404875E3,4.1712354E3,2.9928909E3,3.3713867E3,4.218156E3,1.4242875E3,9.639497E3,2.733169E3,1.75923E4,4.781134E3,4.0292877E1,6.1178883E1,2.9456257E1,4.455907E2,1.834979E3,1.9156108E3,2.4862124E3,4.9187247E2,3.9537688E3,2.6300747E3,4.7014673E2,3.6511545E2,9.5795013E2,1.7264705E3,1.4475089E3,1.6319933E3,3.120627E3,2.6403948E3,3.2199988E3,7.073538E3],"tree_param":{"num_deleted":"0","num_feature":"47","num_nodes":"127","size_leaf_vector":"1"}},{"base_weights":[-1.2099113E-3,-4.799721E-1,5.28628E-1,-5.65439E-1,2.240742E-1,3.50706E-1,1.0104374E0,-8.000675E-1,-3.6162207E-1,6.0323175E-2,6.503363E-1,6.175553E-2,5.322138E-1,7.447744E-1,1.2443414E0,-6.933405E-1,-9.583167E-1,-2.2780406E-1,-5.661348E-1,-1.7716542E-1,2.0023693E-1,4.937786E-1,8.9498484E-1,1.7695722E-1,-2.614482E-1,6.455419E-1,3.4153152E-2,5.8604985E-1,1.0249696E0,1.277098E0,1.3219719E-1,-9.0831393E-1,-6.0382444E-1,-1.0186172E0,-7.0993435E-1,-3.2433578E-1,-4.7768034E-2,-6.258027E-1,-1.7635946E-1,-9.360249E-2,-6.650253E-1,4.7098953E-2,3.5620007E-1,1.1850421E-1,6.069056E-1,6.13818E-1,9.6888834E-1,1.1501834E-1,4.664599E-1,-4.126641E-1,-6.502551E-2,4.4761714E-1,7.8960544E-1,1.7308775E-1,-2.5296888E-1,4.840333E-1,8.1624275E-1,9.057376E-1,1.1603161E0,1.1242622E0,1.3810927E0,2.4850951E-1,-2.843153E-1,-5.16006E-2,-4.1417673E-2,-4.2252116E-2,-2.837432E-2,-4.7832675E-2,-5.886952E-2,-2.5373224E-2,-4.0692117E-2,-1.8408155E-2,-3.935434E-3,-5.3466014E-3,1.4147023E-2,-2.5412312E-2,-3.6283243E-2,-1.6440855E-2,1.1214096E-3,-1.8543556E-2,-2.7362243E-4,-5.451494E-2,-1.5001803E-2,-2.2447049E-3,1.7354988E-2,2.1242503E-2,-1.9245055E-3,-4.2474545E-3,1.6937917E-2,3.330061E-2,9.992167E-3,3.5358276E-2,-9.203487E-3,1.9774128E-2,4.9591713E-2,1.322477E-3,1.1266957E-2,2.6534995E-2,6.0198153E-3,-2.607739E-2,-1.3201955E-2,8.238055E-3,-8.898299E-3,2.7484233E-2,5.0495616E-3,1.662321E-2,4.4119306E-2,-1.0178123E-2,1.3136126E-2,-2.0192187E-2,5.686574E-3,3.0599339E-2,1.5954643E-2,3.547605E-2,5.015673E-2,5.477431E-2,4.172293E-2,5.212645E-2,6.073164E-2,5.0875157E-2,6.291881E-2,6.5387055E-2,7.2141446E-2,-9.209861E-3,1.8551072E-2,-3.5600122E-2,1.4500591E-2],"categories":[],"categories_nodes":[],"categories_segments":[],"categories_sizes":[],"default_left":[0,0,0,0,0,0,0,0,0,0,0,0,0,0,0,0,0,0,0,0,0,0,0,0,0,0,0,0,0,0,0,0,0,0,0,0,0,0,0,0,0,0,0,0,0,0,0,0,0,0,0,0,0,0,0,0,0,0,0,0,0,0,0,0,0,0,0,0,0,0,0,0,0,0,0,0,0,0,0,0,0,0,0,0,0,0,0,0,0,0,0,0,0,0,0,0,0,0,0,0,0,0,0,0,0,0,0,0,0,0,0,0,0,0,0,0,0,0,0,0,0,0,0,0,0,0,0],"id":7,"left_children":[1,3,5,7,9,11,13,15,17,19,21,23,25,27,29,31,33,35,37,39,41,43,45,47,49,51,53,55,57,59,61,63,65,67,69,71,73,75,77,79,81,83,85,87,89,91,93,95,97,99,101,103,105,107,109,111,113,115,117,119,121,123,125,-1,-1,-1,-1,-1,-1,-1,-1,-1,-1,-1,-1,-1,-1,-1,-1,-1,-1,-1,-1,-1,-1,-1,-1,-1,-1,-1,-1,-1,-1,-1,-1,-1,-1,-1,-1,-1,-1,-1,-1,-1,-1,-1,-1,-1,-1,-1,-1,-1,-1,-1,-1,-1,-1,-1,-1,-1,-1,-1,-1,-1,-1,-1,-1],"loss_changes":[5.921591E4,7.3793477E3,9.498E3,5.2287227E3,9.262292E2,4.244045E3,1.8549727E3,8.5706836E2,1.6011289E3,3.1879626E2,1.3994519E2,1.1626165E3,2.8051143E3,6.2100195E2,5.779512E2,5.8301953E2,3.0500977E2,6.146659E2,5.3778613E2,1.4450687E2,1.439991E2,9.506793E1,2.8429321E1,4.1246442E2,2.4342157E2,1.1535352E3,3.6760095E2,2.0883765E2,7.954736E1,2.424961E2,2.2150684E1,8.647412E1,1.8676562E2,1.5982031E2,8.315869E1,2.4765723E2,2.4161513E2,2.3463965E2,9.3362595E1,7.403625E1,7.952309E1,8.4326866E1,8.121893E1,2.3606749E1,4.0991516E1,2.2943459E1,1.3822388E1,1.85193E2,8.977118E1,7.446063E1,9.272037E1,6.0319165E2,9.928721E2,2.097996E2,1.6640042E2,1.3012231E2,5.311438E1,3.4582275E1,1.2727051E1,8.7163086E1,3.830078E1,1.9142033E1,2.4759762E1,0E0,0E0,0E0,0E0,0E0,0E0,0E0,0E0,0E0,0E0,0E0,0E0,0E0,0E0,0E0,0E0,0E0,0E0,0E0,0E0,0E0,0E0,0E0,0E0,0E0,0E0,0E0,0E0,0E0,0E0,0E0,0E0,0E0,0E0,0E0,0E0,0E0,0E0,0E0,0E0,0E0,0E0,0E0,0E0,0E0,0E0,0E0,0E0,0E0,0E0,0E0,0E0,0E0,0E0,0E0,0E0,0E0,0E0,0E0,0E0,0E0,0E0,0E0,0E0],"parents":[2147483647,0,0,1,1,2,2,3,3,4,4,5,5,6,6,7,7,8,8,9,9,10,10,11,11,12,12,13,13,14,14,15,15,16,16,17,17,18,18,19,19,20,20,21,21,22,22,23,23,24,24,25,25,26,26,27,27,28,28,29,29,30,30,31,31,32,32,33,33,34,34,35,35,36,36,37,37,38,38,39,39,40,40,41,41,42,42,43,43,44,44,45,45,46,46,47,47,48,48,49,49,50,50,51,51,52,52,53,53,54,54,55,55,56,56,57,57,58,58,59,59,60,60,61,61,62,62],"right_children":[2,4,6,8,10,12,14,16,18,20,22,24,26,28,30,32,34,36,38,40,42,44,46,48,50,52,54,56,58,60,62,64,66,68,70,72,74,76,78,80,82,84,86,88,90,92,94,96,98,100,102,104,106,108,110,112,114,116,118,120,122,124,126,-1,-1,-1,-1,-1,-1,-1,-1,-1,-1,-1,-1,-1,-1,-1,-1,-1,-1,-1,-1,-1,-1,-1,-1,-1,-1,-1,-1,-1,-1,-1,-1,-1,-1,-1,-1,-1,-1,-1,-1,-1,-1,-1,-1,-1,-1,-1,-1,-1,-1,-1,-1,-1,-1,-1,-1,-1,-1,-1,-1,-1,-1,-1,-1],"split_conditions":[2.4603965E3,1E0,1E0,2.0882537E3,1E0,2.6914353E3,2.8499841E3,3.1617773E0,2.9904885E0,2.1181277E3,1E0,5.1548038E0,3.5920752E3,1E0,4.0646516E3,1.7621096E3,6.933305E3,2.3332014E3,2.103821E3,1E0,1.1711881E3,6.967131E2,2.3789788E3,1.8190612E3,2.7806448E3,2.8694282E3,3.9976695E0,1.6202487E3,1.219569E3,3.0443127E3,6.4152303E0,6.2286945E2,3.2122977E2,1.133241E1,2.6911318E0,1.8704797E3,1.9271394E3,3.1588662E0,2.305783E3,1.7896555E3,4.5841846E3,1E0,1E0,2.241637E3,1E0,7.602967E3,1.6752019E3,2.5812092E3,1E0,2.587054E3,2.7656233E0,5.8562074E0,2.6638643E3,4.8683765E2,1.3770304E3,4.9443832E4,2.5441428E3,3.5919805E4,2.6042583E3,1E0,1E0,2.4027709E4,7.602967E3,-5.16006E-2,-4.1417673E-2,-4.2252116E-2,-2.837432E-2,-4.7832675E-2,-5.886952E-2,-2.5373224E-2,-4.0692117E-2,-1.8408155E-2,-3.935434E-3,-5.3466014E-3,1.4147023E-2,-2.5412312E-2,-3.6283243E-2,-1.6440855E-2,1.1214096E-3,-1.8543556E-2,-2.7362243E-4,-5.451494E-2,-1.5001803E-2,-2.2447049E-3,1.7354988E-2,2.1242503E-2,-1.9245055E-3,-4.2474545E-3,1.6937917E-2,3.330061E-2,9.992167E-3,3.5358276E-2,-9.203487E-3,1.9774128E-2,4.9591713E-2,1.322477E-3,1.1266957E-2,2.6534995E-2,6.0198153E-3,-2.607739E-2,-1.3201955E-2,8.238055E-3,-8.898299E-3,2.7484233E-2,5.0495616E-3,1.662321E-2,4.4119306E-2,-1.0178123E-2,1.3136126E-2,-2.0192187E-2,5.686574E-3,3.0599339E-2,1.5954643E-2,3.547605E-2,5.015673E-2,5.477431E-2,4.172293E-2,5.212645E-2,6.073164E-2,5.0875157E-2,6.291881E-2,6.5387055E-2,7.2141446E-2,-9.209861E-3,1.8551072E-2,-3.5600122E-2,1.4500591E-2],"split_indices":[2,3,3,2,5,2,2,9,9,2,12,9,2,5,2,2,20,2,17,13,17,17,24,17,24,2,9,17,17,2,9,25,25,9,18,17,17,18,2,2,24,12,13,2,13,20,2,2,13,2,18,9,20,25,25,30,17,30,2,5,5,27,20,0,0,0,0,0,0,0,0,0,0,0,0,0,0,0,0,0,0,0,0,0,0,0,0,0,0,0,0,0,0,0,0,0,0,0,0,0,0,0,0,0,0,0,0,0,0,0,0,0,0,0,0,0,0,0,0,0,0,0,0,0,0,0,0],"split_type":[0,0,0,0,0,0,0,0,0,0,0,0,0,0,0,0,0,0,0,0,0,0,0,0,0,0,0,0,0,0,0,0,0,0,0,0,0,0,0,0,0,0,0,0,0,0,0,0,0,0,0,0,0,0,0,0,0,0,0,0,0,0,0,0,0,0,0,0,0,0,0,0,0,0,0,0,0,0,0,0,0,0,0,0,0,0,0,0,0,0,0,0,0,0,0,0,0,0,0,0,0,0,0,0,0,0,0,0,0,0,0,0,0,0,0,0,0,0,0,0,0,0,0,0,0,0,0],"sum_hessian":[2.3343823E5,1.2263034E5,1.1080789E5,1.0935609E5,1.3274248E4,8.09263E4,2.9881594E4,5.0833062E4,5.852303E4,9.591813E3,3.682435E3,3.1223807E4,4.9702492E4,1.3993924E4,1.588767E4,3.0363637E4,2.0469426E4,3.537851E4,2.3144521E4,3.5545337E3,6.03728E3,2.2485706E3,1.4338645E3,2.3020467E4,8.203341E3,4.0488496E4,9.213996E3,8.936476E3,5.057448E3,1.5432529E4,4.5513977E2,8.922191E3,2.1441447E4,1.6466654E4,4.0027705E3,2.3027855E4,1.2350655E4,2.0070225E4,3.0742954E3,3.0366235E3,5.179103E2,3.0485044E3,2.9887751E3,5.223279E2,1.7262427E3,3.0178616E2,1.1320784E3,1.896586E4,4.054607E3,4.63299E3,3.570351E3,1.7059088E4,2.3429406E4,6.2108066E3,3.0031897E3,6.195873E3,2.740603E3,2.6948442E3,2.362604E3,6.255606E3,9.176924E3,3.570393E2,9.810047E1,3.4959026E3,5.4262886E3,2.802431E3,1.8639016E4,1.1851569E4,4.6150854E3,1.3611659E3,2.6416045E3,1.9538977E4,3.4888804E3,1.0478273E4,1.872382E3,9.223515E3,1.084671E4,1.7409541E3,1.3333412E3,7.3025726E2,2.3063662E3,2.3765057E2,2.802597E2,2.3324573E3,7.1604724E2,2.5469626E3,4.4181262E2,2.7065884E2,2.51669E2,1.5057402E3,2.2050235E2,2.7084006E2,3.0946104E1,4.5099197E1,1.0869791E3,1.0523252E4,8.442606E3,3.4181208E3,6.36486E2,2.6706099E3,1.9623802E3,1.1749446E3,2.3954065E3,1.317697E4,3.882119E3,3.954599E3,1.9474809E4,1.1925975E3,5.018209E3,2.1286443E3,8.7454535E2,3.4859138E3,2.7099592E3,1.7492133E3,9.913897E2,7.300441E2,1.9648E3,7.5492554E2,1.6076786E3,3.4898718E3,2.7657341E3,4.2077666E3,4.969157E3,7.777095E1,2.7926834E2,5.65901E1,4.1510372E1],"tree_param":{"num_deleted":"0","num_feature":"47","num_nodes":"127","size_leaf_vector":"1"}},{"base_weights":[3.2879924E-4,3.617839E-1,-5.086304E-1,1.8975203E-1,9.058623E-1,-5.8840483E-1,2.794633E-1,1.065167E-1,5.413217E-1,6.921734E-1,1.100648E0,-6.6816E-1,-1.2843518E-1,4.5898387E-1,-1.3556577E-1,2.381242E-1,-8.998735E-2,6.803893E-1,3.541413E-1,5.9355134E-1,8.772635E-1,9.1434586E-1,1.1505357E0,-4.216911E-1,-7.7314824E-1,-3.4032187E-1,2.2186892E-1,2.9904288E-1,7.7356195E-1,-2.74854E-1,3.463617E-1,3.0207148E-1,-7.10414E-2,-1.7276962E-1,2.98569E-1,7.608193E-1,4.347747E-1,2.651124E-1,6.741888E-1,4.8778975E-1,7.3324025E-1,8.147833E-1,1.0759174E0,8.450333E-1,1.142783E0,1.0923795E0,1.2174044E0,-6.568516E-1,-2.2266074E-1,-9.075696E-1,-3.5992968E-1,-7.790001E-2,-6.4511734E-1,5.1664084E-2,3.8152263E-1,1.3680108E-1,6.32022E-1,5.048025E-1,9.125837E-1,-3.6425793E-1,4.5105118E-1,-2.9574528E-1,4.812868E-1,1.029768E-2,2.3674713E-2,-1.4735045E-2,4.9792435E-3,-1.9244676E-2,-3.6882504E-3,1.067583E-2,3.4233402E-2,3.4325674E-2,5.017187E-2,1.6653344E-2,3.6621504E-2,9.343724E-3,3.0677974E-2,2.739701E-2,4.6215728E-2,2.645654E-2,4.7001587E-3,4.6425898E-2,3.252494E-2,4.338671E-2,1.8791167E-2,5.843396E-2,4.449455E-2,4.7255203E-2,3.642256E-2,5.8502402E-2,3.858564E-2,5.5872947E-2,4.5256697E-2,6.1552864E-2,2.8350392E-2,-3.5113554E-2,-2.2849774E-2,-1.4353575E-2,1.14587825E-2,-3.73718E-2,-5.329863E-2,-8.250143E-3,-2.8719116E-2,-1.140214E-2,1.8057777E-2,-3.56421E-2,1.6473093E-3,1.1674061E-2,-6.2755593E-3,2.8124107E-2,1.1818125E-2,1.6134663E-2,-5.796925E-3,3.7495073E-2,1.3846481E-2,4.390097E-2,1.4686386E-2,3.820493E-2,5.6323595E-2,-2.1380357E-2,1.927226E-2,1.2202076E-2,4.840831E-2,4.5019813E-2,-2.3570098E-2,2.7281454E-2,-2.3693894E-3],"categories":[],"categories_nodes":[],"categories_segments":[],"categories_sizes":[],"default_left":[0,0,0,0,0,0,0,0,0,0,0,0,0,0,0,0,0,0,0,0,0,0,0,0,0,0,0,0,0,0,0,0,0,0,0,0,0,0,0,0,0,0,0,0,0,0,0,0,0,0,0,0,0,0,0,0,0,0,0,0,0,0,0,0,0,0,0,0,0,0,0,0,0,0,0,0,0,0,0,0,0,0,0,0,0,0,0,0,0,0,0,0,0,0,0,0,0,0,0,0,0,0,0,0,0,0,0,0,0,0,0,0,0,0,0,0,0,0,0,0,0,0,0,0,0,0,0],"id":8,"left_children":[1,3,5,7,9,11,13,15,17,19,21,23,25,27,29,31,33,35,37,39,41,43,45,47,49,51,53,55,57,59,61,63,65,67,69,71,73,75,77,79,81,83,85,87,89,91,93,95,97,99,101,103,105,107,109,111,113,115,117,119,121,123,125,-1,-1,-1,-1,-1,-1,-1,-1,-1,-1,-1,-1,-1,-1,-1,-1,-1,-1,-1,-1,-1,-1,-1,-1,-1,-1,-1,-1,-1,-1,-1,-1,-1,-1,-1,-1,-1,-1,-1,-1,-1,-1,-1,-1,-1,-1,-1,-1,-1,-1,-1,-1,-1,-1,-1,-1,-1,-1,-1,-1,-1,-1,-1,-1],"loss_changes":[4.2829527E4,1.2741227E4,6.078504E3,3.0263538E3,1.3595371E3,3.220209E3,6.623491E2,2.162997E3,5.146177E2,2.83479E2,1.5689258E2,1.9351133E3,9.632293E2,3.1140955E2,1.8017798E2,9.9042944E2,1.0789967E3,2.2341943E2,2.3992505E2,1.4944434E2,6.5430664E1,5.53562E1,4.9960938E1,1.0456592E3,2.913291E3,6.463719E2,1.3264558E2,2.2188593E2,7.690613E1,1.3530396E2,5.232731E1,6.8345825E2,3.2772284E2,5.805412E2,1.9285608E2,1.5264648E2,8.415283E1,1.7964368E2,5.6723083E1,9.404736E1,6.942334E1,9.500049E1,2.021521E1,3.0939575E1,6.605957E0,3.1914062E1,5.399414E1,9.209766E1,3.5252112E2,1.0024297E3,5.379812E2,2.8658875E2,1.721145E2,7.641308E1,6.570444E1,1.3027203E2,5.5668518E1,5.5549652E1,4.1855347E1,8.832056E1,2.3590874E1,2.214171E1,1.7211357E1,0E0,0E0,0E0,0E0,0E0,0E0,0E0,0E0,0E0,0E0,0E0,0E0,0E0,0E0,0E0,0E0,0E0,0E0,0E0,0E0,0E0,0E0,0E0,0E0,0E0,0E0,0E0,0E0,0E0,0E0,0E0,0E0,0E0,0E0,0E0,0E0,0E0,0E0,0E0,0E0,0E0,0E0,0E0,0E0,0E0,0E0,0E0,0E0,0E0,0E0,0E0,0E0,0E0,0E0,0E0,0E0,0E0,0E0,0E0,0E0,0E0,0E0,0E0,0E0],"parents":[2147483647,0,0,1,1,2,2,3,3,4,4,5,5,6,6,7,7,8,8,9,9,10,10,11,11,12,12,13,13,14,14,15,15,16,16,17,17,18,18,19,19,20,20,21,21,22,22,23,23,24,24,25,25,26,26,27,27,28,28,29,29,30,30,31,31,32,32,33,33,34,34,35,35,36,36,37,37,38,38,39,39,40,40,41,41,42,42,43,43,44,44,45,45,46,46,47,47,48,48,49,49,50,50,51,51,52,52,53,53,54,54,55,55,56,56,57,57,58,58,59,59,60,60,61,61,62,62],"right_children":[2,4,6,8,10,12,14,16,18,20,22,24,26,28,30,32,34,36,38,40,42,44,46,48,50,52,54,56,58,60,62,64,66,68,70,72,74,76,78,80,82,84,86,88,90,92,94,96,98,100,102,104,106,108,110,112,114,116,118,120,122,124,126,-1,-1,-1,-1,-1,-1,-1,-1,-1,-1,-1,-1,-1,-1,-1,-1,-1,-1,-1,-1,-1,-1,-1,-1,-1,-1,-1,-1,-1,-1,-1,-1,-1,-1,-1,-1,-1,-1,-1,-1,-1,-1,-1,-1,-1,-1,-1,-1,-1,-1,-1,-1,-1,-1,-1,-1,-1,-1,-1,-1,-1,-1,-1,-1],"split_conditions":[1.191988E1,1E0,1E0,1.2208467E3,1E0,1.3041173E3,4.2633385E1,4.9798474E0,4.579935E0,1.4873998E3,6.618268E2,2.2546904E1,-4.066352E-1,1.6325305E3,-3.811561E-1,4.8837514E0,1.8190612E3,3.1617773E0,1.5841371E3,1.105457E3,2.7621143E3,1.5917672E3,1.1879121E3,4.556141E3,-3.1927896E-1,3.4450733E1,1.5731578E3,1E0,3.7532463E3,2.9840352E3,6.6824554E2,1.2633636E3,4.5985195E3,1.4176819E3,3.178383E3,1.6119208E3,1.4772544E3,1.6791088E3,2.3768237E3,1E0,3.4479152E4,1E0,1E0,9.218305E-5,1E0,1E0,2.4667676E3,1.0243517E3,2.6467307E3,5.231559E1,1.9469043E0,1.6076785E3,1.9625282E3,1.6690488E0,1.6690488E0,2.0088697E1,2.7108295E1,2.99171E0,1E0,1.8494343E3,1.287478E3,3.448603E2,6.15113E3,1.029768E-2,2.3674713E-2,-1.4735045E-2,4.9792435E-3,-1.9244676E-2,-3.6882504E-3,1.067583E-2,3.4233402E-2,3.4325674E-2,5.017187E-2,1.6653344E-2,3.6621504E-2,9.343724E-3,3.0677974E-2,2.739701E-2,4.6215728E-2,2.645654E-2,4.7001587E-3,4.6425898E-2,3.252494E-2,4.338671E-2,1.8791167E-2,5.843396E-2,4.449455E-2,4.7255203E-2,3.642256E-2,5.8502402E-2,3.858564E-2,5.5872947E-2,4.5256697E-2,6.1552864E-2,2.8350392E-2,-3.5113554E-2,-2.2849774E-2,-1.4353575E-2,1.14587825E-2,-3.73718E-2,-5.329863E-2,-8.250143E-3,-2.8719116E-2,-1.140214E-2,1.8057777E-2,-3.56421E-2,1.6473093E-3,1.1674061E-2,-6.2755593E-3,2.8124107E-2,1.1818125E-2,1.6134663E-2,-5.796925E-3,3.7495073E-2,1.3846481E-2,4.390097E-2,1.4686386E-2,3.820493E-2,5.6323595E-2,-2.1380357E-2,1.927226E-2,1.2202076E-2,4.840831E-2,4.5019813E-2,-2.3570098E-2,2.7281454E-2,-2.3693894E-3],"split_indices":[1,0,3,10,4,10,1,1,1,17,17,1,22,17,22,9,17,9,17,10,17,10,10,20,22,1,10,4,32,17,10,17,20,32,17,10,17,10,17,13,30,13,13,41,13,13,10,10,17,1,9,17,10,9,9,1,1,18,4,10,10,17,36,0,0,0,0,0,0,0,0,0,0,0,0,0,0,0,0,0,0,0,0,0,0,0,0,0,0,0,0,0,0,0,0,0,0,0,0,0,0,0,0,0,0,0,0,0,0,0,0,0,0,0,0,0,0,0,0,0,0,0,0,0,0,0,0],"split_type":[0,0,0,0,0,0,0,0,0,0,0,0,0,0,0,0,0,0,0,0,0,0,0,0,0,0,0,0,0,0,0,0,0,0,0,0,0,0,0,0,0,0,0,0,0,0,0,0,0,0,0,0,0,0,0,0,0,0,0,0,0,0,0,0,0,0,0,0,0,0,0,0,0,0,0,0,0,0,0,0,0,0,0,0,0,0,0,0,0,0,0,0,0,0,0,0,0,0,0,0,0,0,0,0,0,0,0,0,0,0,0,0,0,0,0,0,0,0,0,0,0,0,0,0,0,0,0],"sum_hessian":[2.328107E5,1.3613264E5,9.667806E4,1.0343109E5,3.2701553E4,8.779223E4,8.88584E3,8.3633336E4,1.9797758E4,1.5597502E4,1.710405E4,7.481784E4,1.2974378E4,6.203583E3,2.682257E3,5.0088902E4,3.3544434E4,1.1355654E4,8.442104E3,1.0180111E4,5.417391E3,3.6188909E3,1.3485159E4,2.2352707E4,5.2465137E4,8.085311E3,4.8890664E3,4.1149556E3,2.0886272E3,2.081983E3,6.002742E2,4.1505598E4,8.583307E3,2.7654469E4,5.889966E3,8.55128E3,2.8043738E3,6.6074683E3,1.8346355E3,5.798219E3,4.381892E3,4.126996E3,1.290395E3,2.781741E3,8.371499E2,7.2257207E3,6.259439E3,1.0244134E4,1.2108573E4,3.9585453E4,1.2879683E4,4.346216E3,3.7390955E3,2.3684968E3,2.5205693E3,2.7687927E3,1.3461628E3,7.148647E2,1.3737626E3,1.8547368E3,2.2724614E2,1.0338214E2,4.9689206E2,2.6597383E4,1.4908214E4,3.71536E3,4.867947E3,8.797439E3,1.885703E4,4.8290415E3,1.0609244E3,6.550861E3,2.0004192E3,2.0930012E3,7.113725E2,5.3983345E3,1.2091337E3,1.2226862E3,6.119494E2,5.245876E3,5.5234357E2,1.2992567E3,3.0826353E3,3.680865E3,4.4613116E2,8.5572064E2,4.346744E2,1.4907383E3,1.2910026E3,7.765883E2,6.0561584E1,6.3654946E3,8.602261E2,6.129117E3,1.3032166E2,8.343065E3,1.901069E3,1.0599107E4,1.5094663E3,1.9689605E4,1.989585E4,6.7491455E3,6.1305376E3,3.2398955E3,1.1063201E3,3.4001743E3,3.389213E2,1.1701716E3,1.1983252E3,1.1191259E3,1.4014436E3,1.5963588E3,1.1724341E3,1.008765E3,3.373978E2,2.5624695E2,4.5861774E2,8.1493207E2,5.588305E2,1.7112356E3,1.4350119E2,1.6402362E2,6.322252E1,1.2345127E1,9.103701E1,4.4379385E2,5.30982E1],"tree_param":{"num_deleted":"0","num_feature":"47","num_nodes":"127","size_leaf_vector":"1"}},{"base_weights":[-1.177498E-3,-3.959137E-1,5.65277E-1,-8.530908E-2,-8.4046054E-1,8.980957E-1,-3.7080247E-2,-3.62656E-1,1.7332084E-1,-6.4798427E-1,-1.0220486E0,6.423302E-1,1.1556284E0,-3.5625747E-1,1.266515E-1,-4.305686E-1,1.9271661E-1,8.9804195E-2,5.468784E-1,-8.986787E-1,-4.7937578E-1,-1.0640146E0,-4.0155265E-1,7.495123E-1,3.4408107E-1,1.1796224E0,-9.308944E-2,-7.654599E-2,-5.751695E-1,5.1036364E-1,-5.2666334E-3,-5.9958106E-1,-2.7290133E-1,-7.719531E-2,3.041851E-1,2.0272431E-1,-1.170524E-1,4.39519E-1,7.5735474E-1,-9.926004E-1,-6.3918084E-1,-6.324387E-1,-2.2685148E-1,-1.1324046E0,-8.0749196E-1,-1.1126778E-1,-4.5853725E-1,6.692354E-1,9.536431E-1,1.4416435E-1,5.868785E-1,1.0245042E0,1.2907296E0,2.859356E-1,-1.7887068E-1,-3.0965236E-1,2.2697805E-1,-6.214507E-1,1.3893597E-1,6.371945E-2,7.0498616E-1,-3.023833E-1,9.1866665E-2,-2.5593102E-2,-3.8120747E-2,-7.277613E-3,-2.464492E-2,-8.648518E-3,5.2279676E-3,9.489989E-3,3.1870857E-2,3.3420348E-3,1.7029304E-2,-1.1164746E-2,7.393613E-3,3.413733E-2,1.7323969E-2,3.31006E-2,4.388992E-2,-5.4755688E-2,-4.4395797E-2,-2.3201928E-2,-3.6468785E-2,-3.38279E-2,-1.5962987E-3,-1.5564117E-2,1.5495117E-2,-6.114624E-2,-5.102644E-2,-2.9430127E-2,-5.264125E-2,-2.699901E-2,3.390392E-3,-3.032142E-2,-1.8100804E-2,2.7919529E-2,4.0372528E-2,3.9947048E-2,5.1752675E-2,3.583248E-3,2.5242627E-2,2.420408E-2,4.8727926E-2,5.5656772E-2,4.177348E-2,6.612357E-2,3.1455617E-2,-4.290612E-3,5.166474E-2,6.1940616E-3,-1.6430972E-2,-1.7953824E-2,4.4134036E-3,5.2004284E-3,2.8140321E-2,-3.7675936E-2,-1.7594274E-2,2.2351246E-2,-1.7764226E-2,-7.402093E-3,1.0065384E-2,2.7310697E-2,4.8719224E-2,-5.3610806E-3,-1.9256635E-2,1.8141306E-3,2.221209E-2],"categories":[],"categories_nodes":[],"categories_segments":[],"categories_sizes":[],"default_left":[0,0,0,0,0,0,0,0,0,0,0,0,0,0,0,0,0,0,0,0,0,0,0,0,0,0,0,0,0,0,0,0,0,0,0,0,0,0,0,0,0,0,0,0,0,0,0,0,0,0,0,0,0,0,0,0,0,0,0,0,0,0,0,0,0,0,0,0,0,0,0,0,0,0,0,0,0,0,0,0,0,0,0,0,0,0,0,0,0,0,0,0,0,0,0,0,0,0,0,0,0,0,0,0,0,0,0,0,0,0,0,0,0,0,0,0,0,0,0,0,0,0,0,0,0,0,0],"id":9,"left_children":[1,3,5,7,9,11,13,15,17,19,21,23,25,27,29,31,33,35,37,39,41,43,45,47,49,51,53,55,57,59,61,63,65,67,69,71,73,75,77,79,81,83,85,87,89,91,93,95,97,99,101,103,105,107,109,111,113,115,117,119,121,123,125,-1,-1,-1,-1,-1,-1,-1,-1,-1,-1,-1,-1,-1,-1,-1,-1,-1,-1,-1,-1,-1,-1,-1,-1,-1,-1,-1,-1,-1,-1,-1,-1,-1,-1,-1,-1,-1,-1,-1,-1,-1,-1,-1,-1,-1,-1,-1,-1,-1,-1,-1,-1,-1,-1,-1,-1,-1,-1,-1,-1,-1,-1,-1,-1],"loss_changes":[5.1779297E4,1.884322E4,1.9065684E4,5.7630054E3,1.9603906E3,4.033129E3,1.768902E3,1.4624355E3,1.2966335E3,1.1508467E3,7.508633E2,9.8174316E2,9.1508594E2,7.0237305E2,1.1325791E3,9.199634E2,1.2722606E2,7.937556E2,1.7068774E2,2.6558887E2,6.2936084E2,4.7265234E2,2.9966156E1,3.6904004E2,3.9411267E2,5.136172E2,1.8722523E1,3.5676505E2,2.1306421E2,4.9714246E2,4.8055563E2,2.3708887E2,5.0043225E2,2.1534803E1,1.13473206E2,4.115688E2,3.3776312E2,1.131543E2,2.8074951E1,8.433545E1,4.512793E1,2.6841528E2,2.7895364E2,2.1385742E2,3.04573E2,2.3561863E1,2.1129272E1,2.4755078E2,7.8575195E1,1.1631595E2,1.4502649E2,2.0759473E2,3.6448633E2,2.990007E1,2.1511206E1,5.626654E1,9.001929E1,2.1442358E2,5.988345E1,5.0726658E1,1.691969E2,6.597122E1,2.45453E2,0E0,0E0,0E0,0E0,0E0,0E0,0E0,0E0,0E0,0E0,0E0,0E0,0E0,0E0,0E0,0E0,0E0,0E0,0E0,0E0,0E0,0E0,0E0,0E0,0E0,0E0,0E0,0E0,0E0,0E0,0E0,0E0,0E0,0E0,0E0,0E0,0E0,0E0,0E0,0E0,0E0,0E0,0E0,0E0,0E0,0E0,0E0,0E0,0E0,0E0,0E0,0E0,0E0,0E0,0E0,0E0,0E0,0E0,0E0,0E0,0E0,0E0,0E0,0E0],"parents":[2147483647,0,0,1,1,2,2,3,3,4,4,5,5,6,6,7,7,8,8,9,9,10,10,11,11,12,12,13,13,14,14,15,15,16,16,17,17,18,18,19,19,20,20,21,21,22,22,23,23,24,24,25,25,26,26,27,27,28,28,29,29,30,30,31,31,32,32,33,33,34,34,35,35,36,36,37,37,38,38,39,39,40,40,41,41,42,42,43,43,44,44,45,45,46,46,47,47,48,48,49,49,50,50,51,51,52,52,53,53,54,54,55,55,56,56,57,57,58,58,59,59,60,60,61,61,62,62],"right_children":[2,4,6,8,10,12,14,16,18,20,22,24,26,28,30,32,34,36,38,40,42,44,46,48,50,52,54,56,58,60,62,64,66,68,70,72,74,76,78,80,82,84,86,88,90,92,94,96,98,100,102,104,106,108,110,112,114,116,118,120,122,124,126,-1,-1,-1,-1,-1,-1,-1,-1,-1,-1,-1,-1,-1,-1,-1,-1,-1,-1,-1,-1,-1,-1,-1,-1,-1,-1,-1,-1,-1,-1,-1,-1,-1,-1,-1,-1,-1,-1,-1,-1,-1,-1,-1,-1,-1,-1,-1,-1,-1,-1,-1,-1,-1,-1,-1,-1,-1,-1,-1,-1,-1,-1,-1,-1],"split_conditions":[2.542617E3,1.2538995E1,1.54767E1,2.1761401E3,3.29285E1,2.830992E3,2.7963684E3,1E0,1E0,4.432333E3,-1.6393118E-1,7.1445775E0,3.9176072E3,3.29285E1,3.368616E1,1.943307E3,1.8765111E3,5.6794295E0,1.4873998E3,2.30114E3,2.2691567E3,7.5452104E3,-4.4791415E2,3.201349E3,1.2124312E3,2.9996252E3,4.0646516E3,2.9528022E3,6.1981914E3,4.108052E3,5.33275E2,6.0656414E0,5.5866528E0,6.9791294E3,1.7262426E3,2.3608665E3,1.4772544E3,3.2020422E4,2.4119521E3,1.9968276E3,1.6651737E1,1E0,5.242913E3,2.1519014E3,7.325305E1,-1.0376581E3,4.4179248E2,2.6914353E3,2.6337878E3,1E0,1E0,5.8693194E0,-1.5116629E-1,1E0,4.643088E-4,1E0,2.4142395E3,-4.5086312E-1,8.534221E1,1.070738E3,7.984464E3,-3.324176E2,1E0,-2.5593102E-2,-3.8120747E-2,-7.277613E-3,-2.464492E-2,-8.648518E-3,5.2279676E-3,9.489989E-3,3.1870857E-2,3.3420348E-3,1.7029304E-2,-1.1164746E-2,7.393613E-3,3.413733E-2,1.7323969E-2,3.31006E-2,4.388992E-2,-5.4755688E-2,-4.4395797E-2,-2.3201928E-2,-3.6468785E-2,-3.38279E-2,-1.5962987E-3,-1.5564117E-2,1.5495117E-2,-6.114624E-2,-5.102644E-2,-2.9430127E-2,-5.264125E-2,-2.699901E-2,3.390392E-3,-3.032142E-2,-1.8100804E-2,2.7919529E-2,4.0372528E-2,3.9947048E-2,5.1752675E-2,3.583248E-3,2.5242627E-2,2.420408E-2,4.8727926E-2,5.5656772E-2,4.177348E-2,6.612357E-2,3.1455617E-2,-4.290612E-3,5.166474E-2,6.1940616E-3,-1.6430972E-2,-1.7953824E-2,4.4134036E-3,5.2004284E-3,2.8140321E-2,-3.7675936E-2,-1.7594274E-2,2.2351246E-2,-1.7764226E-2,-7.402093E-3,1.0065384E-2,2.7310697E-2,4.8719224E-2,-5.3610806E-3,-1.9256635E-2,1.8141306E-3,2.221209E-2],"split_indices":[2,1,1,2,1,2,2,0,0,20,22,1,2,1,1,2,2,1,17,2,2,20,19,24,17,2,2,24,24,20,21,1,1,20,17,2,17,30,2,2,1,0,24,2,1,19,21,2,2,0,0,1,22,3,33,3,17,22,1,32,20,19,6,0,0,0,0,0,0,0,0,0,0,0,0,0,0,0,0,0,0,0,0,0,0,0,0,0,0,0,0,0,0,0,0,0,0,0,0,0,0,0,0,0,0,0,0,0,0,0,0,0,0,0,0,0,0,0,0,0,0,0,0,0,0,0,0],"split_type":[0,0,0,0,0,0,0,0,0,0,0,0,0,0,0,0,0,0,0,0,0,0,0,0,0,0,0,0,0,0,0,0,0,0,0,0,0,0,0,0,0,0,0,0,0,0,0,0,0,0,0,0,0,0,0,0,0,0,0,0,0,0,0,0,0,0,0,0,0,0,0,0,0,0,0,0,0,0,0,0,0,0,0,0,0,0,0,0,0,0,0,0,0,0,0,0,0,0,0,0,0,0,0,0,0,0,0,0,0,0,0,0,0,0,0,0,0,0,0,0,0,0,0,0,0,0,0],"sum_hessian":[2.3156936E5,1.364705E5,9.509886E4,8.033959E4,5.613091E4,6.1254453E4,3.384441E4,3.8767754E4,4.1571836E4,2.725209E4,2.8878822E4,3.0735404E4,3.0519049E4,1.1475686E4,2.2368723E4,3.4544656E4,4.2230986E3,3.3977934E4,7.5939023E3,1.0955571E4,1.629652E4,2.7047969E4,1.8308533E3,2.2607674E4,8.1277324E3,2.9944133E4,5.7491656E2,5.039797E3,6.435888E3,5.723018E3,1.6645705E4,1.6669598E4,1.7875059E4,1.2330907E3,2.9900078E3,2.1981162E4,1.19967705E4,5.032431E3,2.5614712E3,8.0406265E3,2.914945E3,1.0144271E4,6.152247E3,2.135048E4,5.697488E3,3.0235516E2,1.5284982E3,1.6231259E4,6.376414E3,4.45949E3,3.668242E3,1.2503107E4,1.7441025E4,1.0459605E2,4.7032053E2,2.8514849E3,2.1883123E3,6.0449453E3,3.9094302E2,1.7381012E3,3.984917E3,4.1018315E3,1.2543873E4,1.083823E4,5.831368E3,1.13239375E4,6.551121E3,8.093864E2,4.2370435E2,2.2282188E3,7.61789E2,1.1072575E4,1.0908587E4,8.564286E3,3.4324844E3,1.3891503E3,3.643281E3,1.4356582E3,1.125813E3,4.0552463E3,3.98538E3,9.9483716E2,1.9201078E3,9.449093E3,6.951788E2,5.317207E3,8.3504004E2,1.1793658E4,9.556821E3,3.0138914E3,2.6835964E3,8.931327E1,2.130419E2,5.994892E2,9.290089E2,9.012296E3,7.218963E3,2.2044E3,4.172014E3,3.7152908E3,7.4419946E2,2.902228E3,7.66014E2,8.50697E3,3.9961372E3,1.664091E4,8.001151E2,6.9995415E1,3.4600628E1,1.5459818E2,3.1572235E2,2.5376477E3,3.138371E2,1.6038375E3,5.8447473E2,4.054752E3,1.9901935E3,2.4150188E2,1.4944113E2,6.8307465E2,1.0550265E3,2.510321E3,1.474596E3,1.2238234E3,2.8780083E3,1.0836961E4,1.7069126E3],"tree_param":{"num_deleted":"0","num_feature":"47","num_nodes":"127","size_leaf_vector":"1"}},{"base_weights":[3.3082992E-3,-1.477751E-1,7.594945E-1,-2.9506823E-2,-3.9193162E-1,5.451506E-1,9.8809326E-1,-9.938218E-2,3.2384795E-1,-4.561279E-1,2.091016E-1,4.6505368E-1,7.3442006E-1,7.9993355E-1,1.0352297E0,-1.332764E-1,2.8322104E-1,4.408574E-1,1.5488854E-1,-5.978869E-1,-3.355662E-1,1.6598012E-2,3.9449096E-1,9.8902065E-1,4.419865E-1,5.607013E-1,7.872576E-1,7.428389E-1,9.9342835E-1,8.717288E-1,1.0785775E0,-3.7988833E-1,-8.965281E-2,1.8440662E-1,4.9204966E-1,3.5532016E-1,6.720055E-1,1.2164168E-2,4.302743E-1,-6.627032E-1,-3.395537E-1,-3.7182206E-1,1.0810071E-1,1.6081215E-1,-1.146152E-1,3.3276013E-1,7.6371855E-1,7.5968936E-2,1.008023E0,3.4122247E-1,5.2616376E-1,6.912309E-1,3.6661696E-1,7.531462E-1,1.0532119E0,5.390303E-1,7.964194E-1,4.1589582E-1,1.011032E0,7.853809E-1,9.6654457E-1,1.0853351E0,5.547365E-1,-1.5928334E-2,-2.8263574E-2,-6.2435684E-3,6.6763335E-3,1.8108286E-2,3.6315282E-3,2.10701E-2,4.001409E-2,1.3871903E-2,2.7360309E-2,3.4596052E-2,4.9432027E-3,-3.2913235E-3,1.7004058E-2,1.5562403E-2,3.7518177E-2,-2.8479585E-2,-3.9544966E-2,-2.005375E-2,-7.101206E-4,-2.1508977E-2,-4.9626552E-3,1.2443592E-3,2.1681566E-2,2.549461E-3,1.7389828E-2,-9.65219E-3,9.090818E-3,3.6352947E-2,1.3560076E-2,5.9779644E-2,3.1886034E-2,4.789831E-2,-3.512472E-2,4.1398585E-2,5.5301446E-2,1.849798E-2,2.5647292E-3,2.0434512E-2,3.0785868E-2,1.1673544E-2,3.6401812E-2,2.9401204E-2,1.0536975E-2,6.0415156E-2,3.6747675E-2,5.558575E-2,3.635956E-2,2.8544009E-2,-1.2887249E-2,4.7570534E-2,3.594369E-2,4.933722E-2,-1.6715314E-2,5.514893E-2,4.582307E-2,4.6634655E-2,3.5710406E-2,4.277801E-2,5.2041113E-2,5.2200675E-2,5.9676196E-2,-3.1809486E-2,3.181414E-2],"categories":[],"categories_nodes":[],"categories_segments":[],"categories_sizes":[],"default_left":[0,0,0,0,0,0,0,0,0,0,0,0,0,0,0,0,0,0,0,0,0,0,0,0,0,0,0,0,0,0,0,0,0,0,0,0,0,0,0,0,0,0,0,0,0,0,0,0,0,0,0,0,0,0,0,0,0,0,0,0,0,0,0,0,0,0,0,0,0,0,0,0,0,0,0,0,0,0,0,0,0,0,0,0,0,0,0,0,0,0,0,0,0,0,0,0,0,0,0,0,0,0,0,0,0,0,0,0,0,0,0,0,0,0,0,0,0,0,0,0,0,0,0,0,0,0,0],"id":10,"left_children":[1,3,5,7,9,11,13,15,17,19,21,23,25,27,29,31,33,35,37,39,41,43,45,47,49,51,53,55,57,59,61,63,65,67,69,71,73,75,77,79,81,83,85,87,89,91,93,95,97,99,101,103,105,107,109,111,113,115,117,119,121,123,125,-1,-1,-1,-1,-1,-1,-1,-1,-1,-1,-1,-1,-1,-1,-1,-1,-1,-1,-1,-1,-1,-1,-1,-1,-1,-1,-1,-1,-1,-1,-1,-1,-1,-1,-1,-1,-1,-1,-1,-1,-1,-1,-1,-1,-1,-1,-1,-1,-1,-1,-1,-1,-1,-1,-1,-1,-1,-1,-1,-1,-1,-1,-1,-1],"loss_changes":[2.6427148E4,5.5668594E3,1.8861289E3,3.2068142E3,2.4276104E3,3.0048584E2,1.6355469E2,1.4062246E3,4.235515E2,9.707959E2,2.1645285E2,1.6776074E2,5.3119873E1,3.9713623E1,1.03677734E2,1.0714279E3,1.8165515E2,2.4969019E2,3.4474457E2,4.366504E2,4.9434497E2,5.644574E1,6.9657135E1,9.576172E0,1.1295166E2,3.4272522E1,3.9364014E1,3.0505981E1,7.47937E0,2.3989258E1,4.0242188E1,1.6956738E2,6.653487E2,1.1883095E2,6.0721375E1,1.3765881E2,3.855774E1,1.4805922E2,1.1333588E2,2.4809277E2,1.0472815E2,4.5146704E2,6.2621666E1,2.89892E1,3.6296967E1,6.3660828E1,2.2310913E1,1.0136812E1,8.263672E0,5.059021E1,7.593103E1,1.324292E1,1.880619E1,3.1400635E1,8.0060425E0,1.5719727E1,2.5974243E1,1.2475323E1,5.1150513E0,1.5769836E1,1.0400635E1,4.957422E1,1.5252354E1,0E0,0E0,0E0,0E0,0E0,0E0,0E0,0E0,0E0,0E0,0E0,0E0,0E0,0E0,0E0,0E0,0E0,0E0,0E0,0E0,0E0,0E0,0E0,0E0,0E0,0E0,0E0,0E0,0E0,0E0,0E0,0E0,0E0,0E0,0E0,0E0,0E0,0E0,0E0,0E0,0E0,0E0,0E0,0E0,0E0,0E0,0E0,0E0,0E0,0E0,0E0,0E0,0E0,0E0,0E0,0E0,0E0,0E0,0E0,0E0,0E0,0E0,0E0,0E0],"parents":[2147483647,0,0,1,1,2,2,3,3,4,4,5,5,6,6,7,7,8,8,9,9,10,10,11,11,12,12,13,13,14,14,15,15,16,16,17,17,18,18,19,19,20,20,21,21,22,22,23,23,24,24,25,25,26,26,27,27,28,28,29,29,30,30,31,31,32,32,33,33,34,34,35,35,36,36,37,37,38,38,39,39,40,40,41,41,42,42,43,43,44,44,45,45,46,46,47,47,48,48,49,49,50,50,51,51,52,52,53,53,54,54,55,55,56,56,57,57,58,58,59,59,60,60,61,61,62,62],"right_children":[2,4,6,8,10,12,14,16,18,20,22,24,26,28,30,32,34,36,38,40,42,44,46,48,50,52,54,56,58,60,62,64,66,68,70,72,74,76,78,80,82,84,86,88,90,92,94,96,98,100,102,104,106,108,110,112,114,116,118,120,122,124,126,-1,-1,-1,-1,-1,-1,-1,-1,-1,-1,-1,-1,-1,-1,-1,-1,-1,-1,-1,-1,-1,-1,-1,-1,-1,-1,-1,-1,-1,-1,-1,-1,-1,-1,-1,-1,-1,-1,-1,-1,-1,-1,-1,-1,-1,-1,-1,-1,-1,-1,-1,-1,-1,-1,-1,-1,-1,-1,-1,-1,-1,-1,-1,-1],"split_conditions":[1E0,3.8566997E0,1E0,1.2716741E3,1E0,1.6449785E3,6.559632E2,1E0,1E0,9.981717E2,1.1644983E3,3.0211038E3,2.6360203E3,1.5917672E3,1E0,3.6198648E2,1.5841371E3,1.6119208E3,1E0,1.0842173E3,1.5394974E3,3.1939111E4,2.9007356E3,4.6070898E2,9.690094E2,5.9871484E4,3.8231873E3,1E0,1E0,1.4575156E3,2.4667676E3,1.540596E0,1.9876329E3,2.8476555E4,1E0,1.2858896E3,3.398786E0,1.9072605E3,1E0,9.147736E0,1.5917672E3,2.031948E3,1.6846578E3,6.5796E2,1E0,2.1692703E4,4.101172E4,-2.1885E2,3.3760226E2,1.0467086E1,8.2578394E2,4.47381E3,5.848111E-1,1.043047E4,7.7197194E0,6.3812305E2,2.1253538E-4,4.557982E3,2.758262E4,8.84171E3,1.0007108E3,1.4680759E3,8.103702E2,-1.5928334E-2,-2.8263574E-2,-6.2435684E-3,6.6763335E-3,1.8108286E-2,3.6315282E-3,2.10701E-2,4.001409E-2,1.3871903E-2,2.7360309E-2,3.4596052E-2,4.9432027E-3,-3.2913235E-3,1.7004058E-2,1.5562403E-2,3.7518177E-2,-2.8479585E-2,-3.9544966E-2,-2.005375E-2,-7.101206E-4,-2.1508977E-2,-4.9626552E-3,1.2443592E-3,2.1681566E-2,2.549461E-3,1.7389828E-2,-9.65219E-3,9.090818E-3,3.6352947E-2,1.3560076E-2,5.9779644E-2,3.1886034E-2,4.789831E-2,-3.512472E-2,4.1398585E-2,5.5301446E-2,1.849798E-2,2.5647292E-3,2.0434512E-2,3.0785868E-2,1.1673544E-2,3.6401812E-2,2.9401204E-2,1.0536975E-2,6.0415156E-2,3.6747675E-2,5.558575E-2,3.635956E-2,2.8544009E-2,-1.2887249E-2,4.7570534E-2,3.594369E-2,4.933722E-2,-1.6715314E-2,5.514893E-2,4.582307E-2,4.6634655E-2,3.5710406E-2,4.277801E-2,5.2041113E-2,5.2200675E-2,5.9676196E-2,-3.1809486E-2,3.181414E-2],"split_indices":[0,9,4,10,6,17,17,6,14,25,17,38,32,10,5,25,17,10,6,10,10,27,17,25,10,27,17,5,3,17,10,9,17,27,4,17,9,17,4,9,10,17,17,35,4,27,27,26,17,9,44,29,9,39,9,17,33,32,29,39,10,10,25,0,0,0,0,0,0,0,0,0,0,0,0,0,0,0,0,0,0,0,0,0,0,0,0,0,0,0,0,0,0,0,0,0,0,0,0,0,0,0,0,0,0,0,0,0,0,0,0,0,0,0,0,0,0,0,0,0,0,0,0,0,0,0,0],"split_type":[0,0,0,0,0,0,0,0,0,0,0,0,0,0,0,0,0,0,0,0,0,0,0,0,0,0,0,0,0,0,0,0,0,0,0,0,0,0,0,0,0,0,0,0,0,0,0,0,0,0,0,0,0,0,0,0,0,0,0,0,0,0,0,0,0,0,0,0,0,0,0,0,0,0,0,0,0,0,0,0,0,0,0,0,0,0,0,0,0,0,0,0,0,0,0,0,0,0,0,0,0,0,0,0,0,0,0,0,0,0,0,0,0,0,0,0,0,0,0,0,0,0,0,0,0,0,0],"sum_hessian":[2.313109E5,1.9279189E5,3.851901E4,1.2988121E5,6.291068E4,1.9882197E4,1.8636814E4,1.08439586E5,2.1441623E4,5.684061E4,6.070068E3,1.3974452E4,5.9077446E3,3.7391982E3,1.4897617E4,9.961666E4,8.822928E3,1.2665687E4,8.7759375E3,2.6120027E4,3.0720584E4,2.9797537E3,3.0903142E3,5.865908E2,1.3387861E4,1.3827211E3,4.525024E3,2.8929863E3,8.462119E2,3.1288345E3,1.1768783E4,1.4969915E4,8.464674E4,5.991923E3,2.8310056E3,9.248093E3,3.4175942E3,5.7821025E3,2.9938345E3,2.0878156E4,5.241872E3,2.8400982E4,2.319601E3,1.4212584E3,1.5584952E3,2.650444E3,4.3986996E2,1.2597547E1,5.739933E2,6.0985786E3,7.2892827E3,8.2364716E2,5.590739E2,4.015682E3,5.0934192E2,6.064754E2,2.2865107E3,2.6598782E1,8.1961316E2,1.6451592E3,1.4836752E3,1.1616897E4,1.5188501E2,1.1253021E4,3.716894E3,7.311206E4,1.1534679E4,2.3106113E3,3.6813113E3,2.3063687E3,5.246369E2,6.58176E3,2.666333E3,3.3017834E3,1.1581064E2,4.67055E3,1.1115527E3,2.1849048E3,8.089297E2,1.2099429E4,8.778728E3,4.4068105E3,8.350614E2,2.3390602E4,5.0103804E3,1.8494493E3,4.701518E2,8.9785895E2,5.233995E2,1.234035E3,3.244602E2,3.5535706E2,2.2950872E3,9.653301E1,3.4333698E2,6.0990458E0,6.498501E0,2.0744182E2,3.6655145E2,5.5467905E3,5.5178827E2,3.157941E3,4.131342E3,6.2852936E1,7.6079425E2,2.2851418E2,3.3055972E2,1.5076765E2,3.8649143E3,4.285049E2,8.0837006E1,5.8404034E2,2.2435045E1,7.565896E2,1.5299213E3,1.5304423E1,1.1294359E1,4.0748477E2,4.1212836E2,5.2968866E2,1.1154705E3,6.02572E2,8.8110315E2,8.417276E3,3.1996208E3,8.9047165E0,1.4298029E2],"tree_param":{"num_deleted":"0","num_feature":"47","num_nodes":"127","size_leaf_vector":"1"}},{"base_weights":[1.448722E-3,3.4946403E-1,-4.3020913E-1,2.4420637E-1,9.5702714E-1,-5.066766E-1,2.7953598E-1,1.473085E-1,4.596573E-1,7.918372E-1,1.0315909E0,-5.872913E-1,-1.7334728E-1,4.7282225E-1,-7.072007E-2,3.6524072E-2,3.2889858E-1,3.9816752E-1,7.0815563E-1,7.366932E-1,9.777636E-1,9.914811E-1,1.1418523E0,-3.3656082E-1,-8.104698E-1,-3.270491E-1,2.0789874E-1,3.1914735E-1,8.031244E-1,-1.5060721E-1,2.9650614E-1,1.6399899E-1,-1.3241053E-1,2.4055254E-1,4.850977E-1,3.0723786E-1,5.830892E-1,6.324389E-1,8.771023E-1,6.188429E-1,8.0626464E-1,9.83482E-1,-0E0,1.1272897E0,9.58244E-1,1.1588306E0,6.770603E-1,-4.6226025E-1,-1.0283623E-2,-8.68799E-1,-4.6682703E-1,-2.0749776E-1,-5.180601E-1,3.6979383E-1,6.334616E-2,1.6067626E-1,5.515091E-1,6.0455066E-1,9.621734E-1,2.1559658E-2,-4.4827703E-1,-6.787363E-2,4.7807097E-1,1.2061983E-2,-3.3284023E-3,-9.071729E-3,1.6888855E-2,1.8176751E-2,5.2266098E-3,4.05561E-2,2.0912789E-2,2.1872168E-2,8.000973E-3,2.5689319E-2,4.161064E-2,5.022384E-2,2.9509226E-2,5.1885106E-2,3.965439E-2,3.1362835E-2,-1.781539E-2,4.456013E-2,3.672935E-2,4.9434543E-2,-0E0,5.191986E-2,6.057123E-2,4.3449875E-2,4.9996406E-2,5.606055E-2,6.374141E-2,3.9811965E-2,-5.274101E-2,-3.4125805E-2,-1.8357638E-2,-5.421244E-3,1.607007E-2,-4.6741918E-2,-3.0143622E-2,-1.2689257E-2,-3.7197407E-2,-2.1271741E-2,-3.0912661E-3,-3.042067E-2,-1.9441282E-2,-5.420374E-3,2.0987442E-2,-3.9716284E-3,1.2964116E-2,1.2981722E-2,-3.2745681E-3,4.001106E-2,2.3528412E-2,4.2136945E-2,2.2874689E-2,5.6528836E-2,4.416963E-2,-1.1218373E-2,1.9897718E-2,-2.9346794E-2,-2.9680198E-3,5.0335187E-3,-3.5483036E-2,2.7741173E-2,4.6987096E-3],"categories":[],"categories_nodes":[],"categories_segments":[],"categories_sizes":[],"default_left":[0,0,0,0,0,0,0,0,0,0,0,0,0,0,0,0,0,0,0,0,0,0,0,0,0,0,0,0,0,0,0,0,0,0,0,0,0,0,0,0,0,0,0,0,0,0,0,0,0,0,0,0,0,0,0,0,0,0,0,0,0,0,0,0,0,0,0,0,0,0,0,0,0,0,0,0,0,0,0,0,0,0,0,0,0,0,0,0,0,0,0,0,0,0,0,0,0,0,0,0,0,0,0,0,0,0,0,0,0,0,0,0,0,0,0,0,0,0,0,0,0,0,0,0,0],"id":11,"left_children":[1,3,5,7,9,11,13,15,17,19,21,23,25,27,29,31,33,35,37,39,41,43,45,47,49,51,53,55,57,59,61,63,65,67,69,71,73,75,77,79,81,83,-1,85,87,89,91,93,95,97,99,101,103,105,107,109,111,113,115,117,119,121,123,-1,-1,-1,-1,-1,-1,-1,-1,-1,-1,-1,-1,-1,-1,-1,-1,-1,-1,-1,-1,-1,-1,-1,-1,-1,-1,-1,-1,-1,-1,-1,-1,-1,-1,-1,-1,-1,-1,-1,-1,-1,-1,-1,-1,-1,-1,-1,-1,-1,-1,-1,-1,-1,-1,-1,-1,-1,-1,-1,-1,-1,-1],"loss_changes":[3.4633047E4,8.161748E3,5.5851562E3,2.2708755E3,2.3041016E2,2.4957852E3,6.778138E2,1.5095336E3,5.1483984E2,5.8582764E1,5.520508E1,4.1850195E3,1.0604141E3,3.2660693E2,1.0438252E2,1.00384485E3,3.9189868E2,4.543462E2,8.4288086E1,3.5943115E1,7.89563E0,4.088672E1,2.5541016E1,1.4446577E3,7.921797E2,2.9403308E2,1.2141754E2,1.6175995E2,6.327014E1,1.5012244E2,4.2256596E1,4.732674E2,4.6204007E2,3.0360803E2,2.2283472E2,3.4739844E2,1.5283667E2,7.133569E1,2.614038E1,1.4217712E1,1.5844116E1,7.1920166E0,0E0,1.1564453E1,2.670996E1,1.1896484E1,2.6533379E1,5.31959E2,3.1893997E2,5.927754E2,3.385476E2,2.5165714E2,5.7208374E1,5.873587E1,7.7020645E1,5.878869E1,3.4910095E1,3.098816E1,1.3029175E1,1.7170116E2,5.7501175E1,2.3219564E1,1.2150948E1,0E0,0E0,0E0,0E0,0E0,0E0,0E0,0E0,0E0,0E0,0E0,0E0,0E0,0E0,0E0,0E0,0E0,0E0,0E0,0E0,0E0,0E0,0E0,0E0,0E0,0E0,0E0,0E0,0E0,0E0,0E0,0E0,0E0,0E0,0E0,0E0,0E0,0E0,0E0,0E0,0E0,0E0,0E0,0E0,0E0,0E0,0E0,0E0,0E0,0E0,0E0,0E0,0E0,0E0,0E0,0E0,0E0,0E0,0E0,0E0,0E0,0E0],"parents":[2147483647,0,0,1,1,2,2,3,3,4,4,5,5,6,6,7,7,8,8,9,9,10,10,11,11,12,12,13,13,14,14,15,15,16,16,17,17,18,18,19,19,20,20,21,21,22,22,23,23,24,24,25,25,26,26,27,27,28,28,29,29,30,30,31,31,32,32,33,33,34,34,35,35,36,36,37,37,38,38,39,39,40,40,41,41,43,43,44,44,45,45,46,46,47,47,48,48,49,49,50,50,51,51,52,52,53,53,54,54,55,55,56,56,57,57,58,58,59,59,60,60,61,61,62,62],"right_children":[2,4,6,8,10,12,14,16,18,20,22,24,26,28,30,32,34,36,38,40,42,44,46,48,50,52,54,56,58,60,62,64,66,68,70,72,74,76,78,80,82,84,-1,86,88,90,92,94,96,98,100,102,104,106,108,110,112,114,116,118,120,122,124,-1,-1,-1,-1,-1,-1,-1,-1,-1,-1,-1,-1,-1,-1,-1,-1,-1,-1,-1,-1,-1,-1,-1,-1,-1,-1,-1,-1,-1,-1,-1,-1,-1,-1,-1,-1,-1,-1,-1,-1,-1,-1,-1,-1,-1,-1,-1,-1,-1,-1,-1,-1,-1,-1,-1,-1,-1,-1,-1,-1,-1,-1],"split_conditions":[1.041926E1,1E0,1E0,1.06867E3,8.2302625E2,-2.8769752E-1,3.1498945E1,1.2633636E3,1.6579089E3,1.5555778E3,1.4680759E3,2.7688301E1,1.169044E3,1E0,-3.545404E-1,4.2088685E0,1.9667593E3,1.431276E3,2.4980874E3,4.9579855E2,1.4466586E1,-6.05146E1,2.4667676E3,1.561808E3,2.15526E3,3.0450428E0,1.509649E0,1.3928547E3,3.3656533E3,7.545603E1,9.0860236E2,3.1617773E0,1E0,3.8576407E0,8.61266E3,3.7919304E0,1.8052489E3,2.42753E3,1.254771E4,9.759151E0,2.193646E-5,-1.4982003E-2,-0E0,1.6449785E3,1.2815942E3,1.946227E3,2.4980874E3,6.647116E2,2.7621143E3,-4.9224582E-1,7.325305E1,5.33275E2,7.884168E2,4.0915842E2,1.5731578E3,1.9340704E1,1.223841E4,5.0827414E4,2.468694E4,1E0,4.8076523E3,5.9615445E0,6.657733E0,1.2061983E-2,-3.3284023E-3,-9.071729E-3,1.6888855E-2,1.8176751E-2,5.2266098E-3,4.05561E-2,2.0912789E-2,2.1872168E-2,8.000973E-3,2.5689319E-2,4.161064E-2,5.022384E-2,2.9509226E-2,5.1885106E-2,3.965439E-2,3.1362835E-2,-1.781539E-2,4.456013E-2,3.672935E-2,4.9434543E-2,-0E0,5.191986E-2,6.057123E-2,4.3449875E-2,4.9996406E-2,5.606055E-2,6.374141E-2,3.9811965E-2,-5.274101E-2,-3.4125805E-2,-1.8357638E-2,-5.421244E-3,1.607007E-2,-4.6741918E-2,-3.0143622E-2,-1.2689257E-2,-3.7197407E-2,-2.1271741E-2,-3.0912661E-3,-3.042067E-2,-1.9441282E-2,-5.420374E-3,2.0987442E-2,-3.9716284E-3,1.2964116E-2,1.2981722E-2,-3.2745681E-3,4.001106E-2,2.3528412E-2,4.2136945E-2,2.2874689E-2,5.6528836E-2,4.416963E-2,-1.1218373E-2,1.9897718E-2,-2.9346794E-2,-2.9680198E-3,5.0335187E-3,-3.5483036E-2,2.7741173E-2,4.6987096E-3],"split_indices":[1,4,3,10,17,22,1,17,17,10,10,1,10,4,22,1,17,10,17,17,9,15,10,17,17,9,9,17,24,1,10,9,3,1,28,1,10,24,28,1,45,22,0,17,21,17,17,21,17,22,1,21,10,21,10,1,28,30,28,4,24,9,9,0,0,0,0,0,0,0,0,0,0,0,0,0,0,0,0,0,0,0,0,0,0,0,0,0,0,0,0,0,0,0,0,0,0,0,0,0,0,0,0,0,0,0,0,0,0,0,0,0,0,0,0,0,0,0,0,0,0,0,0,0,0],"split_type":[0,0,0,0,0,0,0,0,0,0,0,0,0,0,0,0,0,0,0,0,0,0,0,0,0,0,0,0,0,0,0,0,0,0,0,0,0,0,0,0,0,0,0,0,0,0,0,0,0,0,0,0,0,0,0,0,0,0,0,0,0,0,0,0,0,0,0,0,0,0,0,0,0,0,0,0,0,0,0,0,0,0,0,0,0,0,0,0,0,0,0,0,0,0,0,0,0,0,0,0,0,0,0,0,0,0,0,0,0,0,0,0,0,0,0,0,0,0,0,0,0,0,0,0,0],"sum_hessian":[2.3054169E5,1.2763773E5,1.0290395E5,1.0879218E5,1.8845547E4,9.289635E4,1.00076045E4,7.504508E4,3.3747105E4,5.8666963E3,1.2978851E4,7.480317E4,1.809318E4,6.4495464E3,3.5580576E3,4.6611996E4,2.8433078E4,2.7056668E4,6.6904365E3,4.530612E3,1.3360842E3,9.527543E3,3.4513076E3,3.522937E4,3.9573797E4,1.2895662E4,5.197517E3,4.404028E3,2.0455186E3,2.9239312E3,6.341265E2,2.6567582E4,2.0044416E4,1.816482E4,1.0268258E4,1.8141496E4,8.915172E3,4.6252456E3,2.065191E3,1.6881149E3,2.842497E3,1.3287439E3,7.340377E0,1.8638408E3,7.663702E3,3.3271997E3,1.2410803E2,2.5430307E4,9.799066E3,3.382879E4,5.7450103E3,7.9343545E3,4.9613076E3,2.4493228E3,2.7481946E3,2.6206104E3,1.7834175E3,9.1325635E2,1.1322622E3,1.8520099E3,1.0719214E3,2.1018391E2,4.239426E2,1.9902354E4,6.6652285E3,1.8153338E4,1.8910781E3,9.536798E3,8.628022E3,1.7438665E3,8.524392E3,9.62416E3,8.517337E3,6.978827E3,1.9363447E3,4.682073E2,4.157038E3,7.033622E2,1.3618286E3,1.674536E3,1.3578813E1,1.2924894E3,1.5500078E3,1.3221267E3,6.617138E0,9.1567346E2,9.4816736E2,2.4506523E3,5.21305E3,2.5237007E3,8.034991E2,1.1689301E2,7.215021E0,7.6658423E3,1.7764465E4,7.56335E3,2.2357158E3,2.7095562E4,6.733224E3,3.250132E3,2.4948782E3,3.1765864E3,4.7577676E3,2.9154294E3,2.0458784E3,2.3060886E2,2.2187139E3,1.588614E3,1.1595806E3,1.8244131E3,7.961973E2,4.3418997E2,1.3492274E3,3.455071E2,5.6774927E2,3.5458884E2,7.7767334E2,1.1195795E3,7.324304E2,7.8887286E2,2.8304846E2,1.6651765E2,4.3666252E1,3.5188132E2,7.206127E1],"tree_param":{"num_deleted":"0","num_feature":"47","num_nodes":"125","size_leaf_vector":"1"}},{"base_weights":[2.1784384E-4,-4.0914103E-1,4.7744825E-1,-1.6081347E-1,-8.437124E-1,7.847431E-1,-4.8254486E-2,-4.0671805E-1,5.0990686E-2,-7.095059E-1,-1.0087194E0,5.1264143E-1,1.0534396E0,-3.4303698E-1,1.3703191E-1,-4.6019316E-1,8.1125304E-2,2.1787679E-1,-1.9743848E-1,-8.0028427E-1,-3.372642E-1,-1.0715047E0,-5.4691195E-1,7.1847796E-1,1.476887E-1,1.0722374E0,-1.1952374E-1,-9.134863E-2,-6.233163E-1,4.9479118E-1,2.0203812E-3,-3.5066727E-1,-6.4049464E-1,-7.403026E-2,3.7119964E-1,3.431106E-1,-2.594704E-2,-2.4903086E-1,3.9130282E-1,-9.1929626E-1,-6.2766445E-1,-5.133986E-1,-1.2152559E-1,-1.1250262E0,-8.6864704E-1,-6.871568E-1,-3.2805747E-1,5.703985E-1,8.831219E-1,2.590711E-1,-2.2410782E-1,8.869197E-1,1.1953208E0,-3.9876744E-1,2.5273232E-2,1.6581295E-1,-3.481656E-1,-4.348805E-1,-8.7191474E-1,1.7171043E-1,6.918592E-1,-2.2873029E-1,1.07421376E-1,-2.7562236E-2,-1.2171614E-2,-3.532279E-2,-1.9155784E-2,-1.0199435E-2,7.3884944E-3,1.0205342E-2,3.306895E-2,1.1237136E-2,2.7918726E-2,-1.4746427E-2,5.2521154E-3,-7.266459E-3,-2.3740124E-2,1.3099198E-2,3.2327905E-2,-5.0978392E-2,-4.042732E-2,-2.1691676E-2,-4.137276E-2,-4.1392416E-2,-2.223235E-2,-9.274828E-3,2.4892015E-2,-5.86837E-2,-4.9201816E-2,-3.314316E-2,-5.1790494E-2,-4.684482E-2,-3.0807335E-2,-2.3735896E-2,-6.8752924E-3,3.564467E-2,2.18006E-2,4.8501324E-2,3.2861646E-2,2.197834E-3,2.6055131E-2,-2.0631578E-2,9.612166E-3,5.300785E-2,1.5227175E-2,6.0951497E-2,3.297102E-2,-0E0,-3.093542E-2,2.7880033E-2,-4.655614E-3,-1.0911133E-2,1.579915E-2,-1.926865E-2,1.9309169E-2,-3.2642405E-2,-1.1503539E-2,-4.8888326E-2,-2.0630801E-2,1.6260406E-2,-2.2093707E-3,2.4458228E-2,4.7630023E-2,-1.8027764E-2,-1.8115502E-3,-1.0018909E-2,9.62486E-3],"categories":[],"categories_nodes":[],"categories_segments":[],"categories_sizes":[],"default_left":[0,0,0,0,0,0,0,0,0,0,0,0,0,0,0,0,0,0,0,0,0,0,0,0,0,0,0,0,0,0,0,0,0,0,0,0,0,0,0,0,0,0,0,0,0,0,0,0,0,0,0,0,0,0,0,0,0,0,0,0,0,0,0,0,0,0,0,0,0,0,0,0,0,0,0,0,0,0,0,0,0,0,0,0,0,0,0,0,0,0,0,0,0,0,0,0,0,0,0,0,0,0,0,0,0,0,0,0,0,0,0,0,0,0,0,0,0,0,0,0,0,0,0,0,0,0,0],"id":12,"left_children":[1,3,5,7,9,11,13,15,17,19,21,23,25,27,29,31,33,35,37,39,41,43,45,47,49,51,53,55,57,59,61,63,65,67,69,71,73,75,77,79,81,83,85,87,89,91,93,95,97,99,101,103,105,107,109,111,113,115,117,119,121,123,125,-1,-1,-1,-1,-1,-1,-1,-1,-1,-1,-1,-1,-1,-1,-1,-1,-1,-1,-1,-1,-1,-1,-1,-1,-1,-1,-1,-1,-1,-1,-1,-1,-1,-1,-1,-1,-1,-1,-1,-1,-1,-1,-1,-1,-1,-1,-1,-1,-1,-1,-1,-1,-1,-1,-1,-1,-1,-1,-1,-1,-1,-1,-1,-1],"loss_changes":[4.48205E4,1.33264E4,1.7113303E4,4.0934111E3,9.92875E2,4.8865703E3,2.1346125E3,9.489839E2,1.7505498E3,8.361572E2,5.8249414E2,2.4949307E3,7.422422E2,1.0636693E3,1.1587877E3,6.4654297E2,1.6186844E2,7.7140796E2,5.1534216E2,4.07708E2,1.842586E2,1.9047852E2,7.333478E1,5.1658105E2,4.9625558E2,7.5302344E2,2.166784E1,5.2516486E2,3.3323462E2,4.1797437E2,4.2372345E2,4.3812744E2,2.0941699E2,6.7518906E1,6.019922E1,4.2470544E2,3.020907E2,3.6485858E2,4.448445E1,1.2910059E2,