{"learner":{"attributes":{},"feature_names":["B0_ENDVERTEX_CHI2","B0_M","B0_PT","jpsi_ENDVERTEX_CHI2","jpsi_M","kstar_PT","pion_PIDp","mu_minus_ETA","mu_plus_ETA","pion_PT","mu_minus_PT","kstar_P","mu_plus_PIDK","mu_plus_PT","pion_REFPX","B0_pmu_ISOLATION_BDT2","B0_pmu_ISOLATION_BDT4","B0_pmu_ISOLATION_BDT1","mu_plus_REFPX","mu_minus_REFPX","mu_minus_PIDK","kaon_PIDK","kaon_REFPX","jpsi_PT","kstar_PZ","kaon_REFPY","jpsi_P","kaon_ETA","mu_plus_REFPY","B0_pmu_ISOLATION_BDT3","pion_ETA","mu_minus_PIDmu","mu_minus_MC15TuneV1_ProbNNmu","B0_PX","kaon_PT","mu_minus_REFPY","pion_REFPY","kstar_ENDVERTEX_CHI2","kaon_P","kaon_MC15TuneV1_ProbNNe","nPV","mu_plus_ProbNNp","kaon_PZ","B0_pmu_TR4_PZ","pion_PE","mu_plus_PIDmu","mu_plus_AtVtx_PZ","pion_PX","kaon_PIDd"],"feature_types":["float","float","float","float","float","float","float","float","float","float","float","float","float","float","float","float","float","float","float","float","float","float","float","float","float","float","float","float","float","float","float","float","float","float","float","float","float","float","float","float","int","float","float","float","float","float","float","float","float"],"gradient_booster":{"model":{"gbtree_model_param":{"num_parallel_tree":"1","num_trees":"200"},"iteration_indptr":[0,1,2,3,4,5,6,7,8,9,10,11,12,13,14,15,16,17,18,19,20,21,22,23,24,25,26,27,28,29,30,31,32,33,34,35,36,37,38,39,40,41,42,43,44,45,46,47,48,49,50,51,52,53,54,55,56,57,58,59,60,61,62,63,64,65,66,67,68,69,70,71,72,73,74,75,76,77,78,79,80,81,82,83,84,85,86,87,88,89,90,91,92,93,94,95,96,97,98,99,100,101,102,103,104,105,106,107,108,109,110,111,112,113,114,115,116,117,118,119,120,121,122,123,124,125,126,127,128,129,130,131,132,133,134,135,136,137,138,139,140,141,142,143,144,145,146,147,148,149,150,151,152,153,154,155,156,157,158,159,160,161,162,163,164,165,166,167,168,169,170,171,172,173,174,175,176,177,178,179,180,181,182,183,184,185,186,187,188,189,190,191,192,193,194,195,196,197,198,199,200],"tree_info":[0,0,0,0,0,0,0,0,0,0,0,0,0,0,0,0,0,0,0,0,0,0,0,0,0,0,0,0,0,0,0,0,0,0,0,0,0,0,0,0,0,0,0,0,0,0,0,0,0,0,0,0,0,0,0,0,0,0,0,0,0,0,0,0,0,0,0,0,0,0,0,0,0,0,0,0,0,0,0,0,0,0,0,0,0,0,0,0,0,0,0,0,0,0,0,0,0,0,0,0,0,0,0,0,0,0,0,0,0,0,0,0,0,0,0,0,0,0,0,0,0,0,0,0,0,0,0,0,0,0,0,0,0,0,0,0,0,0,0,0,0,0,0,0,0,0,0,0,0,0,0,0,0,0,0,0,0,0,0,0,0,0,0,0,0,0,0,0,0,0,0,0,0,0,0,0,0,0,0,0,0,0,0,0,0,0,0,0,0,0,0,0,0,0,0,0,0,0,0,0],"trees":[{"base_weights":[-2.821105E-4,-5.4393214E-1,6.909128E-1,-8.645994E-1,-2.647497E-1,3.3843726E-1,9.180158E-1,-7.1440583E-1,-1.1027442E0,-1.06457315E-1,-6.158214E-1,5.4244417E-1,3.5011247E-2,1.1418242E0,2.2954579E-1,-9.163348E-1,-5.594715E-1,-1.2375138E0,-8.406957E-1,-2.629689E-1,8.169731E-2,-8.2781214E-1,-3.824684E-1,6.7911124E-1,9.663081E-2,1.7010269E-1,-4.167503E-1,1.1865375E0,4.7740772E-2,-1.5638508E-1,5.9281594E-1,-1.0767233E0,-7.7440023E-1,-6.65952E-1,-3.224846E-1,-1.3562121E0,-1.1312842E0,-1.0776918E0,-7.6868355E-1,-1.0003162E-1,-4.85915E-1,2.5483048E-1,-2.2396207E-1,-6.920147E-1,-1.0140887E0,-1.5191266E-1,-5.4917073E-1,3.812037E-1,8.3349115E-1,-3.3235875E-1,3.2214645E-1,1.281895E-2,3.8762E-1,-6.4054936E-1,-1.6589102E-1,8.837845E-1,1.3974788E0,-3.407093E-1,4.4034314E-1,3.6366448E-2,-5.404352E-1,7.5343096E-1,1.844177E-1,-5.194467E-2,-7.000303E-2,-3.6484722E-2,-5.8156736E-2,-3.136268E-2,-5.213532E-2,-1.257951E-2,-3.596828E-2,-6.2200654E-2,-7.2809756E-2,-4.6632808E-2,-6.0520407E-2,-4.927318E-2,-6.957042E-2,-3.2440286E-2,-4.798949E-2,-2.0213956E-2,1.3330043E-3,-2.8229544E-2,-1.0812922E-2,2.5612833E-3,2.0389525E-2,-8.357937E-3,-2.9354787E-2,-4.1065466E-2,-2.3348399E-2,-5.657333E-2,-4.085249E-2,-1.7422063E-2,5.978191E-3,-3.562659E-2,-1.7036943E-2,2.5667354E-2,7.6881313E-4,3.1517282E-2,4.9554083E-2,-2.999194E-2,-6.2756776E-3,6.9664824E-3,2.6855571E-2,4.2026667E-3,-2.015022E-2,3.0960381E-2,5.298687E-3,-2.4466226E-2,-4.15322E-2,-1.1611505E-2,1.6996203E-2,5.4249533E-2,2.169061E-2,7.3981166E-2,5.138501E-2,-1.5160223E-4,-3.2916743E-2,-1.7126596E-2,2.408376E-2,-5.9763654E-3,2.3768866E-2,-4.112481E-2,-1.7200937E-2,4.616606E-2,2.7343778E-2,-2.4231698E-3,2.1955397E-2],"categories":[],"categories_nodes":[],"categories_segments":[],"categories_sizes":[],"default_left":[0,0,0,0,0,0,0,0,0,0,0,0,0,0,0,0,0,0,0,0,0,0,0,0,0,0,0,0,0,0,0,0,0,0,0,0,0,0,0,0,0,0,0,0,0,0,0,0,0,0,0,0,0,0,0,0,0,0,0,0,0,0,0,0,0,0,0,0,0,0,0,0,0,0,0,0,0,0,0,0,0,0,0,0,0,0,0,0,0,0,0,0,0,0,0,0,0,0,0,0,0,0,0,0,0,0,0,0,0,0,0,0,0,0,0,0,0,0,0,0,0,0,0,0,0,0,0],"id":0,"left_children":[1,3,5,7,9,11,13,15,17,19,21,23,25,27,29,31,33,35,37,39,41,43,45,47,49,51,53,55,57,59,61,63,65,67,69,71,73,75,77,79,81,83,85,87,89,91,93,95,97,99,101,103,105,107,109,111,113,115,117,119,121,123,125,-1,-1,-1,-1,-1,-1,-1,-1,-1,-1,-1,-1,-1,-1,-1,-1,-1,-1,-1,-1,-1,-1,-1,-1,-1,-1,-1,-1,-1,-1,-1,-1,-1,-1,-1,-1,-1,-1,-1,-1,-1,-1,-1,-1,-1,-1,-1,-1,-1,-1,-1,-1,-1,-1,-1,-1,-1,-1,-1,-1,-1,-1,-1,-1],"loss_changes":[8.8644555E4,1.1820496E4,8.312672E3,2.196418E3,3.9224443E3,2.5189478E3,9.731145E3,1.1779375E3,8.3721875E2,1.4329484E3,1.0842207E3,1.4822241E3,9.986413E2,2.3310664E3,2.172928E3,3.7068848E2,5.375718E2,1.9506836E2,1.3607227E2,9.6459595E2,1.1692689E3,2.8914746E2,4.0100488E2,8.5561816E2,5.526752E2,4.30824E2,2.1094525E2,2.922082E3,2.85838E2,5.565194E2,5.2308057E2,9.122754E1,1.4913818E2,2.1306396E2,1.8549707E2,7.988672E1,1.2806152E2,5.177368E1,1.4058398E2,5.9185693E2,2.374104E2,4.3906085E2,1.6430865E2,1.9250854E2,1.1008154E2,2.3414235E2,2.0557861E2,3.0717957E2,3.9122266E2,1.0843172E2,1.4676108E2,2.1652565E2,3.4433344E2,5.6116272E1,5.9694885E1,1.7015713E3,8.169297E2,1.0063511E2,3.041072E1,3.426507E2,1.383006E2,1.997976E2,1.3401086E2,0E0,0E0,0E0,0E0,0E0,0E0,0E0,0E0,0E0,0E0,0E0,0E0,0E0,0E0,0E0,0E0,0E0,0E0,0E0,0E0,0E0,0E0,0E0,0E0,0E0,0E0,0E0,0E0,0E0,0E0,0E0,0E0,0E0,0E0,0E0,0E0,0E0,0E0,0E0,0E0,0E0,0E0,0E0,0E0,0E0,0E0,0E0,0E0,0E0,0E0,0E0,0E0,0E0,0E0,0E0,0E0,0E0,0E0,0E0,0E0,0E0,0E0,0E0,0E0],"parents":[2147483647,0,0,1,1,2,2,3,3,4,4,5,5,6,6,7,7,8,8,9,9,10,10,11,11,12,12,13,13,14,14,15,15,16,16,17,17,18,18,19,19,20,20,21,21,22,22,23,23,24,24,25,25,26,26,27,27,28,28,29,29,30,30,31,31,32,32,33,33,34,34,35,35,36,36,37,37,38,38,39,39,40,40,41,41,42,42,43,43,44,44,45,45,46,46,47,47,48,48,49,49,50,50,51,51,52,52,53,53,54,54,55,55,56,56,57,57,58,58,59,59,60,60,61,61,62,62],"right_children":[2,4,6,8,10,12,14,16,18,20,22,24,26,28,30,32,34,36,38,40,42,44,46,48,50,52,54,56,58,60,62,64,66,68,70,72,74,76,78,80,82,84,86,88,90,92,94,96,98,100,102,104,106,108,110,112,114,116,118,120,122,124,126,-1,-1,-1,-1,-1,-1,-1,-1,-1,-1,-1,-1,-1,-1,-1,-1,-1,-1,-1,-1,-1,-1,-1,-1,-1,-1,-1,-1,-1,-1,-1,-1,-1,-1,-1,-1,-1,-1,-1,-1,-1,-1,-1,-1,-1,-1,-1,-1,-1,-1,-1,-1,-1,-1,-1,-1,-1,-1,-1,-1,-1,-1,-1,-1],"split_conditions":[2.5057136E3,2.1228413E3,2.7562944E3,3.1617773E0,3.926768E0,1.1276842E3,-2.3184033E-1,1.8765111E3,5.7837695E3,2.3374756E3,5.443352E3,4.9704027E0,5.2506824E0,3.9176072E3,1.0789949E3,4.20789E3,5.695042E3,1.8765111E3,1.7526842E3,8.510601E2,1.01461346E3,8.920819E2,7.884168E2,4.1479517E3,4.574324E3,2.6590256E3,6.061333E3,2.934609E3,1.4199779E3,3.2798388E0,3.8566997E0,7.346E-1,5.445E-1,7.539E-1,4.14E-1,7.163283E0,5.379198E2,1.304641E1,7.2625275E2,3.6945574E3,6.800998E3,4.4527437E3,5.389E-1,2.3332014E3,2.3836167E3,2.3241167E3,2.3608665E3,1.6258083E-1,2.5985422E3,3.2716238E3,2.621778E3,5.228E-1,1.3484634E3,1.0066779E1,1.2747683E4,1.3874939E3,3.0941445E-2,1.4482584E0,2.2466323E0,1.1161277E3,6.2436865E2,3.5920752E3,1.5235636E3,-5.194467E-2,-7.000303E-2,-3.6484722E-2,-5.8156736E-2,-3.136268E-2,-5.213532E-2,-1.257951E-2,-3.596828E-2,-6.2200654E-2,-7.2809756E-2,-4.6632808E-2,-6.0520407E-2,-4.927318E-2,-6.957042E-2,-3.2440286E-2,-4.798949E-2,-2.0213956E-2,1.3330043E-3,-2.8229544E-2,-1.0812922E-2,2.5612833E-3,2.0389525E-2,-8.357937E-3,-2.9354787E-2,-4.1065466E-2,-2.3348399E-2,-5.657333E-2,-4.085249E-2,-1.7422063E-2,5.978191E-3,-3.562659E-2,-1.7036943E-2,2.5667354E-2,7.6881313E-4,3.1517282E-2,4.9554083E-2,-2.999194E-2,-6.2756776E-3,6.9664824E-3,2.6855571E-2,4.2026667E-3,-2.015022E-2,3.0960381E-2,5.298687E-3,-2.4466226E-2,-4.15322E-2,-1.1611505E-2,1.6996203E-2,5.4249533E-2,2.169061E-2,7.3981166E-2,5.138501E-2,-1.5160223E-4,-3.2916743E-2,-1.7126596E-2,2.408376E-2,-5.9763654E-3,2.3768866E-2,-4.112481E-2,-1.7200937E-2,4.616606E-2,2.7343778E-2,-2.4231698E-3,2.1955397E-2],"split_indices":[1,1,1,3,3,4,29,1,2,1,2,3,3,1,4,2,2,1,1,4,4,4,4,2,2,1,2,1,4,3,3,35,35,35,28,3,4,3,4,2,2,2,28,1,1,1,1,17,1,2,1,35,4,3,2,4,17,3,30,10,10,1,4,0,0,0,0,0,0,0,0,0,0,0,0,0,0,0,0,0,0,0,0,0,0,0,0,0,0,0,0,0,0,0,0,0,0,0,0,0,0,0,0,0,0,0,0,0,0,0,0,0,0,0,0,0,0,0,0,0,0,0,0,0,0,0,0],"split_type":[0,0,0,0,0,0,0,0,0,0,0,0,0,0,0,0,0,0,0,0,0,0,0,0,0,0,0,0,0,0,0,0,0,0,0,0,0,0,0,0,0,0,0,0,0,0,0,0,0,0,0,0,0,0,0,0,0,0,0,0,0,0,0,0,0,0,0,0,0,0,0,0,0,0,0,0,0,0,0,0,0,0,0,0,0,0,0,0,0,0,0,0,0,0,0,0,0,0,0,0,0,0,0,0,0,0,0,0,0,0,0,0,0,0,0,0,0,0,0,0,0,0,0,0,0,0,0],"sum_hessian":[2.3590047E5,1.32044E5,1.03856484E5,6.145419E4,7.0589805E4,4.0697133E4,6.3159348E4,3.7689938E4,2.3764252E4,4.8654863E4,2.193494E4,2.4333916E4,1.6363216E4,4.7663477E4,1.5495871E4,1.6359776E4,2.1330162E4,1.568959E4,8.0746626E3,2.6562113E4,2.209275E4,1.14911E4,1.044384E4,1.8623203E4,5.710714E3,1.2597794E4,3.7654214E3,4.579152E4,1.8719583E3,7.513196E3,7.982675E3,7.675836E3,8.68394E3,1.4714756E4,6.615406E3,7.4021377E3,8.287452E3,1.8768684E3,6.1977944E3,1.5348531E4,1.1213583E4,1.4105079E4,7.9876704E3,6.650338E3,4.8407617E3,4.3846333E3,6.059206E3,6.3589727E3,1.226423E4,1.9667505E3,3.7439634E3,7.31313E3,5.2846646E3,1.9881694E3,1.777252E3,1.8806748E4,2.6984773E4,9.403813E2,9.315769E2,5.0022246E3,2.5109712E3,5.727925E3,2.25475E3,6.876997E3,7.988387E2,7.7919966E3,8.919433E2,1.334773E4,1.3670255E3,5.615253E3,1.0001526E3,3.496674E3,3.9054636E3,2.3663079E3,5.9211445E3,1.4548878E3,4.219806E2,3.812983E3,2.3848113E3,4.512827E3,1.0835704E4,8.678552E3,2.535031E3,6.052805E3,8.0522744E3,6.909661E3,1.0780092E3,4.2206216E3,2.4297166E3,3.0290498E3,1.811712E3,2.5443052E3,1.8403281E3,3.3941675E3,2.6650386E3,4.6702314E3,1.688741E3,5.361302E3,6.9029287E3,8.557839E2,1.1109666E3,2.0254202E3,1.7185431E3,6.2452593E3,1.0678702E3,2.898422E3,2.3862424E3,1.1107474E3,8.77422E2,1.5725385E3,2.0471349E2,1.2993949E4,5.8127983E3,2.207628E4,4.9084937E3,4.5705557E2,4.8332574E2,4.5744293E1,8.8583264E2,3.691097E3,1.3111279E3,1.028408E3,1.4825632E3,3.1396765E3,2.5882483E3,1.1772002E3,1.0775499E3],"tree_param":{"num_deleted":"0","num_feature":"49","num_nodes":"127","size_leaf_vector":"1"}},{"base_weights":[2.5582144E-3,-5.116755E-1,6.649797E-1,-8.175855E-2,-1.064984E0,1.0794972E0,-1.238072E-1,-4.118355E-1,1.9977438E-1,-8.0825263E-1,-1.2845417E0,7.636696E-1,1.4273477E0,-5.2092874E-1,1.1663821E-1,-6.4004475E-1,-2.6743513E-1,3.500818E-1,-7.718529E-2,-1.009193E0,-5.5115753E-1,-1.3933262E0,-1.0869077E0,9.0455014E-1,3.749428E-1,1.45427E0,2.006826E-2,-2.2103135E-1,-8.1474125E-1,5.64395E-1,-6.963109E-2,-3.9970177E-1,-7.5037175E-1,-1.0819988E-1,-4.9105644E-1,4.7000816E-1,1.0515728E-1,-2.5664172E-1,8.853988E-2,-1.2154686E0,-8.666212E-1,-7.12512E-1,-3.43486E-1,-1.4379114E0,-9.208305E-1,-8.6774236E-1,-1.188294E0,1.0248737E0,5.4157156E-1,5.7611716E-1,9.12831E-2,1.2916198E0,1.6176472E0,-5.896252E-1,1.08324915E-1,2.4955386E-2,-4.4727966E-1,-6.457301E-1,-1.0603478E0,7.5849956E-1,9.6812084E-2,-3.108799E-1,2.0633489E-1,-1.5374102E-2,-3.4496248E-2,-4.6273E-2,-2.8260766E-2,-1.8026881E-3,-2.4467183E-2,-3.4743574E-2,-1.799596E-2,1.5127428E-2,3.4241043E-2,-8.306653E-3,1.1067164E-2,-4.5163846E-3,-2.238566E-2,1.3104572E-2,-9.844917E-3,-6.841759E-2,-5.681221E-2,-5.5817366E-2,-3.697751E-2,-2.9262347E-2,-4.6970244E-2,-5.8719753E-3,-2.9252136E-2,-6.6582866E-2,-7.6817766E-2,-6.2769175E-2,-3.932978E-2,-4.7633007E-2,-2.4563577E-2,-6.435066E-2,-4.011478E-2,4.0992763E-2,6.05762E-2,1.7157922E-2,3.707122E-2,1.7162431E-2,3.9092705E-2,-1.0846413E-2,1.4519768E-2,7.111242E-2,4.4437535E-2,8.292498E-2,4.55241E-2,-4.8316154E-3,-5.94518E-2,8.596848E-3,-3.9482918E-2,1.0650435E-2,-1.952177E-2,-3.2259703E-2,-1.2187168E-2,-3.9031986E-2,-2.0368386E-2,-5.841751E-2,-2.414886E-2,1.909216E-2,5.175979E-2,-1.3297345E-2,2.016857E-2,-2.2257542E-2,1.3420067E-3,-2.5783166E-2,1.8535074E-2],"categories":[],"categories_nodes":[],"categories_segments":[],"categories_sizes":[],"default_left":[0,0,0,0,0,0,0,0,0,0,0,0,0,0,0,0,0,0,0,0,0,0,0,0,0,0,0,0,0,0,0,0,0,0,0,0,0,0,0,0,0,0,0,0,0,0,0,0,0,0,0,0,0,0,0,0,0,0,0,0,0,0,0,0,0,0,0,0,0,0,0,0,0,0,0,0,0,0,0,0,0,0,0,0,0,0,0,0,0,0,0,0,0,0,0,0,0,0,0,0,0,0,0,0,0,0,0,0,0,0,0,0,0,0,0,0,0,0,0,0,0,0,0,0,0,0,0],"id":1,"left_children":[1,3,5,7,9,11,13,15,17,19,21,23,25,27,29,31,33,35,37,39,41,43,45,47,49,51,53,55,57,59,61,63,65,67,69,71,73,75,77,79,81,83,85,87,89,91,93,95,97,99,101,103,105,107,109,111,113,115,117,119,121,123,125,-1,-1,-1,-1,-1,-1,-1,-1,-1,-1,-1,-1,-1,-1,-1,-1,-1,-1,-1,-1,-1,-1,-1,-1,-1,-1,-1,-1,-1,-1,-1,-1,-1,-1,-1,-1,-1,-1,-1,-1,-1,-1,-1,-1,-1,-1,-1,-1,-1,-1,-1,-1,-1,-1,-1,-1,-1,-1,-1,-1,-1,-1,-1,-1],"loss_changes":[8.03957E4,3.160561E4,3.3725715E4,6.9486597E3,3.2726562E3,7.425961E3,3.3931072E3,1.1336421E3,1.6800537E3,1.3823828E3,6.704492E2,1.9399277E3,1.2182188E3,1.1801362E3,1.8461763E3,3.5277588E2,7.5042017E2,7.6803296E2,4.2229077E2,4.3998242E2,3.930808E2,4.2284766E2,2.4509277E2,1.1347246E3,5.377573E2,8.353672E2,3.2395317E1,3.694413E2,2.794077E2,5.897146E2,1.0407091E3,1.1169E2,2.949878E2,3.384284E2,2.3356079E2,6.309385E2,2.7117413E2,2.1632547E2,3.6564935E2,7.1555664E1,2.8046045E2,1.8961914E2,2.803789E2,1.8947266E2,7.6343506E1,1.11444824E2,2.8754297E2,7.454863E2,2.561222E2,2.6344604E2,2.4037006E2,8.304707E2,4.5204297E2,2.1695518E1,3.012127E1,2.4827155E2,1.3864954E2,1.2813464E2,1.7047461E2,4.7773096E2,2.1253214E2,3.7844995E2,8.6525024E2,0E0,0E0,0E0,0E0,0E0,0E0,0E0,0E0,0E0,0E0,0E0,0E0,0E0,0E0,0E0,0E0,0E0,0E0,0E0,0E0,0E0,0E0,0E0,0E0,0E0,0E0,0E0,0E0,0E0,0E0,0E0,0E0,0E0,0E0,0E0,0E0,0E0,0E0,0E0,0E0,0E0,0E0,0E0,0E0,0E0,0E0,0E0,0E0,0E0,0E0,0E0,0E0,0E0,0E0,0E0,0E0,0E0,0E0,0E0,0E0,0E0,0E0,0E0,0E0],"parents":[2147483647,0,0,1,1,2,2,3,3,4,4,5,5,6,6,7,7,8,8,9,9,10,10,11,11,12,12,13,13,14,14,15,15,16,16,17,17,18,18,19,19,20,20,21,21,22,22,23,23,24,24,25,25,26,26,27,27,28,28,29,29,30,30,31,31,32,32,33,33,34,34,35,35,36,36,37,37,38,38,39,39,40,40,41,41,42,42,43,43,44,44,45,45,46,46,47,47,48,48,49,49,50,50,51,51,52,52,53,53,54,54,55,55,56,56,57,57,58,58,59,59,60,60,61,61,62,62],"right_children":[2,4,6,8,10,12,14,16,18,20,22,24,26,28,30,32,34,36,38,40,42,44,46,48,50,52,54,56,58,60,62,64,66,68,70,72,74,76,78,80,82,84,86,88,90,92,94,96,98,100,102,104,106,108,110,112,114,116,118,120,122,124,126,-1,-1,-1,-1,-1,-1,-1,-1,-1,-1,-1,-1,-1,-1,-1,-1,-1,-1,-1,-1,-1,-1,-1,-1,-1,-1,-1,-1,-1,-1,-1,-1,-1,-1,-1,-1,-1,-1,-1,-1,-1,-1,-1,-1,-1,-1,-1,-1,-1,-1,-1,-1,-1,-1,-1,-1,-1,-1,-1,-1,-1,-1,-1,-1],"split_conditions":[2.510846E3,1.1514787E1,1.576281E1,2.142324E3,2.9507223E1,2.830992E3,2.8047056E3,1.8694966E3,5.147906E0,2.1855908E3,2.2277388E3,7.1445775E0,3.9176072E3,3.870172E1,3.962968E1,2.5098627E0,4.6568437E0,9.734477E2,2.3241167E3,7.959137E2,1.323944E3,4.1171172E-1,4.597379E1,1.2796057E3,1.1506747E3,3.0443127E3,4.5419604E2,1.0634385E3,1.1333878E3,-1.4607137E-1,1.169044E3,3.2196198E0,8.777634E2,5.0625196E0,7.974425E2,2.3374756E3,2.305783E3,8.192687E2,1.0007108E3,1.8153741E3,7.473266E2,9.601782E2,9.045601E2,6.1547993E1,-3.20166E-1,4.20539E3,-1.9842269E-1,2.6398264E3,2.69816E3,2.627762E3,2.6461816E3,1.5087166E3,4.6686955E-2,2.02575E1,5.445E-1,3.55397E0,2.6590256E3,2.671597E3,-1.8208838E-1,2.9721191E3,1.1220615E3,1.1111664E3,2.9996252E3,-1.5374102E-2,-3.4496248E-2,-4.6273E-2,-2.8260766E-2,-1.8026881E-3,-2.4467183E-2,-3.4743574E-2,-1.799596E-2,1.5127428E-2,3.4241043E-2,-8.306653E-3,1.1067164E-2,-4.5163846E-3,-2.238566E-2,1.3104572E-2,-9.844917E-3,-6.841759E-2,-5.681221E-2,-5.5817366E-2,-3.697751E-2,-2.9262347E-2,-4.6970244E-2,-5.8719753E-3,-2.9252136E-2,-6.6582866E-2,-7.6817766E-2,-6.2769175E-2,-3.932978E-2,-4.7633007E-2,-2.4563577E-2,-6.435066E-2,-4.011478E-2,4.0992763E-2,6.05762E-2,1.7157922E-2,3.707122E-2,1.7162431E-2,3.9092705E-2,-1.0846413E-2,1.4519768E-2,7.111242E-2,4.4437535E-2,8.292498E-2,4.55241E-2,-4.8316154E-3,-5.94518E-2,8.596848E-3,-3.9482918E-2,1.0650435E-2,-1.952177E-2,-3.2259703E-2,-1.2187168E-2,-3.9031986E-2,-2.0368386E-2,-5.841751E-2,-2.414886E-2,1.909216E-2,5.175979E-2,-1.3297345E-2,2.016857E-2,-2.2257542E-2,1.3420067E-3,-2.5783166E-2,1.8535074E-2],"split_indices":[1,0,0,1,0,1,1,1,0,1,1,0,1,0,0,0,0,4,1,13,10,17,0,4,4,1,13,4,4,15,4,3,13,3,10,1,1,4,4,1,10,4,4,0,15,33,15,1,1,1,1,4,15,48,35,8,1,1,15,1,4,13,1,0,0,0,0,0,0,0,0,0,0,0,0,0,0,0,0,0,0,0,0,0,0,0,0,0,0,0,0,0,0,0,0,0,0,0,0,0,0,0,0,0,0,0,0,0,0,0,0,0,0,0,0,0,0,0,0,0,0,0,0,0,0,0,0],"split_type":[0,0,0,0,0,0,0,0,0,0,0,0,0,0,0,0,0,0,0,0,0,0,0,0,0,0,0,0,0,0,0,0,0,0,0,0,0,0,0,0,0,0,0,0,0,0,0,0,0,0,0,0,0,0,0,0,0,0,0,0,0,0,0,0,0,0,0,0,0,0,0,0,0,0,0,0,0,0,0,0,0,0,0,0,0,0,0,0,0,0,0,0,0,0,0,0,0,0,0,0,0,0,0,0,0,0,0,0,0,0,0,0,0,0,0,0,0,0,0,0,0,0,0,0,0,0,0],"sum_hessian":[2.3601188E5,1.328673E5,1.03144586E5,7.477201E4,5.8095285E4,6.7613234E4,3.553135E4,3.4419246E4,4.0352758E4,2.6783727E4,3.1311559E4,3.544023E4,3.2173004E4,1.34002705E4,2.2131082E4,1.3336094E4,2.1083154E4,2.6158143E4,1.4194615E4,1.5030964E4,1.1752762E4,2.0189816E4,1.1121742E4,2.6010879E4,9.42935E3,3.1568682E4,6.043224E2,6.633176E3,6.767095E3,6.50204E3,1.5629041E4,4.198654E3,9.137439E3,1.2316556E4,8.766599E3,1.7557984E4,8.600159E3,6.816163E3,7.3784526E3,6.13855E3,8.892414E3,6.611212E3,5.1415503E3,1.8446117E4,1.7436979E3,3.5222424E3,7.5994995E3,1.9532771E4,6.478109E3,5.515153E3,3.9141963E3,1.5825537E4,1.5743145E4,7.498258E1,5.293398E2,3.1773289E3,3.455847E3,4.0119707E3,2.7551243E3,4.5934854E3,1.9085546E3,8.339957E3,7.2890845E3,3.1890884E3,1.0095653E3,4.692966E3,4.444474E3,1.0358263E4,1.9582932E3,3.4290369E3,5.3375615E3,9.869131E3,7.688853E3,2.5773655E3,6.022794E3,3.6463584E3,3.1698047E3,4.589679E3,2.7887737E3,2.0875405E3,4.0510095E3,2.9949243E3,5.89749E3,4.239207E3,2.372005E3,2.6578835E3,2.4836667E3,8.880582E3,9.565535E3,4.9584048E2,1.2478574E3,2.8716475E3,6.505951E2,6.048871E3,1.5506283E3,9.312218E3,1.0220553E4,3.2533828E3,3.224726E3,2.5893877E3,2.9257654E3,1.5352069E3,2.3789895E3,1.1947757E4,3.8777803E3,1.4881406E4,8.61738E2,4.223843E1,3.2744156E1,4.955976E2,3.37422E1,2.188331E3,9.889978E2,1.7497758E3,1.706071E3,2.559154E3,1.4528169E3,2.319375E3,4.3574945E2,1.9471239E3,2.6463613E3,8.7346454E2,1.03509E3,5.9682563E3,2.3717007E3,1.3507197E3,5.9383647E3],"tree_param":{"num_deleted":"0","num_feature":"49","num_nodes":"127","size_leaf_vector":"1"}},{"base_weights":[1.4853565E-3,4.4545525E-1,-5.953115E-1,2.6513124E-1,9.066635E-1,-7.194956E-1,7.119619E-2,3.421571E-2,5.170339E-1,7.785938E-1,1.2277325E0,-4.331409E-1,-8.9920056E-1,-1.2578405E-1,4.015473E-1,2.2246966E-1,-2.819178E-1,6.675968E-1,3.1444606E-1,6.759631E-1,1.1020314E0,1.3326432E0,1.0327159E0,-6.852456E-1,-2.1133859E-2,-1.0504038E0,-4.6682945E-1,2.1765964E-1,-3.0079484E-1,6.480131E-1,2.6202422E-1,1.1364121E-1,3.910807E-1,-4.195648E-1,-1.2813887E-1,6.075729E-1,9.2610353E-1,1.6045786E-1,5.341119E-1,8.3870846E-1,4.3305895E-1,1.1807485E0,8.808331E-1,1.199678E0,1.4177717E0,8.677696E-1,1.2070726E0,-8.460868E-1,-4.9498695E-1,-1.6759658E-1,2.618361E-1,-1.1949106E0,-6.8686295E-1,-4.043316E-1,-1.001536E0,-4.9920212E-2,5.576519E-1,-5.523081E-1,1.3819334E-1,4.4838408E-1,1.021137E0,-9.8232746E-2,5.3145605E-1,1.506354E-3,1.7234353E-2,1.6285654E-2,3.343704E-2,-2.7435023E-2,-1.1452734E-2,-2.124649E-3,-1.7744606E-2,3.826888E-2,2.6766283E-2,6.290578E-2,4.1846752E-2,1.74685E-2,4.1971873E-3,2.3541441E-2,4.181164E-2,3.615161E-2,4.920278E-2,1.4129608E-2,3.3535738E-2,5.2782513E-2,6.467616E-2,3.785525E-2,5.7176765E-2,5.4510493E-2,6.7069985E-2,7.2064884E-2,4.7866505E-2,3.4113836E-2,5.435769E-2,4.9224008E-2,6.58176E-2,-4.5174252E-2,-2.6565913E-2,-1.8800145E-2,-3.260502E-2,5.6166165E-3,-1.1373145E-2,2.6528895E-2,8.589094E-3,-6.365725E-2,-4.9986523E-2,-2.213836E-2,-5.336922E-2,-2.6529148E-2,-8.167436E-3,-4.454052E-2,-6.975604E-2,-8.517956E-3,1.7349157E-2,2.0699529E-2,3.7185855E-2,-3.8728435E-2,-5.20857E-3,1.0977736E-2,-3.0902792E-2,1.5858117E-2,3.395578E-2,5.3098973E-2,1.3706975E-2,-1.5478416E-2,2.0947529E-2,2.7705058E-2,-1.9874426E-2],"categories":[],"categories_nodes":[],"categories_segments":[],"categories_sizes":[],"default_left":[0,0,0,0,0,0,0,0,0,0,0,0,0,0,0,0,0,0,0,0,0,0,0,0,0,0,0,0,0,0,0,0,0,0,0,0,0,0,0,0,0,0,0,0,0,0,0,0,0,0,0,0,0,0,0,0,0,0,0,0,0,0,0,0,0,0,0,0,0,0,0,0,0,0,0,0,0,0,0,0,0,0,0,0,0,0,0,0,0,0,0,0,0,0,0,0,0,0,0,0,0,0,0,0,0,0,0,0,0,0,0,0,0,0,0,0,0,0,0,0,0,0,0,0,0,0,0],"id":2,"left_children":[1,3,5,7,9,11,13,15,17,19,21,23,25,27,29,31,33,35,37,39,41,43,45,47,49,51,53,55,57,59,61,63,65,67,69,71,73,75,77,79,81,83,85,87,89,91,93,95,97,99,101,103,105,107,109,111,113,115,117,119,121,123,125,-1,-1,-1,-1,-1,-1,-1,-1,-1,-1,-1,-1,-1,-1,-1,-1,-1,-1,-1,-1,-1,-1,-1,-1,-1,-1,-1,-1,-1,-1,-1,-1,-1,-1,-1,-1,-1,-1,-1,-1,-1,-1,-1,-1,-1,-1,-1,-1,-1,-1,-1,-1,-1,-1,-1,-1,-1,-1,-1,-1,-1,-1,-1,-1],"loss_changes":[6.234674E4,1.1220896E4,8.3085E3,5.642358E3,1.5575039E3,4.353051E3,1.0260695E3,3.0122004E3,1.4144014E3,8.984375E2,2.1863574E2,3.388683E3,3.3973281E3,5.937194E2,2.019231E2,5.8183386E2,3.995205E2,4.1159277E2,6.687378E2,8.128496E2,1.11606445E2,7.650293E1,1.0684985E2,6.183242E2,5.134043E2,2.0215508E3,4.4909814E2,3.035375E2,7.227752E2,1.5724939E2,3.6562094E2,3.718855E2,2.2510657E2,2.4465747E2,1.7312021E2,2.4521729E2,1.4625684E2,1.6789923E2,1.5479248E2,2.0566602E2,2.9480884E2,6.532617E1,5.4062378E1,3.9996582E1,4.3728516E1,7.77865E1,4.2246338E1,1.9692334E2,1.7265625E2,1.3690788E2,1.0178964E2,4.183828E2,1.01660645E3,3.666255E2,5.8989258E1,8.914343E1,3.837909E1,4.139348E2,1.4659671E2,4.1322662E1,2.160962E1,1.7611195E2,4.5618835E1,0E0,0E0,0E0,0E0,0E0,0E0,0E0,0E0,0E0,0E0,0E0,0E0,0E0,0E0,0E0,0E0,0E0,0E0,0E0,0E0,0E0,0E0,0E0,0E0,0E0,0E0,0E0,0E0,0E0,0E0,0E0,0E0,0E0,0E0,0E0,0E0,0E0,0E0,0E0,0E0,0E0,0E0,0E0,0E0,0E0,0E0,0E0,0E0,0E0,0E0,0E0,0E0,0E0,0E0,0E0,0E0,0E0,0E0,0E0,0E0,0E0,0E0,0E0,0E0],"parents":[2147483647,0,0,1,1,2,2,3,3,4,4,5,5,6,6,7,7,8,8,9,9,10,10,11,11,12,12,13,13,14,14,15,15,16,16,17,17,18,18,19,19,20,20,21,21,22,22,23,23,24,24,25,25,26,26,27,27,28,28,29,29,30,30,31,31,32,32,33,33,34,34,35,35,36,36,37,37,38,38,39,39,40,40,41,41,42,42,43,43,44,44,45,45,46,46,47,47,48,48,49,49,50,50,51,51,52,52,53,53,54,54,55,55,56,56,57,57,58,58,59,59,60,60,61,61,62,62],"right_children":[2,4,6,8,10,12,14,16,18,20,22,24,26,28,30,32,34,36,38,40,42,44,46,48,50,52,54,56,58,60,62,64,66,68,70,72,74,76,78,80,82,84,86,88,90,92,94,96,98,100,102,104,106,108,110,112,114,116,118,120,122,124,126,-1,-1,-1,-1,-1,-1,-1,-1,-1,-1,-1,-1,-1,-1,-1,-1,-1,-1,-1,-1,-1,-1,-1,-1,-1,-1,-1,-1,-1,-1,-1,-1,-1,-1,-1,-1,-1,-1,-1,-1,-1,-1,-1,-1,-1,-1,-1,-1,-1,-1,-1,-1,-1,-1,-1,-1,-1,-1,-1,-1,-1,-1,-1,-1],"split_conditions":[1.131973E1,1.1627577E3,1.3126785E3,4.9293975E3,1.5917672E3,2.5986277E1,1.6325781E3,4.7367196E0,4.428775E0,1.5961848E3,4.579935E0,5.7837695E3,-2.7564123E-1,2.2116543E1,2.7108295E1,8.119161E2,3.6945574E3,2.2424048E3,7.2739937E3,4.2802863E0,6.1630425E0,1.7353679E3,2.5286235E3,4.108052E3,8.700364E3,6.844232E3,4.916E-1,2.8446204E3,-3.5854182E-1,3.1349055E3,-3.8750875E-1,1.2558975E3,1.3583661E3,7.7688654E2,8.8441515E0,-4.54643E1,1.0638087E3,-2.992E-1,3.0733223E3,1.5422766E3,5.5804453E3,1.3214485E3,2.4980874E3,1.1577429E3,2.4667676E3,1.8052489E3,1.7056172E3,-2.1225019E-1,1.759994E1,-4.824E-1,-3.66E-1,-5.1499325E-1,7.325305E1,9.170062E2,9.03E-1,1.2337859E3,4.0462637E3,3.5311763E3,4.538E-1,1.1000294E3,-3.4300093E-2,3.775996E3,6.492E-1,1.506354E-3,1.7234353E-2,1.6285654E-2,3.343704E-2,-2.7435023E-2,-1.1452734E-2,-2.124649E-3,-1.7744606E-2,3.826888E-2,2.6766283E-2,6.290578E-2,4.1846752E-2,1.74685E-2,4.1971873E-3,2.3541441E-2,4.181164E-2,3.615161E-2,4.920278E-2,1.4129608E-2,3.3535738E-2,5.2782513E-2,6.467616E-2,3.785525E-2,5.7176765E-2,5.4510493E-2,6.7069985E-2,7.2064884E-2,4.7866505E-2,3.4113836E-2,5.435769E-2,4.9224008E-2,6.58176E-2,-4.5174252E-2,-2.6565913E-2,-1.8800145E-2,-3.260502E-2,5.6166165E-3,-1.1373145E-2,2.6528895E-2,8.589094E-3,-6.365725E-2,-4.9986523E-2,-2.213836E-2,-5.336922E-2,-2.6529148E-2,-8.167436E-3,-4.454052E-2,-6.975604E-2,-8.517956E-3,1.7349157E-2,2.0699529E-2,3.7185855E-2,-3.8728435E-2,-5.20857E-3,1.0977736E-2,-3.0902792E-2,1.5858117E-2,3.395578E-2,5.3098973E-2,1.3706975E-2,-1.5478416E-2,2.0947529E-2,2.7705058E-2,-1.9874426E-2],"split_indices":[0,4,4,2,4,0,4,0,0,9,0,2,29,0,0,4,2,9,2,0,0,4,5,2,2,2,35,5,29,5,29,9,9,4,0,12,34,36,9,34,2,4,9,9,4,4,4,29,0,36,36,29,0,4,35,9,5,5,35,9,15,5,35,0,0,0,0,0,0,0,0,0,0,0,0,0,0,0,0,0,0,0,0,0,0,0,0,0,0,0,0,0,0,0,0,0,0,0,0,0,0,0,0,0,0,0,0,0,0,0,0,0,0,0,0,0,0,0,0,0,0,0,0,0,0,0,0],"split_type":[0,0,0,0,0,0,0,0,0,0,0,0,0,0,0,0,0,0,0,0,0,0,0,0,0,0,0,0,0,0,0,0,0,0,0,0,0,0,0,0,0,0,0,0,0,0,0,0,0,0,0,0,0,0,0,0,0,0,0,0,0,0,0,0,0,0,0,0,0,0,0,0,0,0,0,0,0,0,0,0,0,0,0,0,0,0,0,0,0,0,0,0,0,0,0,0,0,0,0,0,0,0,0,0,0,0,0,0,0,0,0,0,0,0,0,0,0,0,0,0,0,0,0,0,0,0,0],"sum_hessian":[2.3530466E5,1.3492911E5,1.0037555E5,9.70047E4,3.792441E4,8.461138E4,1.5764167E4,5.061228E4,4.639242E4,2.7114014E4,1.0810397E4,3.2627152E4,5.1984227E4,9.875033E3,5.889134E3,3.1723295E4,1.8888986E4,2.661066E4,1.9781764E4,2.0586352E4,6.5276626E3,7.0236045E3,3.7867927E3,2.0240336E4,1.2386817E4,3.8513273E4,1.3470953E4,3.3323945E3,6.5426387E3,2.1261277E3,3.763006E3,1.9282332E4,1.2440963E4,9.964668E3,8.924318E3,2.1600434E4,5.010226E3,1.16317705E4,8.1499927E3,1.2324468E4,8.261883E3,4.809516E3,1.7181469E3,2.7497095E3,4.273895E3,1.9504532E3,1.8363396E3,1.0964808E4,9.275528E3,8.1635903E3,4.223227E3,2.7556107E4,1.0957168E4,1.2063618E4,1.4073351E3,1.8644344E3,1.46796E3,4.160061E3,2.382578E3,1.387388E3,7.387397E2,1.6095964E3,2.1534097E3,1.4165387E4,5.1169443E3,1.007342E4,2.3675437E3,5.936296E3,4.0283713E3,6.480131E3,2.4441873E3,6.7783784E3,1.4822056E4,1.0567565E3,3.9534695E3,3.3501653E3,8.281605E3,6.742007E3,1.4079862E3,6.867946E3,5.4565225E3,5.061557E3,3.2003254E3,2.287187E3,2.5223289E3,1.1719598E3,5.46187E2,1.5582853E3,1.1914242E3,4.0630781E3,2.1081662E2,1.0603224E3,8.901308E2,6.0947546E2,1.2268641E3,9.270811E3,1.6939968E3,5.281986E3,3.993542E3,1.436664E3,6.7269263E3,1.0573666E3,3.1658604E3,1.9665488E4,7.890618E3,6.677307E3,4.2798613E3,7.914119E3,4.149499E3,1.1018811E3,3.0545395E2,1.4317926E3,4.3264185E2,8.3170844E2,6.362516E2,2.7796194E3,1.3804415E3,2.1523838E3,2.3019421E2,8.8730237E2,5.0008554E2,6.9940826E2,3.9331413E1,1.143641E3,4.6595547E2,2.103084E3,5.03256E1],"tree_param":{"num_deleted":"0","num_feature":"49","num_nodes":"127","size_leaf_vector":"1"}},{"base_weights":[2.804538E-3,4.3197712E-1,-5.569866E-1,2.3679145E-1,8.135146E-1,-6.751463E-1,5.7186123E-2,1.5179613E-2,4.7498488E-1,6.5087694E-1,1.0607916E0,-3.6495087E-1,-8.281191E-1,-8.30403E-2,4.4745317E-1,2.0000835E-1,-2.5633642E-1,5.919347E-1,2.601059E-1,5.5452186E-1,9.682695E-1,9.383108E-1,1.2452464E0,-6.012543E-1,5.336399E-2,-9.522725E-1,-4.2727038E-1,1.8753925E-1,-2.8312805E-1,6.553838E-1,3.3391657E-1,1.5101466E-1,5.0846326E-1,-3.2567275E-1,3.0605467E-2,4.9655417E-1,7.686785E-1,1.14372395E-1,4.8658535E-1,7.099799E-1,3.181698E-1,1.0873663E0,8.4068704E-1,8.5057265E-1,1.2002232E0,1.3002996E0,1.0008918E0,-7.7394575E-1,-4.12859E-1,-1.6474092E-1,2.2969615E-1,-1.0976212E0,-5.9292346E-1,-5.213781E-1,-1.0625252E-1,-8.6039476E-2,4.8993403E-1,-5.8106834E-1,2.1896586E-1,4.2975196E-1,9.200239E-1,-6.720747E-3,5.222385E-1,1.8935528E-3,1.4929595E-2,4.0592887E-2,2.1621246E-2,-2.2057345E-2,-7.602991E-3,5.4083387E-3,-2.072445E-2,3.533983E-2,2.1896787E-2,4.886554E-2,3.4529235E-2,2.6586706E-2,3.5383112E-3,2.0487612E-2,3.724898E-2,3.1525213E-2,4.3227836E-2,1.03332745E-2,3.0452002E-2,5.156211E-2,6.370751E-2,3.77828E-2,5.5079605E-2,4.9125742E-2,3.139484E-2,5.3137608E-2,6.593188E-2,6.56847E-2,2.4733907E-2,5.636781E-2,4.1011028E-2,-4.146662E-2,-2.5094433E-2,-1.35158645E-2,-2.6296644E-2,7.977652E-3,-1.2621241E-2,2.1752214E-2,3.4131624E-3,-4.7110677E-2,-6.0521472E-2,-1.5172394E-2,-4.7080338E-2,-2.3201725E-2,-5.2503016E-2,-3.4508716E-2,-2.8855011E-3,-8.788444E-3,2.3127796E-2,1.7923847E-2,4.0780075E-2,-3.4098733E-2,8.303362E-3,1.3177748E-2,-3.378541E-2,2.5691384E-2,-1.8253601E-4,4.1118287E-2,5.7464328E-2,-8.036467E-3,1.8502532E-2,2.205333E-2,3.5089422E-2],"categories":[],"categories_nodes":[],"categories_segments":[],"categories_sizes":[],"default_left":[0,0,0,0,0,0,0,0,0,0,0,0,0,0,0,0,0,0,0,0,0,0,0,0,0,0,0,0,0,0,0,0,0,0,0,0,0,0,0,0,0,0,0,0,0,0,0,0,0,0,0,0,0,0,0,0,0,0,0,0,0,0,0,0,0,0,0,0,0,0,0,0,0,0,0,0,0,0,0,0,0,0,0,0,0,0,0,0,0,0,0,0,0,0,0,0,0,0,0,0,0,0,0,0,0,0,0,0,0,0,0,0,0,0,0,0,0,0,0,0,0,0,0,0,0,0,0],"id":3,"left_children":[1,3,5,7,9,11,13,15,17,19,21,23,25,27,29,31,33,35,37,39,41,43,45,47,49,51,53,55,57,59,61,63,65,67,69,71,73,75,77,79,81,83,85,87,89,91,93,95,97,99,101,103,105,107,109,111,113,115,117,119,121,123,125,-1,-1,-1,-1,-1,-1,-1,-1,-1,-1,-1,-1,-1,-1,-1,-1,-1,-1,-1,-1,-1,-1,-1,-1,-1,-1,-1,-1,-1,-1,-1,-1,-1,-1,-1,-1,-1,-1,-1,-1,-1,-1,-1,-1,-1,-1,-1,-1,-1,-1,-1,-1,-1,-1,-1,-1,-1,-1,-1,-1,-1,-1,-1,-1],"loss_changes":[5.6510816E4,9.914594E3,7.408047E3,4.6494497E3,1.8106094E3,4.0612812E3,9.0154706E2,2.2900647E3,1.0662705E3,8.3010547E2,4.0157812E2,2.7954395E3,2.8520938E3,6.5607196E2,1.0208923E2,4.0992896E2,3.6785803E2,4.6238672E2,4.9358936E2,7.6564795E2,9.428174E1,2.4493555E2,9.344141E1,5.8698975E2,3.9263812E2,2.2847422E3,4.0929907E2,4.263264E2,1.0425188E3,9.0609314E1,1.8117819E2,3.9110004E2,8.484149E1,2.980746E2,1.2404237E2,2.1920703E2,1.5541113E2,1.6543463E2,1.1541431E2,1.5325635E2,2.6797986E2,3.1788818E1,6.6166504E1,2.3525879E2,4.1247314E1,6.116797E1,2.8186646E1,1.4094531E2,1.388092E2,1.2982404E2,1.8688077E2,5.44125E2,1.2717925E3,3.1662378E2,8.679256E1,1.3304245E2,1.0389514E2,3.3007556E2,1.0347967E2,3.0561844E1,1.3847168E1,5.8219555E1,2.560254E1,0E0,0E0,0E0,0E0,0E0,0E0,0E0,0E0,0E0,0E0,0E0,0E0,0E0,0E0,0E0,0E0,0E0,0E0,0E0,0E0,0E0,0E0,0E0,0E0,0E0,0E0,0E0,0E0,0E0,0E0,0E0,0E0,0E0,0E0,0E0,0E0,0E0,0E0,0E0,0E0,0E0,0E0,0E0,0E0,0E0,0E0,0E0,0E0,0E0,0E0,0E0,0E0,0E0,0E0,0E0,0E0,0E0,0E0,0E0,0E0,0E0,0E0,0E0,0E0],"parents":[2147483647,0,0,1,1,2,2,3,3,4,4,5,5,6,6,7,7,8,8,9,9,10,10,11,11,12,12,13,13,14,14,15,15,16,16,17,17,18,18,19,19,20,20,21,21,22,22,23,23,24,24,25,25,26,26,27,27,28,28,29,29,30,30,31,31,32,32,33,33,34,34,35,35,36,36,37,37,38,38,39,39,40,40,41,41,42,42,43,43,44,44,45,45,46,46,47,47,48,48,49,49,50,50,51,51,52,52,53,53,54,54,55,55,56,56,57,57,58,58,59,59,60,60,61,61,62,62],"right_children":[2,4,6,8,10,12,14,16,18,20,22,24,26,28,30,32,34,36,38,40,42,44,46,48,50,52,54,56,58,60,62,64,66,68,70,72,74,76,78,80,82,84,86,88,90,92,94,96,98,100,102,104,106,108,110,112,114,116,118,120,122,124,126,-1,-1,-1,-1,-1,-1,-1,-1,-1,-1,-1,-1,-1,-1,-1,-1,-1,-1,-1,-1,-1,-1,-1,-1,-1,-1,-1,-1,-1,-1,-1,-1,-1,-1,-1,-1,-1,-1,-1,-1,-1,-1,-1,-1,-1,-1,-1,-1,-1,-1,-1,-1,-1,-1,-1,-1,-1,-1,-1,-1,-1,-1,-1,-1],"split_conditions":[1.0967577E1,1.0842173E3,1.3041173E3,4.880883E3,1.431276E3,2.2116543E1,1.7353679E3,4.352975E0,5.147906E0,1.6202487E3,1.7056172E3,5.9339014E3,-3.1927896E-1,2.7108295E1,2.8301693E1,1.5079592E3,1.3667694E3,7.4876255E3,7.325028E3,4.2802863E0,3.7919304E0,1.5509001E3,6.582879E0,4.108052E3,7.5452104E3,6.800998E3,1.0290315E3,6.029483E3,-3.839311E-1,6.7569927E3,-5.065734E-1,1.5986348E3,-4.458E-1,1.651261E3,3.598E-1,-5.21291E1,-4.83617E1,-5.945E-1,2.7621143E3,5.6084473E3,6.2278223E3,2.702138E3,2.702138E3,4.352975E0,2.0091628E3,2.2703777E-1,3.2635102E0,1.0387815E3,1.4667198E1,-5.35299E1,-3.50306E1,4.371085E1,5.6659332E1,5.121E-1,-6.77E-2,1.4975092E3,2.0091628E3,2.3768237E3,6.058E-1,3.3E-1,1.9667593E3,1.5961848E3,9.918901E-2,1.8935528E-3,1.4929595E-2,4.0592887E-2,2.1621246E-2,-2.2057345E-2,-7.602991E-3,5.4083387E-3,-2.072445E-2,3.533983E-2,2.1896787E-2,4.886554E-2,3.4529235E-2,2.6586706E-2,3.5383112E-3,2.0487612E-2,3.724898E-2,3.1525213E-2,4.3227836E-2,1.03332745E-2,3.0452002E-2,5.156211E-2,6.370751E-2,3.77828E-2,5.5079605E-2,4.9125742E-2,3.139484E-2,5.3137608E-2,6.593188E-2,6.56847E-2,2.4733907E-2,5.636781E-2,4.1011028E-2,-4.146662E-2,-2.5094433E-2,-1.35158645E-2,-2.6296644E-2,7.977652E-3,-1.2621241E-2,2.1752214E-2,3.4131624E-3,-4.7110677E-2,-6.0521472E-2,-1.5172394E-2,-4.7080338E-2,-2.3201725E-2,-5.2503016E-2,-3.4508716E-2,-2.8855011E-3,-8.788444E-3,2.3127796E-2,1.7923847E-2,4.0780075E-2,-3.4098733E-2,8.303362E-3,1.3177748E-2,-3.378541E-2,2.5691384E-2,-1.8253601E-4,4.1118287E-2,5.7464328E-2,-8.036467E-3,1.8502532E-2,2.205333E-2,3.5089422E-2],"split_indices":[0,4,4,2,4,0,4,0,0,9,4,2,16,0,0,9,9,2,2,0,0,9,0,2,2,2,4,2,16,2,16,23,25,23,36,6,6,25,9,2,2,9,9,0,9,15,7,4,0,6,6,0,0,35,19,9,9,9,35,25,9,9,15,0,0,0,0,0,0,0,0,0,0,0,0,0,0,0,0,0,0,0,0,0,0,0,0,0,0,0,0,0,0,0,0,0,0,0,0,0,0,0,0,0,0,0,0,0,0,0,0,0,0,0,0,0,0,0,0,0,0,0,0,0,0,0,0],"split_type":[0,0,0,0,0,0,0,0,0,0,0,0,0,0,0,0,0,0,0,0,0,0,0,0,0,0,0,0,0,0,0,0,0,0,0,0,0,0,0,0,0,0,0,0,0,0,0,0,0,0,0,0,0,0,0,0,0,0,0,0,0,0,0,0,0,0,0,0,0,0,0,0,0,0,0,0,0,0,0,0,0,0,0,0,0,0,0,0,0,0,0,0,0,0,0,0,0,0,0,0,0,0,0,0,0,0,0,0,0,0,0,0,0,0,0,0,0,0,0,0,0,0,0,0,0,0,0],"sum_hessian":[2.352179E5,1.3314292E5,1.0207498E5,8.808409E4,4.5058836E4,8.560608E4,1.64689E4,4.5631938E4,4.2452152E4,2.7184715E4,1.787412E4,2.827573E4,5.7330344E4,1.2115279E4,4.353621E3,2.7151346E4,1.8480594E4,2.7487666E4,1.4964485E4,2.0857154E4,6.327562E3,1.0746843E4,7.1272764E3,1.806927E4,1.020646E4,4.377077E4,1.3559577E4,5.149352E3,6.9659272E3,1.5343821E3,2.8192393E3,2.3432531E4,3.7188145E3,1.4885327E4,3.595267E3,1.7857459E4,9.630208E3,9.10766E3,5.8568247E3,1.25792E4,8.277953E3,3.266697E3,3.060865E3,8.0547397E3,2.6921033E3,5.81156E3,1.3157161E3,9.42455E3,8.64472E3,4.5615356E3,5.6449243E3,3.11627E4,1.260807E4,1.0483976E4,3.0756013E3,2.7029949E3,2.446357E3,4.3722764E3,2.593651E3,8.3066846E2,7.037136E2,1.00311365E3,1.8161256E3,1.3266272E4,1.0166259E4,7.419938E2,2.9768208E3,8.936813E3,5.948513E3,3.0633362E3,5.319307E2,3.8891045E3,1.39683545E4,2.6180383E3,7.01217E3,8.5941364E2,8.248247E3,4.5179424E3,1.3388823E3,8.313255E3,4.265945E3,5.986482E3,2.2914717E3,2.5189966E3,7.4770056E2,2.3128884E3,7.4797656E2,5.0542725E3,3.0004673E3,1.2523766E3,1.4397267E3,5.715286E3,9.627397E1,7.69254E2,5.46462E2,7.827171E3,1.597379E3,3.827525E3,4.817195E3,9.694729E2,3.592063E3,2.4824155E3,3.162509E3,1.31124375E4,1.805026E4,6.890722E3,5.7173477E3,9.460648E3,1.0233275E3,2.3425156E2,2.8413496E3,2.3244019E3,3.78593E2,1.7454388E3,7.00918E2,3.852697E3,5.195793E2,2.4717283E3,1.21922646E2,6.965189E2,1.3414952E2,4.9824557E2,2.0546803E2,7.13404E2,2.8970966E2,1.2549995E3,5.6112616E2],"tree_param":{"num_deleted":"0","num_feature":"49","num_nodes":"127","size_leaf_vector":"1"}},{"base_weights":[-1.4644187E-3,-4.7812524E-1,6.0376567E-1,-1.2645423E-1,-9.6692E-1,9.690733E-1,-7.619965E-2,-4.9468225E-1,9.342296E-2,-7.318353E-1,-1.132414E0,6.533032E-1,1.2772378E0,-4.0505728E-1,1.3781814E-1,-7.144706E-1,-3.645797E-1,2.5398564E-1,-1.0667135E-1,-9.0956795E-1,-4.2687622E-1,-1.2238193E0,-9.168999E-1,8.363858E-1,3.579082E-1,1.3006684E0,-7.5892545E-2,-1.1396532E-1,-6.605138E-1,-1.01128355E-1,4.3600854E-1,-5.7030946E-1,-9.312472E-1,-2.4285834E-1,-5.860209E-1,4.00982E-1,7.0437185E-2,-2.1241413E-1,2.633193E-1,-1.0605395E0,-6.853854E-1,-6.159353E-1,-1.5339229E-1,-1.2508804E0,-6.542634E-1,-9.8191994E-1,-5.3256744E-1,9.643822E-1,5.190608E-1,5.326757E-1,1.0127412E-1,1.1205077E0,1.4511693E0,3.7821528E-1,-1.785599E-1,-2.781235E-1,3.1332737E-1,-4.863859E-1,-8.9962184E-1,-4.2290035E-1,1.4034222E-1,7.786134E-1,1.9560206E-1,-2.2998463E-2,-4.014366E-2,-4.354238E-2,-5.790946E-2,-6.883576E-3,-2.4572957E-2,-3.4254026E-2,-1.614592E-2,1.2777993E-2,3.3955783E-2,-7.617343E-3,1.0803162E-2,-1.8303111E-2,-2.8080218E-3,5.668289E-3,2.3478793E-2,-5.7799835E-2,-4.6271473E-2,-2.8275624E-2,-4.8283014E-2,-4.5099955E-2,-2.4614364E-2,-1.514951E-2,1.0930779E-2,-6.625878E-2,-5.0355118E-2,-9.6080865E-4,-3.6685277E-2,-5.144013E-2,-2.2971807E-2,-1.4883811E-2,-4.363914E-2,3.9162967E-2,5.5406816E-2,6.5135346E-3,3.5154227E-2,1.925703E-2,3.7510645E-2,-7.69485E-3,1.455902E-2,6.271556E-2,3.6232743E-2,7.3716424E-2,1.867101E-2,-2.0329436E-2,4.178422E-2,-4.291933E-3,-3.285507E-2,-7.707695E-3,-3.108948E-2,2.5115455E-2,2.6293818E-4,-2.7859954E-2,1.2638645E-2,-5.1039126E-2,-2.24706E-2,-1.0164953E-2,-2.988471E-2,1.6337832E-2,-2.8432894E-3,2.7275372E-2,5.1863343E-2,-1.0679244E-2,1.5829673E-2],"categories":[],"categories_nodes":[],"categories_segments":[],"categories_sizes":[],"default_left":[0,0,0,0,0,0,0,0,0,0,0,0,0,0,0,0,0,0,0,0,0,0,0,0,0,0,0,0,0,0,0,0,0,0,0,0,0,0,0,0,0,0,0,0,0,0,0,0,0,0,0,0,0,0,0,0,0,0,0,0,0,0,0,0,0,0,0,0,0,0,0,0,0,0,0,0,0,0,0,0,0,0,0,0,0,0,0,0,0,0,0,0,0,0,0,0,0,0,0,0,0,0,0,0,0,0,0,0,0,0,0,0,0,0,0,0,0,0,0,0,0,0,0,0,0,0,0],"id":4,"left_children":[1,3,5,7,9,11,13,15,17,19,21,23,25,27,29,31,33,35,37,39,41,43,45,47,49,51,53,55,57,59,61,63,65,67,69,71,73,75,77,79,81,83,85,87,89,91,93,95,97,99,101,103,105,107,109,111,113,115,117,119,121,123,125,-1,-1,-1,-1,-1,-1,-1,-1,-1,-1,-1,-1,-1,-1,-1,-1,-1,-1,-1,-1,-1,-1,-1,-1,-1,-1,-1,-1,-1,-1,-1,-1,-1,-1,-1,-1,-1,-1,-1,-1,-1,-1,-1,-1,-1,-1,-1,-1,-1,-1,-1,-1,-1,-1,-1,-1,-1,-1,-1,-1,-1,-1,-1,-1],"loss_changes":[6.773708E4,2.2578008E4,2.5696566E4,6.185377E3,2.136457E3,6.5466016E3,2.5447522E3,8.159385E2,1.5368142E3,1.2298564E3,6.331211E2,1.7967852E3,1.0804375E3,1.0594939E3,1.5606764E3,3.3053955E2,4.8314062E2,7.1577856E2,8.3311945E2,4.8394434E2,4.3203125E2,3.4719922E2,2.3887793E2,8.3218555E2,5.7021106E2,9.0477734E2,2.7020039E1,4.6754144E2,3.149082E2,9.448628E2,8.018972E2,1.6274536E2,5.6067627E1,3.0251093E2,1.6511475E2,5.9534375E2,3.830493E2,3.9739587E2,1.460232E2,1.0841406E2,1.9279297E2,1.7375208E2,1.905215E2,3.889375E2,5.156723E1,2.000747E2,1.10546295E2,3.78833E2,4.2169458E2,2.419856E2,2.4997221E2,8.0545703E2,4.5365625E2,3.876099E1,2.0640759E1,2.0470331E2,1.07412506E2,2.303634E2,1.7314746E2,1.9959698E2,2.5548964E2,2.4082202E2,2.8370477E2,0E0,0E0,0E0,0E0,0E0,0E0,0E0,0E0,0E0,0E0,0E0,0E0,0E0,0E0,0E0,0E0,0E0,0E0,0E0,0E0,0E0,0E0,0E0,0E0,0E0,0E0,0E0,0E0,0E0,0E0,0E0,0E0,0E0,0E0,0E0,0E0,0E0,0E0,0E0,0E0,0E0,0E0,0E0,0E0,0E0,0E0,0E0,0E0,0E0,0E0,0E0,0E0,0E0,0E0,0E0,0E0,0E0,0E0,0E0,0E0,0E0,0E0,0E0,0E0],"parents":[2147483647,0,0,1,1,2,2,3,3,4,4,5,5,6,6,7,7,8,8,9,9,10,10,11,11,12,12,13,13,14,14,15,15,16,16,17,17,18,18,19,19,20,20,21,21,22,22,23,23,24,24,25,25,26,26,27,27,28,28,29,29,30,30,31,31,32,32,33,33,34,34,35,35,36,36,37,37,38,38,39,39,40,40,41,41,42,42,43,43,44,44,45,45,46,46,47,47,48,48,49,49,50,50,51,51,52,52,53,53,54,54,55,55,56,56,57,57,58,58,59,59,60,60,61,61,62,62],"right_children":[2,4,6,8,10,12,14,16,18,20,22,24,26,28,30,32,34,36,38,40,42,44,46,48,50,52,54,56,58,60,62,64,66,68,70,72,74,76,78,80,82,84,86,88,90,92,94,96,98,100,102,104,106,108,110,112,114,116,118,120,122,124,126,-1,-1,-1,-1,-1,-1,-1,-1,-1,-1,-1,-1,-1,-1,-1,-1,-1,-1,-1,-1,-1,-1,-1,-1,-1,-1,-1,-1,-1,-1,-1,-1,-1,-1,-1,-1,-1,-1,-1,-1,-1,-1,-1,-1,-1,-1,-1,-1,-1,-1,-1,-1,-1,-1,-1,-1,-1,-1,-1,-1,-1,-1,-1,-1],"split_conditions":[2.5057136E3,1.2327402E1,1.54767E1,2.067632E3,2.7688301E1,2.8047056E3,2.8132847E3,3.8905012E3,4.352975E0,5.695042E3,2.2691567E3,1.156653E3,3.9176072E3,3.5261208E1,2.1144365E3,4.9798474E0,2.730901E0,8.6325104E2,1.6579089E3,2.1855908E3,2.241637E3,-1.4471315E-1,8.89604E3,6.582879E0,5.147906E0,2.9996252E3,4.0646516E3,1.6449785E3,1.1220615E3,9.7801105E2,3.962968E1,1.9469043E0,5.1548038E0,6.0656414E0,7.0262925E3,2.3374756E3,2.30114E3,2.296655E3,2.3374756E3,4.1677153E3,1.01461346E3,1.8836257E3,2.103821E3,6.9791294E3,-5.723E-1,-7.915095E-2,7.545603E1,2.6159656E3,4.3105264E3,2.69816E3,2.6461816E3,1.4680759E3,2.8151901E-2,1.5087166E3,3.197E-1,1.295842E3,1.1389905E3,2.702138E3,-4.7753954E-1,1.1731325E0,1.8369752E0,7.325028E3,2.9996252E3,-2.2998463E-2,-4.014366E-2,-4.354238E-2,-5.790946E-2,-6.883576E-3,-2.4572957E-2,-3.4254026E-2,-1.614592E-2,1.2777993E-2,3.3955783E-2,-7.617343E-3,1.0803162E-2,-1.8303111E-2,-2.8080218E-3,5.668289E-3,2.3478793E-2,-5.7799835E-2,-4.6271473E-2,-2.8275624E-2,-4.8283014E-2,-4.5099955E-2,-2.4614364E-2,-1.514951E-2,1.0930779E-2,-6.625878E-2,-5.0355118E-2,-9.6080865E-4,-3.6685277E-2,-5.144013E-2,-2.2971807E-2,-1.4883811E-2,-4.363914E-2,3.9162967E-2,5.5406816E-2,6.5135346E-3,3.5154227E-2,1.925703E-2,3.7510645E-2,-7.69485E-3,1.455902E-2,6.271556E-2,3.6232743E-2,7.3716424E-2,1.867101E-2,-2.0329436E-2,4.178422E-2,-4.291933E-3,-3.285507E-2,-7.707695E-3,-3.108948E-2,2.5115455E-2,2.6293818E-4,-2.7859954E-2,1.2638645E-2,-5.1039126E-2,-2.24706E-2,-1.0164953E-2,-2.988471E-2,1.6337832E-2,-2.8432894E-3,2.7275372E-2,5.1863343E-2,-1.0679244E-2,1.5829673E-2],"split_indices":[1,0,0,1,0,1,1,2,0,2,1,4,1,0,23,0,3,4,9,1,1,16,2,0,0,1,1,9,4,4,0,3,3,0,2,1,1,1,1,2,4,1,9,2,36,29,0,1,2,1,1,4,29,4,25,4,4,9,16,3,3,2,1,0,0,0,0,0,0,0,0,0,0,0,0,0,0,0,0,0,0,0,0,0,0,0,0,0,0,0,0,0,0,0,0,0,0,0,0,0,0,0,0,0,0,0,0,0,0,0,0,0,0,0,0,0,0,0,0,0,0,0,0,0,0,0,0],"split_type":[0,0,0,0,0,0,0,0,0,0,0,0,0,0,0,0,0,0,0,0,0,0,0,0,0,0,0,0,0,0,0,0,0,0,0,0,0,0,0,0,0,0,0,0,0,0,0,0,0,0,0,0,0,0,0,0,0,0,0,0,0,0,0,0,0,0,0,0,0,0,0,0,0,0,0,0,0,0,0,0,0,0,0,0,0,0,0,0,0,0,0,0,0,0,0,0,0,0,0,0,0,0,0,0,0,0,0,0,0,0,0,0,0,0,0,0,0,0,0,0,0,0,0,0,0,0,0],"sum_hessian":[2.3479733E5,1.3135061E5,1.0344672E5,7.6391695E4,5.4958918E4,6.7293805E4,3.6152914E4,2.8561244E4,4.783045E4,2.2709064E4,3.2249854E4,3.32391E4,3.4054703E4,1.4253134E4,2.1899781E4,1.0617041E4,1.7944203E4,2.653781E4,2.1292639E4,1.4345039E4,8.364024E3,2.2640438E4,9.609416E3,2.051846E4,1.2720639E4,3.3475453E4,5.792476E2,6.663499E3,7.589635E3,1.2157053E4,9.742729E3,6.3800835E3,4.236958E3,1.1582119E4,6.3620835E3,1.4734028E4,1.1803782E4,1.6561238E4,4.7314004E3,8.568668E3,5.776371E3,4.943505E3,3.42052E3,2.1611541E4,1.0288966E3,8.216519E3,1.3928973E3,1.4618372E4,5.9000894E3,7.5655107E3,5.155128E3,1.5241738E4,1.8233717E4,1.0541826E2,4.7382935E2,4.815131E3,1.8483678E3,4.3945073E3,3.1951274E3,5.212477E3,6.944575E3,4.0156628E3,5.727066E3,4.3305674E3,2.0495156E3,3.3519043E3,8.850535E2,8.1410713E3,3.4410479E3,4.619363E3,1.7427206E3,9.67774E3,5.0562886E3,4.664453E3,7.139329E3,8.347951E3,8.213288E3,2.741927E3,1.9894736E3,5.014555E3,3.5541133E3,4.0492974E3,1.7270736E3,1.4887937E3,3.4547112E3,2.4405967E3,9.799232E2,1.6558562E4,5.0529775E3,1.1523813E2,9.136585E2,7.538188E3,6.783307E2,8.259737E2,5.669237E2,6.4728447E3,8.1455273E3,1.8969005E3,4.003189E3,4.511114E3,3.0543967E3,2.1985552E3,2.9565728E3,1.1388758E4,3.85298E3,1.784933E4,3.8438675E2,3.8458916E1,6.695934E1,3.9878564E2,7.504369E1,3.5407798E3,1.2743512E3,1.1442098E3,7.04158E2,4.011152E3,3.833552E2,2.5157188E3,6.7940875E2,2.312369E3,2.9001084E3,3.5709495E3,3.373626E3,2.1147927E3,1.9008701E3,1.3058494E3,4.4212163E3],"tree_param":{"num_deleted":"0","num_feature":"49","num_nodes":"127","size_leaf_vector":"1"}},{"base_weights":[2.4939757E-3,3.7775216E-1,-5.265875E-1,2.2839192E-1,7.9229105E-1,-6.3608706E-1,5.4195452E-2,2.4952365E-2,4.4107586E-1,6.8636715E-1,1.073167E0,-3.8914663E-1,-7.919821E-1,-9.4244644E-2,4.0379447E-1,1.6783272E-1,-2.5599194E-1,5.3284687E-1,1.701149E-1,5.851448E-1,9.5845383E-1,1.1604966E0,8.855777E-1,-6.397093E-1,-1.1690234E-1,-9.3244433E-1,-4.0993527E-1,1.775804E-1,-2.7145487E-1,3.7177485E-1,8.7666005E-1,8.498018E-2,3.6536497E-1,-3.4055206E-1,-2.9828275E-2,4.4156104E-1,6.5794355E-1,2.6055458E-3,3.2025304E-1,7.5473905E-1,3.6906493E-1,1.0044564E0,6.916962E-1,1.187143E0,8.0600876E-1,7.10858E-1,1.0686966E0,-7.7171457E-1,-4.4440576E-1,-2.7598247E-1,1.2972307E-1,-1.0348414E0,-6.1256427E-1,-5.042745E-1,-1.354116E-1,-7.0876546E-2,4.980287E-1,-5.445938E-1,1.8819797E-1,2.1070445E-1,5.026739E-1,1.2153183E0,5.952263E-1,-1.2283733E-4,1.444432E-2,1.4092945E-2,2.692617E-2,-1.0207573E-2,-2.3205075E-2,-6.442995E-3,1.4975737E-2,2.7333278E-2,1.6172078E-2,4.552596E-2,2.9682731E-2,1.0003197E-2,-4.529271E-3,1.0958965E-2,2.7042741E-2,4.5105934E-2,3.4759875E-2,2.131792E-2,5.1048244E-3,4.5711257E-2,5.6812167E-2,4.917496E-2,2.9957563E-2,5.465876E-2,6.400455E-2,4.5205917E-2,-5.527226E-3,2.0942535E-2,4.419127E-2,5.6907684E-2,3.858007E-2,-2.3472575E-2,-4.1054282E-2,-3.2184094E-2,-1.6835978E-2,6.188895E-3,-1.6112588E-2,8.5746555E-4,1.7342253E-2,-5.624345E-2,-4.285616E-2,-1.5829626E-2,-4.2787444E-2,-4.0128022E-2,-2.1777272E-2,-1.6289374E-2,-1.0090497E-3,1.3853404E-2,-7.2409795E-3,4.274363E-2,1.8956872E-2,-3.5727125E-2,-9.556435E-3,5.9513445E-3,2.2692231E-2,2.5133243E-2,-7.660303E-3,2.7254347E-2,5.413327E-3,-1.31066535E-2,6.448341E-2,3.6924753E-2,-1.3298511E-2],"categories":[],"categories_nodes":[],"categories_segments":[],"categories_sizes":[],"default_left":[0,0,0,0,0,0,0,0,0,0,0,0,0,0,0,0,0,0,0,0,0,0,0,0,0,0,0,0,0,0,0,0,0,0,0,0,0,0,0,0,0,0,0,0,0,0,0,0,0,0,0,0,0,0,0,0,0,0,0,0,0,0,0,0,0,0,0,0,0,0,0,0,0,0,0,0,0,0,0,0,0,0,0,0,0,0,0,0,0,0,0,0,0,0,0,0,0,0,0,0,0,0,0,0,0,0,0,0,0,0,0,0,0,0,0,0,0,0,0,0,0,0,0,0,0,0,0],"id":5,"left_children":[1,3,5,7,9,11,13,15,17,19,21,23,25,27,29,31,33,35,37,39,41,43,45,47,49,51,53,55,57,59,61,63,65,67,69,71,73,75,77,79,81,83,85,87,89,91,93,95,97,99,101,103,105,107,109,111,113,115,117,119,121,123,125,-1,-1,-1,-1,-1,-1,-1,-1,-1,-1,-1,-1,-1,-1,-1,-1,-1,-1,-1,-1,-1,-1,-1,-1,-1,-1,-1,-1,-1,-1,-1,-1,-1,-1,-1,-1,-1,-1,-1,-1,-1,-1,-1,-1,-1,-1,-1,-1,-1,-1,-1,-1,-1,-1,-1,-1,-1,-1,-1,-1,-1,-1,-1,-1],"loss_changes":[4.6465887E4,8.476953E3,6.176285E3,4.355063E3,1.0773359E3,3.1446328E3,7.996418E2,2.0652505E3,1.2232236E3,7.240576E2,1.605918E2,2.1567622E3,2.686711E3,5.2098584E2,6.8588135E1,5.5793207E2,3.3149695E2,4.1891797E2,3.1302194E2,7.027837E2,8.606006E1,6.1987305E1,9.94458E1,4.2357568E2,5.948248E2,1.1980215E3,3.483833E2,3.3997897E2,8.2231714E2,9.028656E1,2.5967545E1,4.2859546E2,1.451383E2,2.1228394E2,1.5398462E2,2.632798E2,2.5043848E2,1.0842938E2,1.4588953E2,9.295361E1,1.2888489E2,7.029346E1,2.7104462E1,5.2375E1,4.345224E1,8.08692E1,2.9933105E1,1.455542E2,1.4188928E2,1.7060931E2,1.450772E2,4.4183008E2,6.385405E2,2.0447021E2,7.543744E1,6.181119E1,7.816281E1,2.4617932E2,4.4505196E1,2.0564209E2,3.9293945E1,1.5093079E1,2.0284569E1,0E0,0E0,0E0,0E0,0E0,0E0,0E0,0E0,0E0,0E0,0E0,0E0,0E0,0E0,0E0,0E0,0E0,0E0,0E0,0E0,0E0,0E0,0E0,0E0,0E0,0E0,0E0,0E0,0E0,0E0,0E0,0E0,0E0,0E0,0E0,0E0,0E0,0E0,0E0,0E0,0E0,0E0,0E0,0E0,0E0,0E0,0E0,0E0,0E0,0E0,0E0,0E0,0E0,0E0,0E0,0E0,0E0,0E0,0E0,0E0,0E0,0E0,0E0,0E0],"parents":[2147483647,0,0,1,1,2,2,3,3,4,4,5,5,6,6,7,7,8,8,9,9,10,10,11,11,12,12,13,13,14,14,15,15,16,16,17,17,18,18,19,19,20,20,21,21,22,22,23,23,24,24,25,25,26,26,27,27,28,28,29,29,30,30,31,31,32,32,33,33,34,34,35,35,36,36,37,37,38,38,39,39,40,40,41,41,42,42,43,43,44,44,45,45,46,46,47,47,48,48,49,49,50,50,51,51,52,52,53,53,54,54,55,55,56,56,57,57,58,58,59,59,60,60,61,61,62,62],"right_children":[2,4,6,8,10,12,14,16,18,20,22,24,26,28,30,32,34,36,38,40,42,44,46,48,50,52,54,56,58,60,62,64,66,68,70,72,74,76,78,80,82,84,86,88,90,92,94,96,98,100,102,104,106,108,110,112,114,116,118,120,122,124,126,-1,-1,-1,-1,-1,-1,-1,-1,-1,-1,-1,-1,-1,-1,-1,-1,-1,-1,-1,-1,-1,-1,-1,-1,-1,-1,-1,-1,-1,-1,-1,-1,-1,-1,-1,-1,-1,-1,-1,-1,-1,-1,-1,-1,-1,-1,-1,-1,-1,-1,-1,-1,-1,-1,-1,-1,-1,-1,-1,-1,-1,-1,-1,-1],"split_conditions":[1.191988E1,1.1814419E3,1.3126785E3,2.2760056E3,1.6119208E3,2.7108295E1,1.7056172E3,5.407158E0,6.582879E0,3.2531213E3,5.0636783E0,2.3536528E3,-3.419688E-1,2.6539051E1,5.422377E3,2.7311514E3,2.8840625E3,3.0864624E3,2.8840625E3,3.925943E0,8.418322E0,3.4637216E-1,1.8052489E3,2.572174E3,3.5542708E3,4.0129858E3,1.0007108E3,2.8446204E3,-3.9473227E-1,-5.119885E-1,3.6938625E1,8.9621484E2,8.350042E2,7.7505765E0,9.128312E2,2.8320355E0,-4.054E-1,-4.65533E1,4.83819E3,-3.155E-1,9.439851E0,4.3930947E3,-3.898E-1,1.8052489E3,2.4667676E3,2.241947E3,4.9525518E-2,-4.976E-1,1.3119202E3,-6.048E-1,5.422377E3,2.6360203E3,5.6659332E1,3.4171027E2,-1.6393118E-1,-4.772E-1,-3.632E-1,3.5311763E3,6.155564E4,3.29285E1,4.048E-1,2.6185789E3,6.735731E-3,-1.2283733E-4,1.444432E-2,1.4092945E-2,2.692617E-2,-1.0207573E-2,-2.3205075E-2,-6.442995E-3,1.4975737E-2,2.7333278E-2,1.6172078E-2,4.552596E-2,2.9682731E-2,1.0003197E-2,-4.529271E-3,1.0958965E-2,2.7042741E-2,4.5105934E-2,3.4759875E-2,2.131792E-2,5.1048244E-3,4.5711257E-2,5.6812167E-2,4.917496E-2,2.9957563E-2,5.465876E-2,6.400455E-2,4.5205917E-2,-5.527226E-3,2.0942535E-2,4.419127E-2,5.6907684E-2,3.858007E-2,-2.3472575E-2,-4.1054282E-2,-3.2184094E-2,-1.6835978E-2,6.188895E-3,-1.6112588E-2,8.5746555E-4,1.7342253E-2,-5.624345E-2,-4.285616E-2,-1.5829626E-2,-4.2787444E-2,-4.0128022E-2,-2.1777272E-2,-1.6289374E-2,-1.0090497E-3,1.3853404E-2,-7.2409795E-3,4.274363E-2,1.8956872E-2,-3.5727125E-2,-9.556435E-3,5.9513445E-3,2.2692231E-2,2.5133243E-2,-7.660303E-3,2.7254347E-2,5.413327E-3,-1.31066535E-2,6.448341E-2,3.6924753E-2,-1.3298511E-2],"split_indices":[0,4,4,23,4,0,4,0,0,5,0,23,16,0,5,5,5,5,5,0,0,17,4,5,5,5,4,5,16,16,0,4,4,0,4,0,25,20,23,36,0,5,36,4,4,5,17,25,23,25,5,23,0,13,16,25,25,5,24,0,25,23,41,0,0,0,0,0,0,0,0,0,0,0,0,0,0,0,0,0,0,0,0,0,0,0,0,0,0,0,0,0,0,0,0,0,0,0,0,0,0,0,0,0,0,0,0,0,0,0,0,0,0,0,0,0,0,0,0,0,0,0,0,0,0,0,0],"split_type":[0,0,0,0,0,0,0,0,0,0,0,0,0,0,0,0,0,0,0,0,0,0,0,0,0,0,0,0,0,0,0,0,0,0,0,0,0,0,0,0,0,0,0,0,0,0,0,0,0,0,0,0,0,0,0,0,0,0,0,0,0,0,0,0,0,0,0,0,0,0,0,0,0,0,0,0,0,0,0,0,0,0,0,0,0,0,0,0,0,0,0,0,0,0,0,0,0,0,0,0,0,0,0,0,0,0,0,0,0,0,0,0,0,0,0,0,0,0,0,0,0,0,0,0,0,0,0],"sum_hessian":[2.3403375E5,1.3692153E5,9.711222E4,1.0065709E5,3.6264445E4,8.1707945E4,1.5404271E4,5.144839E4,4.92087E4,2.633733E4,9.927112E3,3.162311E4,5.0084836E4,1.0812551E4,4.59172E3,3.4105484E4,1.7342906E4,3.6756824E4,1.2451875E4,1.919963E4,7.1377007E3,6.768348E3,3.1587646E3,1.6465623E4,1.5157486E4,3.661889E4,1.3465945E4,4.266022E3,6.5465293E3,4.303178E3,2.8854175E2,2.4030248E4,1.0075238E4,1.2621244E4,4.7216616E3,2.1255062E4,1.5501762E4,5.887514E3,6.564361E3,1.0754198E4,8.445433E3,6.0838896E3,1.0538112E3,6.2916543E3,4.7669397E2,1.6203496E3,1.5384149E3,9.821669E3,6.643955E3,9.215284E3,5.9422017E3,2.773638E4,8.88251E3,1.0019959E4,3.4459868E3,2.40249E3,1.8635321E3,4.106959E3,2.43957E3,1.9321321E3,2.3710461E3,1.2864462E2,1.5989711E2,1.6817346E4,7.212902E3,6.8009688E3,3.274269E3,6.0018276E3,6.6194165E3,3.6317434E3,1.0899182E3,1.1243009E4,1.0012055E4,3.1409172E3,1.2360844E4,1.8890674E3,3.9984468E3,4.504693E3,2.059668E3,3.0880303E3,7.6661675E3,6.951185E3,1.4942472E3,3.6182766E3,2.465613E3,2.5012227E2,8.036889E2,3.1376843E3,3.15397E3,4.3110663E2,4.558734E1,6.051072E2,1.01524243E3,1.2432462E3,2.951688E2,1.3819056E3,8.439763E3,2.327407E3,4.316548E3,9.546613E2,8.260623E3,3.9154792E3,2.0267223E3,1.8404816E4,9.331563E3,4.008391E3,4.8741187E3,1.8730247E3,8.1469346E3,1.2970032E3,2.1489836E3,4.194109E2,1.983079E3,4.6311847E2,1.4004137E3,2.7718145E3,1.3351445E3,1.9382136E3,5.013565E2,1.0725958E3,8.5953625E2,2.13934E3,2.3170616E2,5.720411E0,1.2292422E2,1.3771062E2,2.2186493E1],"tree_param":{"num_deleted":"0","num_feature":"49","num_nodes":"127","size_leaf_vector":"1"}},{"base_weights":[4.1193602E-4,-4.1890466E-1,5.9921396E-1,-1.123372E-1,-8.8165534E-1,9.5141125E-1,-1.2008082E-2,-4.207832E-1,1.3120723E-1,-6.893069E-1,-1.0396409E0,6.9841105E-1,1.246621E0,-2.9332778E-1,1.7377694E-1,-5.008772E-1,-1.3010614E-1,2.9491594E-1,-5.2865572E-2,-8.6720645E-1,-4.5683983E-1,-1.0925782E0,-6.447459E-1,8.304273E-1,4.685511E-1,1.2718513E0,-2.9820573E-2,-4.921198E-2,-5.8974653E-1,-5.1957697E-2,5.138705E-1,-3.8453364E-1,-7.153046E-1,-4.467133E-1,-1.0703329E-2,3.8407832E-1,1.9698177E-2,-1.768493E-1,2.7925086E-1,-9.990125E-1,-6.6281956E-1,-6.3951194E-1,-1.4668027E-1,-1.1596177E0,-8.1012547E-1,-4.5725608E-1,-9.340516E-1,7.149518E-1,9.870285E-1,3.3043873E-1,7.777904E-1,1.2943746E0,5.1394975E-1,-5.7832414E-1,7.8229934E-2,-3.0753067E-1,2.859365E-1,-6.4838225E-1,-1.1653248E-1,8.6198986E-2,-2.972534E-1,8.357142E-1,2.5350106E-1,-2.5537435E-2,-9.148031E-3,-4.5522362E-2,-3.048778E-2,-1.802159E-2,-3.4276508E-2,9.869459E-3,-7.3181414E-3,1.1615848E-2,2.5977636E-2,-7.915942E-3,1.4590154E-2,-1.5140201E-2,-9.903725E-4,5.2422457E-3,2.164801E-2,-5.7885118E-2,-4.6113204E-2,-4.0663946E-2,-2.443772E-2,-1.8433042E-2,-3.521831E-2,-1.3029672E-2,1.2009321E-2,-6.334839E-2,-5.1556904E-2,-3.312572E-2,-5.6456935E-2,-4.4955652E-2,-1.8566607E-2,-5.486027E-2,-3.816409E-2,2.8382141E-2,4.2775106E-2,4.1134622E-2,5.3218212E-2,8.464272E-3,2.6114801E-2,3.2279372E-2,4.705516E-2,5.7518106E-2,7.089042E-2,3.7426837E-2,-7.8490766E-4,4.6855565E-2,-3.860699E-2,9.393218E-3,-2.3841692E-2,-6.675809E-3,-2.3749461E-2,6.276098E-3,2.8414885E-2,-4.002483E-2,-1.871931E-2,1.1638957E-2,-2.6931137E-2,-1.1190411E-2,1.0296308E-2,3.6796131E-3,-2.081438E-2,3.0372282E-2,5.729006E-2,2.2405038E-2,4.2311097E-3],"categories":[],"categories_nodes":[],"categories_segments":[],"categories_sizes":[],"default_left":[0,0,0,0,0,0,0,0,0,0,0,0,0,0,0,0,0,0,0,0,0,0,0,0,0,0,0,0,0,0,0,0,0,0,0,0,0,0,0,0,0,0,0,0,0,0,0,0,0,0,0,0,0,0,0,0,0,0,0,0,0,0,0,0,0,0,0,0,0,0,0,0,0,0,0,0,0,0,0,0,0,0,0,0,0,0,0,0,0,0,0,0,0,0,0,0,0,0,0,0,0,0,0,0,0,0,0,0,0,0,0,0,0,0,0,0,0,0,0,0,0,0,0,0,0,0,0],"id":6,"left_children":[1,3,5,7,9,11,13,15,17,19,21,23,25,27,29,31,33,35,37,39,41,43,45,47,49,51,53,55,57,59,61,63,65,67,69,71,73,75,77,79,81,83,85,87,89,91,93,95,97,99,101,103,105,107,109,111,113,115,117,119,121,123,125,-1,-1,-1,-1,-1,-1,-1,-1,-1,-1,-1,-1,-1,-1,-1,-1,-1,-1,-1,-1,-1,-1,-1,-1,-1,-1,-1,-1,-1,-1,-1,-1,-1,-1,-1,-1,-1,-1,-1,-1,-1,-1,-1,-1,-1,-1,-1,-1,-1,-1,-1,-1,-1,-1,-1,-1,-1,-1,-1,-1,-1,-1,-1,-1],"loss_changes":[5.8647805E4,1.948807E4,2.070936E4,6.207702E3,1.6619414E3,4.556539E3,1.8381671E3,8.4846875E2,1.3915856E3,1.0200488E3,6.266621E2,9.96375E2,9.076914E2,1.01190845E3,1.6262609E3,7.12228E2,2.9761682E2,5.9954736E2,8.949806E2,3.752461E2,6.061526E2,4.9981836E2,1.9176086E2,3.7594336E2,5.1147534E2,4.6989453E2,3.268435E1,6.6442084E2,1.7481372E2,4.315522E2,7.0739087E2,4.7105957E2,2.0570068E2,4.366519E1,1.6157259E2,3.7901392E2,2.899261E2,3.1292056E2,1.5805582E2,1.01396484E2,1.4266016E2,1.1754736E2,1.750716E2,2.9285156E2,2.3792554E2,8.10636E1,3.7135864E1,2.4768555E2,1.10725586E2,2.5601312E2,7.851123E1,4.7384375E2,9.970079E1,2.7316233E1,2.7736105E1,1.2594635E2,1.508512E2,2.3331201E2,1.0327608E2,3.0227878E2,2.0274136E2,2.6583716E2,1.5329257E2,0E0,0E0,0E0,0E0,0E0,0E0,0E0,0E0,0E0,0E0,0E0,0E0,0E0,0E0,0E0,0E0,0E0,0E0,0E0,0E0,0E0,0E0,0E0,0E0,0E0,0E0,0E0,0E0,0E0,0E0,0E0,0E0,0E0,0E0,0E0,0E0,0E0,0E0,0E0,0E0,0E0,0E0,0E0,0E0,0E0,0E0,0E0,0E0,0E0,0E0,0E0,0E0,0E0,0E0,0E0,0E0,0E0,0E0,0E0,0E0,0E0,0E0,0E0,0E0],"parents":[2147483647,0,0,1,1,2,2,3,3,4,4,5,5,6,6,7,7,8,8,9,9,10,10,11,11,12,12,13,13,14,14,15,15,16,16,17,17,18,18,19,19,20,20,21,21,22,22,23,23,24,24,25,25,26,26,27,27,28,28,29,29,30,30,31,31,32,32,33,33,34,34,35,35,36,36,37,37,38,38,39,39,40,40,41,41,42,42,43,43,44,44,45,45,46,46,47,47,48,48,49,49,50,50,51,51,52,52,53,53,54,54,55,55,56,56,57,57,58,58,59,59,60,60,61,61,62,62],"right_children":[2,4,6,8,10,12,14,16,18,20,22,24,26,28,30,32,34,36,38,40,42,44,46,48,50,52,54,56,58,60,62,64,66,68,70,72,74,76,78,80,82,84,86,88,90,92,94,96,98,100,102,104,106,108,110,112,114,116,118,120,122,124,126,-1,-1,-1,-1,-1,-1,-1,-1,-1,-1,-1,-1,-1,-1,-1,-1,-1,-1,-1,-1,-1,-1,-1,-1,-1,-1,-1,-1,-1,-1,-1,-1,-1,-1,-1,-1,-1,-1,-1,-1,-1,-1,-1,-1,-1,-1,-1,-1,-1,-1,-1,-1,-1,-1,-1,-1,-1,-1,-1,-1,-1,-1,-1,-1],"split_conditions":[2.542617E3,1.3212044E1,1.4406452E1,2.142324E3,3.1498945E1,2.8594094E3,2.8499841E3,3.5311763E3,4.2088685E0,2.2045298E3,-2.6363748E-1,5.3191786E0,3.9176072E3,4.0604553E1,2.324129E3,5.8693194E0,1.7896555E3,2.9904885E0,3.3461296E3,2.417001E3,3.0864624E3,4.3496934E3,3.398786E0,2.683631E3,3.2898162E3,1.6439536E-1,3.4617481E0,2.9674434E3,5.080445E3,3.2798388E0,3.962968E1,1.9911917E3,1.4045778E3,7.8797975E0,3.4117541E0,2.3426462E3,2.7806448E3,2.365001E3,2.3374756E3,1.1529379E3,3.3851304E3,-4.224E-1,5.242913E3,2.1519014E3,1.0389976E2,-1.49E-2,-7.915095E-2,2.6848574E3,2.6337878E3,2.69816E3,2.7049922E3,3.0443127E3,2.5378942E0,5.801858E2,8.811304E0,3.2352679E0,4.4855967E3,-3.650366E-1,8.534221E1,4.8683765E2,4.371085E1,3.3461296E3,2.023236E0,-2.5537435E-2,-9.148031E-3,-4.5522362E-2,-3.048778E-2,-1.802159E-2,-3.4276508E-2,9.869459E-3,-7.3181414E-3,1.1615848E-2,2.5977636E-2,-7.915942E-3,1.4590154E-2,-1.5140201E-2,-9.903725E-4,5.2422457E-3,2.164801E-2,-5.7885118E-2,-4.6113204E-2,-4.0663946E-2,-2.443772E-2,-1.8433042E-2,-3.521831E-2,-1.3029672E-2,1.2009321E-2,-6.334839E-2,-5.1556904E-2,-3.312572E-2,-5.6456935E-2,-4.4955652E-2,-1.8566607E-2,-5.486027E-2,-3.816409E-2,2.8382141E-2,4.2775106E-2,4.1134622E-2,5.3218212E-2,8.464272E-3,2.6114801E-2,3.2279372E-2,4.705516E-2,5.7518106E-2,7.089042E-2,3.7426837E-2,-7.8490766E-4,4.6855565E-2,-3.860699E-2,9.393218E-3,-2.3841692E-2,-6.675809E-3,-2.3749461E-2,6.276098E-3,2.8414885E-2,-4.002483E-2,-1.871931E-2,1.1638957E-2,-2.6931137E-2,-1.1190411E-2,1.0296308E-2,3.6796131E-3,-2.081438E-2,3.0372282E-2,5.729006E-2,2.2405038E-2,4.2311097E-3],"split_indices":[1,0,0,1,0,1,1,5,0,1,29,0,1,0,23,0,1,3,5,23,5,5,3,5,5,15,45,5,5,3,0,1,23,0,0,1,5,1,1,23,5,25,5,1,0,19,29,1,1,1,1,1,3,34,3,8,5,29,0,13,0,5,3,0,0,0,0,0,0,0,0,0,0,0,0,0,0,0,0,0,0,0,0,0,0,0,0,0,0,0,0,0,0,0,0,0,0,0,0,0,0,0,0,0,0,0,0,0,0,0,0,0,0,0,0,0,0,0,0,0,0,0,0,0,0,0,0],"split_type":[0,0,0,0,0,0,0,0,0,0,0,0,0,0,0,0,0,0,0,0,0,0,0,0,0,0,0,0,0,0,0,0,0,0,0,0,0,0,0,0,0,0,0,0,0,0,0,0,0,0,0,0,0,0,0,0,0,0,0,0,0,0,0,0,0,0,0,0,0,0,0,0,0,0,0,0,0,0,0,0,0,0,0,0,0,0,0,0,0,0,0,0,0,0,0,0,0,0,0,0,0,0,0,0,0,0,0,0,0,0,0,0,0,0,0,0,0,0,0,0,0,0,0,0,0,0,0],"sum_hessian":[2.3357266E5,1.3737442E5,9.6198234E4,8.263316E4,5.4741273E4,6.1031207E4,3.5167027E4,3.645927E4,4.6173887E4,2.4689805E4,3.0051469E4,3.2867883E4,2.816332E4,1.3988083E4,2.1178945E4,2.858142E4,7.877849E3,2.44399E4,2.1733986E4,1.3983674E4,1.0706131E4,2.6496477E4,3.554993E3,2.0874291E4,1.1993594E4,2.7617818E4,5.455024E2,7.6723604E3,6.3157227E3,1.2729324E4,8.44962E3,1.8531672E4,1.0049747E4,2.155478E3,5.7223706E3,1.8457883E4,5.982017E3,1.5827377E4,5.9066094E3,8.497456E3,5.486218E3,6.7361323E3,3.9699988E3,2.1409986E4,5.0864897E3,2.1596814E3,1.3953116E3,1.2019811E4,8.85448E3,8.293318E3,3.700275E3,2.6819432E4,7.98387E2,8.981977E1,4.556826E2,4.3336978E3,3.3386624E3,5.6181533E3,6.9756934E2,8.1421E3,4.5872246E3,3.776877E3,4.672743E3,1.1393569E4,7.1381035E3,3.5233313E3,6.526416E3,1.5867926E3,5.686855E2,2.2566624E3,3.4657085E3,8.708659E3,9.749225E3,3.6153538E3,2.366663E3,8.780725E3,7.0466523E3,2.7693298E3,3.1372795E3,2.7632952E3,5.734161E3,2.9391318E3,2.5470857E3,1.304119E3,5.432013E3,3.0681875E3,9.018112E2,1.165718E4,9.752807E3,3.4806135E3,1.6058761E3,3.4911298E2,1.8105684E3,7.09296E2,6.860157E2,5.872994E3,6.146817E3,2.8392544E3,6.015226E3,4.509765E3,3.7835535E3,2.0493362E3,1.6509386E3,1.2384526E4,1.4434905E4,5.5368475E2,2.447023E2,9.457464E0,8.0362305E1,3.8182758E2,7.385503E1,2.1275933E3,2.2061047E3,2.131139E3,1.2075236E3,3.6101575E3,2.007996E3,3.8128833E2,3.16281E2,2.2670435E3,5.8750566E3,1.1137058E3,3.4735188E3,2.178073E3,1.5988038E3,2.1688992E3,2.503844E3],"tree_param":{"num_deleted":"0","num_feature":"49","num_nodes":"127","size_leaf_vector":"1"}},{"base_weights":[-1.3110307E-3,3.6038738E-1,-4.5204875E-1,2.2545347E-1,7.25901E-1,-5.512091E-1,5.7280865E-2,2.3368802E-2,4.058976E-1,6.012935E-1,9.4307697E-1,-2.8919455E-1,-6.975354E-1,-8.6571544E-2,3.7368315E-1,1.5284148E-1,-2.0805863E-1,5.2309597E-1,2.6561588E-1,4.6710834E-1,7.668866E-1,1.0352083E0,7.759043E-1,-4.839207E-1,-3.2874458E-3,-8.0898243E-1,-3.8194394E-1,1.4829312E-1,-2.707388E-1,2.962894E-1,5.9903765E-1,7.849143E-2,3.371909E-1,2.3852298E-1,-2.4223922E-1,6.9091576E-1,4.5333782E-1,1.3973013E-1,4.2913854E-1,5.7109904E-1,1.9298054E-1,6.945305E-1,9.616313E-1,9.528333E-1,1.1745697E0,6.382625E-1,9.1440326E-1,-6.069621E-1,-2.8320628E-1,-1.3315296E-1,2.6855722E-1,-9.41543E-1,-5.2807075E-1,-5.97797E-1,-2.6906484E-1,-6.807724E-2,4.3528295E-1,-5.4154253E-1,1.3010408E-1,7.3415644E-2,4.683619E-1,8.964502E-1,3.0869982E-1,4.7631684E-4,1.2395907E-2,4.7715314E-2,1.5267794E-2,6.198471E-3,2.7863363E-2,-1.7399905E-2,-4.76657E-3,3.027148E-2,4.206828E-2,1.9668996E-2,3.1258427E-2,2.0068733E-2,3.871501E-3,1.7148145E-2,3.111665E-2,3.0284692E-2,1.2042122E-2,2.2060327E-2,5.772349E-3,3.993224E-2,2.6005456E-2,6.80208E-2,4.6517354E-2,4.2465113E-2,5.4741688E-2,6.051017E-2,3.0276014E-2,2.761865E-2,4.504082E-2,4.0272366E-2,5.359868E-2,-3.6406655E-2,-2.495194E-2,-1.7714772E-2,6.32424E-4,1.0716922E-2,-9.477089E-3,3.3143952E-2,1.00796595E-2,-4.0123414E-2,-5.2784722E-2,-1.3836871E-2,-3.8758874E-2,-3.822353E-2,-2.4219647E-2,-1.0263807E-2,-3.0996952E-2,1.0852888E-2,-6.883168E-3,1.3836267E-2,3.1860698E-2,-3.46328E-2,-9.081075E-3,8.874448E-3,-2.4195516E-2,2.067319E-2,-1.05885705E-2,2.659343E-2,7.7547655E-3,-1.10936165E-2,4.681299E-2,-1.4559451E-2,1.8684564E-2],"categories":[],"categories_nodes":[],"categories_segments":[],"categories_sizes":[],"default_left":[0,0,0,0,0,0,0,0,0,0,0,0,0,0,0,0,0,0,0,0,0,0,0,0,0,0,0,0,0,0,0,0,0,0,0,0,0,0,0,0,0,0,0,0,0,0,0,0,0,0,0,0,0,0,0,0,0,0,0,0,0,0,0,0,0,0,0,0,0,0,0,0,0,0,0,0,0,0,0,0,0,0,0,0,0,0,0,0,0,0,0,0,0,0,0,0,0,0,0,0,0,0,0,0,0,0,0,0,0,0,0,0,0,0,0,0,0,0,0,0,0,0,0,0,0,0,0],"id":7,"left_children":[1,3,5,7,9,11,13,15,17,19,21,23,25,27,29,31,33,35,37,39,41,43,45,47,49,51,53,55,57,59,61,63,65,67,69,71,73,75,77,79,81,83,85,87,89,91,93,95,97,99,101,103,105,107,109,111,113,115,117,119,121,123,125,-1,-1,-1,-1,-1,-1,-1,-1,-1,-1,-1,-1,-1,-1,-1,-1,-1,-1,-1,-1,-1,-1,-1,-1,-1,-1,-1,-1,-1,-1,-1,-1,-1,-1,-1,-1,-1,-1,-1,-1,-1,-1,-1,-1,-1,-1,-1,-1,-1,-1,-1,-1,-1,-1,-1,-1,-1,-1,-1,-1,-1,-1,-1,-1],"loss_changes":[3.7962664E4,6.370879E3,5.2360723E3,3.4405063E3,9.412422E2,3.3262344E3,7.691101E2,1.3337382E3,8.1897754E2,4.9089844E2,1.9382324E2,1.7311064E3,1.9573828E3,5.0243665E2,9.148938E1,3.91018E2,2.4379681E2,3.1700586E2,4.6678857E2,3.4820264E2,1.380791E2,9.171973E1,8.4741455E1,4.5621143E2,4.448368E2,1.5309277E3,3.5352368E2,3.1713092E2,7.0702673E2,1.5060257E2,1.1547876E2,2.3758609E2,1.6020734E2,4.102236E1,2.3021735E2,1.01261475E2,1.9691455E2,2.0878511E2,1.636023E2,1.0072803E2,6.446962E1,1.3017505E2,3.1009277E1,7.378955E1,5.984424E1,4.9975708E1,3.6777954E1,1.4895898E2,1.4810303E2,1.6716025E2,1.0697992E2,4.4196875E2,8.187366E2,9.328955E1,2.1312811E2,5.7723164E1,6.964395E1,2.1082776E2,7.631265E1,1.6668518E2,4.3722107E1,3.0138245E1,2.6827118E1,0E0,0E0,0E0,0E0,0E0,0E0,0E0,0E0,0E0,0E0,0E0,0E0,0E0,0E0,0E0,0E0,0E0,0E0,0E0,0E0,0E0,0E0,0E0,0E0,0E0,0E0,0E0,0E0,0E0,0E0,0E0,0E0,0E0,0E0,0E0,0E0,0E0,0E0,0E0,0E0,0E0,0E0,0E0,0E0,0E0,0E0,0E0,0E0,0E0,0E0,0E0,0E0,0E0,0E0,0E0,0E0,0E0,0E0,0E0,0E0,0E0,0E0,0E0,0E0],"parents":[2147483647,0,0,1,1,2,2,3,3,4,4,5,5,6,6,7,7,8,8,9,9,10,10,11,11,12,12,13,13,14,14,15,15,16,16,17,17,18,18,19,19,20,20,21,21,22,22,23,23,24,24,25,25,26,26,27,27,28,28,29,29,30,30,31,31,32,32,33,33,34,34,35,35,36,36,37,37,38,38,39,39,40,40,41,41,42,42,43,43,44,44,45,45,46,46,47,47,48,48,49,49,50,50,51,51,52,52,53,53,54,54,55,55,56,56,57,57,58,58,59,59,60,60,61,61,62,62],"right_children":[2,4,6,8,10,12,14,16,18,20,22,24,26,28,30,32,34,36,38,40,42,44,46,48,50,52,54,56,58,60,62,64,66,68,70,72,74,76,78,80,82,84,86,88,90,92,94,96,98,100,102,104,106,108,110,112,114,116,118,120,122,124,126,-1,-1,-1,-1,-1,-1,-1,-1,-1,-1,-1,-1,-1,-1,-1,-1,-1,-1,-1,-1,-1,-1,-1,-1,-1,-1,-1,-1,-1,-1,-1,-1,-1,-1,-1,-1,-1,-1,-1,-1,-1,-1,-1,-1,-1,-1,-1,-1,-1,-1,-1,-1,-1,-1,-1,-1,-1,-1,-1,-1,-1,-1,-1,-1],"split_conditions":[1.041926E1,1.1752856E3,1.3041173E3,2.1286658E3,1.5235636E3,2.2546904E1,1.6791088E3,4.7367196E0,3.925943E0,2.615027E3,4.352975E0,2.6724028E3,-3.5173154E-1,2.6539051E1,3.4048733E3,2.7311514E3,-6.371E-1,-4.42805E1,3.6003997E3,5.3191786E0,4.265147E3,1.8052489E3,2.488264E3,2.6721404E3,4.0129858E3,3.1138928E3,5.1372125E2,2.8574207E3,-4.3123183E-1,-4.289101E-1,3.6077084E1,9.0042566E2,8.583061E2,2.6377043E3,2.4465479E3,3.9228433E3,4.457785E3,-5.44884E1,4.265147E3,6.011E-1,-5.03175E1,4.579935E0,1.4319133E3,2.6377043E3,2.4667676E3,1.8991741E3,1.7681609E3,1.4045778E3,1.0007108E3,-5.347E-1,-4.838E-1,4.715978E1,4.9615253E1,6.331202E2,3.407E-1,-4.282E-1,4.0462637E3,3.7227434E3,4.956E-1,2.2546904E1,3.044E-1,1.6904298E3,5.3971155E2,4.7631684E-4,1.2395907E-2,4.7715314E-2,1.5267794E-2,6.198471E-3,2.7863363E-2,-1.7399905E-2,-4.76657E-3,3.027148E-2,4.206828E-2,1.9668996E-2,3.1258427E-2,2.0068733E-2,3.871501E-3,1.7148145E-2,3.111665E-2,3.0284692E-2,1.2042122E-2,2.2060327E-2,5.772349E-3,3.993224E-2,2.6005456E-2,6.80208E-2,4.6517354E-2,4.2465113E-2,5.4741688E-2,6.051017E-2,3.0276014E-2,2.761865E-2,4.504082E-2,4.0272366E-2,5.359868E-2,-3.6406655E-2,-2.495194E-2,-1.7714772E-2,6.32424E-4,1.0716922E-2,-9.477089E-3,3.3143952E-2,1.00796595E-2,-4.0123414E-2,-5.2784722E-2,-1.3836871E-2,-3.8758874E-2,-3.822353E-2,-2.4219647E-2,-1.0263807E-2,-3.0996952E-2,1.0852888E-2,-6.883168E-3,1.3836267E-2,3.1860698E-2,-3.46328E-2,-9.081075E-3,8.874448E-3,-2.4195516E-2,2.067319E-2,-1.05885705E-2,2.659343E-2,7.7547655E-3,-1.10936165E-2,4.681299E-2,-1.4559451E-2,1.8684564E-2],"split_indices":[0,4,4,23,4,0,4,0,0,5,0,23,16,0,5,5,25,6,23,0,5,4,5,5,5,23,10,5,16,29,0,4,34,5,5,23,23,6,5,28,12,0,34,5,4,4,4,23,4,25,25,0,0,4,25,25,5,5,28,0,25,23,10,0,0,0,0,0,0,0,0,0,0,0,0,0,0,0,0,0,0,0,0,0,0,0,0,0,0,0,0,0,0,0,0,0,0,0,0,0,0,0,0,0,0,0,0,0,0,0,0,0,0,0,0,0,0,0,0,0,0,0,0,0,0,0,0],"split_type":[0,0,0,0,0,0,0,0,0,0,0,0,0,0,0,0,0,0,0,0,0,0,0,0,0,0,0,0,0,0,0,0,0,0,0,0,0,0,0,0,0,0,0,0,0,0,0,0,0,0,0,0,0,0,0,0,0,0,0,0,0,0,0,0,0,0,0,0,0,0,0,0,0,0,0,0,0,0,0,0,0,0,0,0,0,0,0,0,0,0,0,0,0,0,0,0,0,0,0,0,0,0,0,0,0,0,0,0,0,0,0,0,0,0,0,0,0,0,0,0,0,0,0,0,0,0,0],"sum_hessian":[2.3285303E5,1.29185836E5,1.036672E5,9.435609E4,3.4829742E4,8.677421E4,1.6892996E4,4.4510914E4,4.9845176E4,2.2135363E4,1.2694378E4,3.1097268E4,5.567694E4,1.161251E4,5.280486E3,2.8544258E4,1.5966659E4,2.7153494E4,2.2691682E4,1.2231025E4,9.904338E3,8.1787563E3,4.5156216E3,1.8496914E4,1.26003545E4,4.1144242E4,1.4532699E4,5.1026665E3,6.5098438E3,3.9339707E3,1.3465149E3,2.0343605E4,8.200651E3,1.1337115E3,1.4832947E4,7.9681465E3,1.9185348E4,1.2824115E4,9.867565E3,8.865124E3,3.3659019E3,7.2265107E3,2.6778276E3,5.147529E3,3.0312275E3,2.2694429E3,2.2461787E3,1.1464477E4,7.032437E3,8.528481E3,4.0718728E3,2.7950457E4,1.3193783E4,4.9872E3,9.545499E3,2.9087166E3,2.1939497E3,3.8856504E3,2.6241936E3,1.7158629E3,2.218108E3,6.632715E2,6.8324335E2,1.446119E4,5.882415E3,4.0010052E2,7.8005513E3,8.36161E2,2.9755048E2,8.621536E3,6.2114106E3,5.0863896E3,2.881757E3,1.4227175E4,4.958173E3,2.4637068E3,1.0360408E4,6.827485E3,3.0400806E3,8.022417E3,8.427068E2,7.984622E2,2.5674397E3,4.5212656E3,2.7052449E3,1.9053879E2,2.4872888E3,2.9830906E3,2.1644382E3,2.8507114E3,1.8051611E2,1.7138104E3,5.556325E2,1.33343E3,9.127486E2,5.395872E3,6.068604E3,5.671225E3,1.3612119E3,1.1890977E3,7.339384E3,5.8873065E2,3.4831423E3,1.2605348E4,1.5345109E4,6.543007E3,6.650777E3,2.0152183E3,2.971982E3,8.079636E3,1.465863E3,5.687816E2,2.339935E3,1.2316759E3,9.622737E2,2.73503E3,1.1506205E3,2.4376035E3,1.8659009E2,7.832471E2,9.326159E2,1.8423295E3,3.7577838E2,2.22103E1,6.4106116E2,6.569424E1,6.1754913E2],"tree_param":{"num_deleted":"0","num_feature":"49","num_nodes":"127","size_leaf_vector":"1"}},{"base_weights":[1.6398757E-4,-4.5272976E-1,4.9338257E-1,-1.7899923E-1,-8.663084E-1,8.195725E-1,-3.4800448E-2,-4.698756E-1,7.3061134E-3,-7.071781E-1,-1.0202634E0,5.231093E-1,1.1256428E0,-3.1173947E-1,1.7863487E-1,-6.13163E-1,-3.257214E-1,-1.1725651E-1,2.0455037E-1,-9.0435916E-1,-4.9674767E-1,-1.0652848E0,-5.836049E-1,4.064097E-1,7.5120825E-1,9.2474777E-1,1.2402258E0,-9.916415E-2,-5.878244E-1,5.675894E-1,-2.6723898E-3,-3.9784887E-1,-7.248553E-1,-2.2778705E-1,-5.0433695E-1,4.300007E-2,-2.9191807E-1,3.1060064E-1,-4.236066E-2,-1.0322007E0,-7.4381894E-1,-7.263973E-1,-3.2510737E-1,-1.1336843E0,-8.174293E-1,-2.009677E-1,-6.532823E-1,5.7802886E-1,2.1726523E-1,8.157495E-1,4.942683E-1,8.385319E-1,1.1192828E0,1.2717873E0,-2.845494E-2,-3.1140164E-1,2.4833424E-1,-6.389305E-1,-2.7554713E-2,1.5632415E-1,7.9459447E-1,-2.72198E-1,1.2221306E-1,-2.2655895E-2,-5.778128E-3,-4.4590365E-2,-3.2030486E-2,-1.633532E-2,-1.723399E-3,-2.811039E-2,-1.0918841E-2,-5.2042105E-3,8.34942E-3,-2.5387451E-2,-1.0837227E-2,8.599577E-3,2.2170614E-2,-4.8778662E-3,2.7472353E-2,-5.5422116E-2,-4.672348E-2,-2.6243618E-2,-4.1178253E-2,-3.9483976E-2,-2.4890319E-2,-2.1410963E-2,5.418774E-4,-6.125865E-2,-5.1593985E-2,-3.3946216E-2,-5.413415E-2,4.9100555E-2,-1.2812738E-2,-3.7713848E-2,-1.8164089E-2,2.2543848E-2,3.6458448E-2,2.3518854E-3,1.7613085E-2,3.537564E-2,4.6714842E-2,2.019433E-2,4.8985694E-2,4.5772444E-2,2.979944E-2,5.882529E-2,4.399501E-2,6.44999E-2,2.5243983E-2,2.4531102E-3,-4.068497E-2,-1.0006463E-2,-2.4755962E-2,5.7904096E-3,2.792554E-2,-3.7824564E-2,-1.8022424E-2,1.0358254E-2,-2.379643E-2,-1.1933392E-2,1.2993785E-2,2.7289564E-2,4.902507E-2,-3.448253E-2,-1.0610235E-2,-1.3838804E-2,1.0567503E-2],"categories":[],"categories_nodes":[],"categories_segments":[],"categories_sizes":[],"default_left":[0,0,0,0,0,0,0,0,0,0,0,0,0,0,0,0,0,0,0,0,0,0,0,0,0,0,0,0,0,0,0,0,0,0,0,0,0,0,0,0,0,0,0,0,0,0,0,0,0,0,0,0,0,0,0,0,0,0,0,0,0,0,0,0,0,0,0,0,0,0,0,0,0,0,0,0,0,0,0,0,0,0,0,0,0,0,0,0,0,0,0,0,0,0,0,0,0,0,0,0,0,0,0,0,0,0,0,0,0,0,0,0,0,0,0,0,0,0,0,0,0,0,0,0,0,0,0],"id":8,"left_children":[1,3,5,7,9,11,13,15,17,19,21,23,25,27,29,31,33,35,37,39,41,43,45,47,49,51,53,55,57,59,61,63,65,67,69,71,73,75,77,79,81,83,85,87,89,91,93,95,97,99,101,103,105,107,109,111,113,115,117,119,121,123,125,-1,-1,-1,-1,-1,-1,-1,-1,-1,-1,-1,-1,-1,-1,-1,-1,-1,-1,-1,-1,-1,-1,-1,-1,-1,-1,-1,-1,-1,-1,-1,-1,-1,-1,-1,-1,-1,-1,-1,-1,-1,-1,-1,-1,-1,-1,-1,-1,-1,-1,-1,-1,-1,-1,-1,-1,-1,-1,-1,-1,-1,-1,-1,-1],"loss_changes":[5.187728E4,1.3705537E4,1.9154086E4,3.9483306E3,1.1796719E3,6.2349297E3,2.5089702E3,5.868838E2,1.0911815E3,9.8284375E2,4.802578E2,9.2851855E2,7.7615625E2,1.0839009E3,1.6906758E3,3.4215332E2,2.476283E2,7.620152E2,4.503117E2,2.4956152E2,4.515652E2,3.7463867E2,6.0588745E1,7.493657E2,1.9486621E2,2.0416406E2,8.626914E2,7.70122E2,2.2974292E2,7.109778E2,5.5042523E2,7.572638E1,1.3070996E2,1.7505994E2,8.256531E1,2.5890527E2,2.1086804E2,2.210354E2,1.6854198E2,4.8683594E1,9.372925E1,6.993555E1,2.2780365E2,1.5969531E2,1.750564E2,2.3162819E1,5.594696E1,2.318042E2,2.5239386E2,1.1963916E2,1.0316107E2,1.5763818E2,4.9557617E1,2.9182422E2,3.2267452E1,1.320852E2,1.6231607E2,2.4023291E2,7.112412E1,1.11032295E2,2.2581494E2,1.2909259E2,3.9735327E2,0E0,0E0,0E0,0E0,0E0,0E0,0E0,0E0,0E0,0E0,0E0,0E0,0E0,0E0,0E0,0E0,0E0,0E0,0E0,0E0,0E0,0E0,0E0,0E0,0E0,0E0,0E0,0E0,0E0,0E0,0E0,0E0,0E0,0E0,0E0,0E0,0E0,0E0,0E0,0E0,0E0,0E0,0E0,0E0,0E0,0E0,0E0,0E0,0E0,0E0,0E0,0E0,0E0,0E0,0E0,0E0,0E0,0E0,0E0,0E0,0E0,0E0,0E0,0E0],"parents":[2147483647,0,0,1,1,2,2,3,3,4,4,5,5,6,6,7,7,8,8,9,9,10,10,11,11,12,12,13,13,14,14,15,15,16,16,17,17,18,18,19,19,20,20,21,21,22,22,23,23,24,24,25,25,26,26,27,27,28,28,29,29,30,30,31,31,32,32,33,33,34,34,35,35,36,36,37,37,38,38,39,39,40,40,41,41,42,42,43,43,44,44,45,45,46,46,47,47,48,48,49,49,50,50,51,51,52,52,53,53,54,54,55,55,56,56,57,57,58,58,59,59,60,60,61,61,62,62],"right_children":[2,4,6,8,10,12,14,16,18,20,22,24,26,28,30,32,34,36,38,40,42,44,46,48,50,52,54,56,58,60,62,64,66,68,70,72,74,76,78,80,82,84,86,88,90,92,94,96,98,100,102,104,106,108,110,112,114,116,118,120,122,124,126,-1,-1,-1,-1,-1,-1,-1,-1,-1,-1,-1,-1,-1,-1,-1,-1,-1,-1,-1,-1,-1,-1,-1,-1,-1,-1,-1,-1,-1,-1,-1,-1,-1,-1,-1,-1,-1,-1,-1,-1,-1,-1,-1,-1,-1,-1,-1,-1,-1,-1,-1,-1,-1,-1,-1,-1,-1,-1,-1,-1,-1,-1,-1,-1],"split_conditions":[2.4554978E3,1.3441865E1,1.2983895E1,2.0572095E3,3.5261208E1,2.78004E3,2.7963684E3,4.472868E3,2.8060881E3,4.9965654E3,-2.7563336E-1,1.384042E3,2.934609E3,3.870172E1,3.5261208E1,2.7241979E0,6.2630057E0,4.066979E0,6.6922507E0,2.1228413E3,2.0882537E3,7.4876255E3,-4.75E-1,3.8576407E0,7.7505765E0,1.4772544E3,3.9176072E3,3.1349055E3,2.702138E3,4.5352344E3,6.2436865E2,2.0026691E3,1.7621096E3,1.949494E3,8.520726E3,2.2553909E3,3.1662224E3,2.2691567E3,3.178383E3,3.8127742E3,1.6651737E1,8.700364E3,2.15526E3,2.0882537E3,1.0038203E2,2.7501602E0,8.5309595E-2,2.621778E3,2.587054E3,2.6159656E3,2.9840352E3,6.582879E0,7.7505765E0,-2.4982218E-3,4.306E-1,2.3471817E1,2.4142395E3,-4.113482E-1,1.0038203E2,4.6143716E2,2.9721191E3,4.0170923E2,4.4771283E2,-2.2655895E-2,-5.778128E-3,-4.4590365E-2,-3.2030486E-2,-1.633532E-2,-1.723399E-3,-2.811039E-2,-1.0918841E-2,-5.2042105E-3,8.34942E-3,-2.5387451E-2,-1.0837227E-2,8.599577E-3,2.2170614E-2,-4.8778662E-3,2.7472353E-2,-5.5422116E-2,-4.672348E-2,-2.6243618E-2,-4.1178253E-2,-3.9483976E-2,-2.4890319E-2,-2.1410963E-2,5.418774E-4,-6.125865E-2,-5.1593985E-2,-3.3946216E-2,-5.413415E-2,4.9100555E-2,-1.2812738E-2,-3.7713848E-2,-1.8164089E-2,2.2543848E-2,3.6458448E-2,2.3518854E-3,1.7613085E-2,3.537564E-2,4.6714842E-2,2.019433E-2,4.8985694E-2,4.5772444E-2,2.979944E-2,5.882529E-2,4.399501E-2,6.44999E-2,2.5243983E-2,2.4531102E-3,-4.068497E-2,-1.0006463E-2,-2.4755962E-2,5.7904096E-3,2.792554E-2,-3.7824564E-2,-1.8022424E-2,1.0358254E-2,-2.379643E-2,-1.1933392E-2,1.2993785E-2,2.7289564E-2,4.902507E-2,-3.448253E-2,-1.0610235E-2,-1.3838804E-2,1.0567503E-2],"split_indices":[1,0,0,1,0,1,1,2,5,2,16,9,1,0,0,0,0,0,0,1,1,2,36,0,0,9,1,5,9,2,10,1,1,1,2,1,2,1,9,2,0,2,9,1,0,8,16,1,1,1,9,0,0,29,28,0,9,16,0,10,1,13,13,0,0,0,0,0,0,0,0,0,0,0,0,0,0,0,0,0,0,0,0,0,0,0,0,0,0,0,0,0,0,0,0,0,0,0,0,0,0,0,0,0,0,0,0,0,0,0,0,0,0,0,0,0,0,0,0,0,0,0,0,0,0,0,0],"split_type":[0,0,0,0,0,0,0,0,0,0,0,0,0,0,0,0,0,0,0,0,0,0,0,0,0,0,0,0,0,0,0,0,0,0,0,0,0,0,0,0,0,0,0,0,0,0,0,0,0,0,0,0,0,0,0,0,0,0,0,0,0,0,0,0,0,0,0,0,0,0,0,0,0,0,0,0,0,0,0,0,0,0,0,0,0,0,0,0,0,0,0,0,0,0,0,0,0,0,0,0,0,0,0,0,0,0,0,0,0,0,0,0,0,0,0,0,0,0,0,0,0,0,0,0,0,0,0],"sum_hessian":[2.322403E5,1.2106889E5,1.111714E5,7.285309E4,4.8215797E4,6.8727664E4,4.2443742E4,2.8444377E4,4.4408715E4,2.3713744E4,2.450205E4,3.491395E4,3.381371E4,1.8474447E4,2.3969293E4,1.4261704E4,1.4182674E4,2.7218014E4,1.7190701E4,1.223935E4,1.1474395E4,2.220956E4,2.2924905E3,2.3100357E4,1.1813592E4,1.2286169E4,2.1527543E4,1.0439546E4,8.034901E3,7.6209224E3,1.6348371E4,4.874314E3,9.38739E3,9.163454E3,5.01922E3,1.4193236E4,1.3024777E4,1.2026843E4,5.1638594E3,6.8088076E3,5.430542E3,4.905216E3,6.5691787E3,1.7401709E4,4.8078516E3,3.5485367E2,1.9376368E3,1.2108804E4,1.0991554E4,9.438576E3,2.3750154E3,8.518666E3,3.7675024E3,2.1005375E4,5.221684E2,6.4820957E3,3.9574502E3,7.362301E3,6.7259973E2,2.7118157E3,4.9091064E3,5.1774067E3,1.1170965E4,4.0742397E3,8.000743E2,3.1430996E3,6.24429E3,6.059563E3,3.1038909E3,4.172168E3,8.470521E2,6.4901997E3,7.703036E3,3.3614111E3,9.663366E3,5.8879404E3,6.138902E3,4.7248613E3,4.3899783E2,3.8162395E3,2.9925684E3,1.4535647E3,3.976977E3,3.8380605E3,1.0671553E3,5.027345E3,1.5418335E3,9.156818E3,8.244892E3,3.1621475E3,1.6457041E3,1.4691591E1,3.4016208E2,1.434676E3,5.0296082E2,6.5802397E3,5.528564E3,4.8636504E3,6.127903E3,4.939695E3,4.498882E3,2.0046465E3,3.7036905E2,6.4639414E3,2.0547246E3,3.035807E3,7.316955E2,2.0516857E4,4.885172E2,4.755265E2,4.6641876E1,4.0399983E3,2.4420977E3,2.774852E3,1.1825983E3,5.174417E3,2.1878838E3,4.4110693E2,2.3149281E2,5.6199225E2,2.1498235E3,2.102248E3,2.8068584E3,6.481991E2,4.5292075E3,2.0385277E3,9.1324375E3],"tree_param":{"num_deleted":"0","num_feature":"49","num_nodes":"127","size_leaf_vector":"1"}},{"base_weights":[-1.2036054E-3,-1.6500251E-1,2.2925152E-1,-3.5197628E-1,-9.524716E-2,1.4924322E-1,4.0787476E-1,-4.6449876E-1,-2.4693008E-1,-2.816836E-1,-8.164107E-3,6.27962E-2,2.8016028E-1,1.9428432E-1,4.8205894E-1,-4.345866E-1,-6.976225E-1,-4.3066153E-1,-1.7829904E-1,-2.401128E-1,-6.1490864E-1,-1.4748965E-1,1.0667414E-1,2.692417E-1,-5.2862396E-3,3.2339272E-1,-1.5646657E-1,-6.933408E-2,2.635032E-1,5.34506E-1,1.7543986E-1,-5.1025385E-1,-3.3359817E-1,-6.141759E-1,-9.446403E-1,-4.8992774E-1,-2.7541754E-1,-2.692579E-1,-5.599304E-2,-4.4462797E-1,-1.8482122E-1,-6.7675954E-1,-2.2921917E-1,1.15583405E-1,-1.9387478E-1,1.4476302E-1,-2.474603E-1,4.4835356E-1,2.1027586E-1,2.807587E-2,-2.2765666E-1,4.773407E-1,2.629989E-1,-5.4017663E-1,-4.809396E-2,3.1986222E-1,-1.6259454E-1,-2.9711667E-1,2.9913476E-1,4.7583014E-1,7.150603E-1,-6.9830865E-2,2.7063107E-1,-2.8754605E-2,-2.104853E-2,-2.0392878E-2,-8.273258E-3,-3.801464E-2,-2.3278706E-2,-4.972912E-2,-1.4146936E-2,-2.5779149E-2,-7.3973946E-3,-2.377197E-2,-7.2610886E-3,-1.5302611E-2,3.0064231E-3,6.0493423E-4,-1.2946253E-2,-4.4195494E-3,-2.5397107E-2,-5.9983223E-3,-2.1825371E-2,-3.626434E-2,-1.5666833E-2,1.5435595E-3,-2.1861764E-2,2.009207E-2,3.3763398E-3,3.8682774E-3,-1.0994751E-2,1.3661361E-2,4.835488E-3,-2.4544837E-2,-6.6433153E-3,1.5539034E-2,2.7784199E-2,1.895135E-2,7.378877E-3,-5.856138E-3,3.9219526E-3,-1.8667934E-2,-7.988665E-3,2.2247287E-2,4.3885745E-2,1.7765978E-2,9.855565E-3,-2.1226583E-2,-5.7829093E-2,-1.4657698E-2,5.2007E-3,-8.056382E-3,2.0964364E-2,-1.356099E-2,4.719816E-3,-2.2157593E-2,6.564027E-3,2.5879601E-2,1.1413347E-2,2.0206062E-2,3.1092634E-2,2.5866691E-2,4.048511E-2,1.74602E-2,-9.084618E-3,9.615241E-3,3.0222652E-2],"categories":[],"categories_nodes":[],"categories_segments":[],"categories_sizes":[],"default_left":[0,0,0,0,0,0,0,0,0,0,0,0,0,0,0,0,0,0,0,0,0,0,0,0,0,0,0,0,0,0,0,0,0,0,0,0,0,0,0,0,0,0,0,0,0,0,0,0,0,0,0,0,0,0,0,0,0,0,0,0,0,0,0,0,0,0,0,0,0,0,0,0,0,0,0,0,0,0,0,0,0,0,0,0,0,0,0,0,0,0,0,0,0,0,0,0,0,0,0,0,0,0,0,0,0,0,0,0,0,0,0,0,0,0,0,0,0,0,0,0,0,0,0,0,0,0,0],"id":9,"left_children":[1,3,5,7,9,11,13,15,17,19,21,23,25,27,29,31,33,35,37,39,41,43,45,47,49,51,53,55,57,59,61,63,65,67,69,71,73,75,77,79,81,83,85,87,89,91,93,95,97,99,101,103,105,107,109,111,113,115,117,119,121,123,125,-1,-1,-1,-1,-1,-1,-1,-1,-1,-1,-1,-1,-1,-1,-1,-1,-1,-1,-1,-1,-1,-1,-1,-1,-1,-1,-1,-1,-1,-1,-1,-1,-1,-1,-1,-1,-1,-1,-1,-1,-1,-1,-1,-1,-1,-1,-1,-1,-1,-1,-1,-1,-1,-1,-1,-1,-1,-1,-1,-1,-1,-1,-1,-1],"loss_changes":[8.709298E3,1.758719E3,1.3695625E3,4.326372E2,1.5945798E3,7.490875E2,4.6938184E2,1.224729E2,2.3863367E2,4.3260376E2,1.0713094E3,5.6064417E2,4.971106E2,1.3965134E2,3.5341504E2,1.1923462E2,4.0028748E1,4.6885986E1,1.5338605E2,3.1402686E2,8.208545E1,3.6924756E2,4.950356E2,1.0404785E2,2.2258092E2,2.2224707E2,9.830031E1,5.7670048E1,1.211095E2,1.9811475E2,7.5228584E1,5.112671E1,8.357794E1,3.1716858E1,1.5723816E1,3.2274292E1,3.681089E1,9.605206E1,8.152803E1,1.3306604E2,3.570075E2,5.1910156E1,2.6278202E1,6.2109203E1,1.8162476E2,2.043617E2,9.902269E1,3.5525177E1,7.846036E1,1.9066719E2,3.8388474E1,8.645386E1,1.0434766E2,3.587126E1,6.913787E1,1.4857716E1,3.595818E1,2.2842705E1,8.771713E1,1.4777344E2,8.507715E1,4.2109013E1,6.0126038E1,0E0,0E0,0E0,0E0,0E0,0E0,0E0,0E0,0E0,0E0,0E0,0E0,0E0,0E0,0E0,0E0,0E0,0E0,0E0,0E0,0E0,0E0,0E0,0E0,0E0,0E0,0E0,0E0,0E0,0E0,0E0,0E0,0E0,0E0,0E0,0E0,0E0,0E0,0E0,0E0,0E0,0E0,0E0,0E0,0E0,0E0,0E0,0E0,0E0,0E0,0E0,0E0,0E0,0E0,0E0,0E0,0E0,0E0,0E0,0E0,0E0,0E0,0E0,0E0],"parents":[2147483647,0,0,1,1,2,2,3,3,4,4,5,5,6,6,7,7,8,8,9,9,10,10,11,11,12,12,13,13,14,14,15,15,16,16,17,17,18,18,19,19,20,20,21,21,22,22,23,23,24,24,25,25,26,26,27,27,28,28,29,29,30,30,31,31,32,32,33,33,34,34,35,35,36,36,37,37,38,38,39,39,40,40,41,41,42,42,43,43,44,44,45,45,46,46,47,47,48,48,49,49,50,50,51,51,52,52,53,53,54,54,55,55,56,56,57,57,58,58,59,59,60,60,61,61,62,62],"right_children":[2,4,6,8,10,12,14,16,18,20,22,24,26,28,30,32,34,36,38,40,42,44,46,48,50,52,54,56,58,60,62,64,66,68,70,72,74,76,78,80,82,84,86,88,90,92,94,96,98,100,102,104,106,108,110,112,114,116,118,120,122,124,126,-1,-1,-1,-1,-1,-1,-1,-1,-1,-1,-1,-1,-1,-1,-1,-1,-1,-1,-1,-1,-1,-1,-1,-1,-1,-1,-1,-1,-1,-1,-1,-1,-1,-1,-1,-1,-1,-1,-1,-1,-1,-1,-1,-1,-1,-1,-1,-1,-1,-1,-1,-1,-1,-1,-1,-1,-1,-1,-1,-1,-1,-1,-1,-1],"split_conditions":[2.6906533E3,4.932727E2,4.83819E3,8.4931976E2,5.267741E2,-7.44246E-1,4.5268574E0,7.346E-1,2.4924814E2,9.667E-1,-7.420972E-1,-5.7948E1,4.819E-1,3.519399E0,3.954E-1,3.6198648E2,4.631979E3,1.7692563E3,-5.518739E-1,-1.662E-1,5.417899E3,-6.30578E1,5.445E-1,-9.10525E1,5.335E-1,-4.37237E1,-3.8835E3,-1.4178E3,9.405534E2,1.2346832E4,4.9341908E0,2.3508586E3,4.8538547E4,2.3229717E3,1.1327E0,4.3496934E3,5.1348257E0,1.14414E3,2.346E-1,-1.26975E3,1.299E0,1.0925E0,-5.919257E-1,2.6242576E0,2.39792E0,2.9572752E0,7.8145276E2,3.4866213E3,2.5895464E0,4.5790324E0,5.9339014E3,1.34797E3,3.1980944E0,4.6830475E-3,1.8670156E3,2.1676692E-1,-7.3930395E-1,1.3225251E4,-3.635E-1,-7.973416E-1,5.0322056E0,9.9E-3,2.4768883E4,-2.8754605E-2,-2.104853E-2,-2.0392878E-2,-8.273258E-3,-3.801464E-2,-2.3278706E-2,-4.972912E-2,-1.4146936E-2,-2.5779149E-2,-7.3973946E-3,-2.377197E-2,-7.2610886E-3,-1.5302611E-2,3.0064231E-3,6.0493423E-4,-1.2946253E-2,-4.4195494E-3,-2.5397107E-2,-5.9983223E-3,-2.1825371E-2,-3.626434E-2,-1.5666833E-2,1.5435595E-3,-2.1861764E-2,2.009207E-2,3.3763398E-3,3.8682774E-3,-1.0994751E-2,1.3661361E-2,4.835488E-3,-2.4544837E-2,-6.6433153E-3,1.5539034E-2,2.7784199E-2,1.895135E-2,7.378877E-3,-5.856138E-3,3.9219526E-3,-1.8667934E-2,-7.988665E-3,2.2247287E-2,4.3885745E-2,1.7765978E-2,9.855565E-3,-2.1226583E-2,-5.7829093E-2,-1.4657698E-2,5.2007E-3,-8.056382E-3,2.0964364E-2,-1.356099E-2,4.719816E-3,-2.2157593E-2,6.564027E-3,2.5879601E-2,1.1413347E-2,2.0206062E-2,3.1092634E-2,2.5866691E-2,4.048511E-2,1.74602E-2,-9.084618E-3,9.615241E-3,3.0222652E-2],"split_indices":[23,13,23,10,10,16,31,35,13,35,16,12,35,45,35,13,43,10,16,19,2,12,35,12,35,12,33,47,13,2,45,5,11,5,14,5,31,47,35,47,19,22,17,27,27,7,13,23,7,31,2,47,7,41,13,45,16,2,35,16,45,22,44,0,0,0,0,0,0,0,0,0,0,0,0,0,0,0,0,0,0,0,0,0,0,0,0,0,0,0,0,0,0,0,0,0,0,0,0,0,0,0,0,0,0,0,0,0,0,0,0,0,0,0,0,0,0,0,0,0,0,0,0,0,0,0,0],"split_type":[0,0,0,0,0,0,0,0,0,0,0,0,0,0,0,0,0,0,0,0,0,0,0,0,0,0,0,0,0,0,0,0,0,0,0,0,0,0,0,0,0,0,0,0,0,0,0,0,0,0,0,0,0,0,0,0,0,0,0,0,0,0,0,0,0,0,0,0,0,0,0,0,0,0,0,0,0,0,0,0,0,0,0,0,0,0,0,0,0,0,0,0,0,0,0,0,0,0,0,0,0,0,0,0,0,0,0,0,0,0,0,0,0,0,0,0,0,0,0,0,0,0,0,0,0,0,0],"sum_hessian":[2.3071912E5,1.3486475E5,9.585437E4,3.6640777E4,9.822397E4,6.620479E4,2.9649584E4,1.76869E4,1.8953879E4,3.1269975E4,6.695399E4,3.987793E4,2.6326857E4,7.6459097E3,2.2003676E4,1.5680004E4,2.0068956E3,5.1511704E3,1.3802709E4,2.7804504E4,3.4654724E3,3.025351E4,3.6700484E4,9.890744E3,2.9987184E4,2.3956242E4,2.3706147E3,1.5885878E3,6.0573223E3,1.8787676E4,3.2159993E3,8.958613E3,6.7213906E3,1.5042476E3,5.0264813E2,3.7240823E3,1.4270883E3,7.9127295E3,5.889979E3,5.9138784E3,2.1890625E4,2.9847703E3,4.8070215E2,4.532902E3,2.5720607E4,3.31383E4,3.5621826E3,2.4459514E3,7.444793E3,2.607395E4,3.9132349E3,6.7457324E3,1.721051E4,5.2019293E2,1.8504219E3,3.0557315E2,1.2830145E3,3.6070416E2,5.696618E3,1.4184464E4,4.6032124E3,8.977809E2,2.3182183E3,5.183368E3,3.7752454E3,4.6591714E3,2.0622192E3,7.546935E2,7.495541E2,4.6620267E2,3.6445465E1,3.4623667E3,2.6171558E2,5.601021E2,8.6698615E2,7.1190776E3,7.9365173E2,4.409046E3,1.4809331E3,8.9401245E2,5.0198657E3,1.7408299E4,4.4823267E3,2.6310754E3,3.5369485E2,2.1292363E2,2.677785E2,6.490357E2,3.8838662E3,2.249559E3,2.3471049E4,9.017118E3,2.4121182E4,1.1376924E3,2.4244902E3,1.0757025E3,1.3702488E3,2.0132244E3,5.4315684E3,6.7119453E3,1.9362004E4,1.2399633E3,2.6732715E3,6.243889E3,5.0184354E2,7.1625205E3,1.0047989E4,4.4012085E2,8.007205E1,7.0958105E2,1.1408408E3,5.1376915E1,2.5419623E2,9.031571E2,3.7985745E2,2.6984885E2,9.085532E1,1.3920677E3,4.3045503E3,9.517694E3,4.6667695E3,1.4938981E3,3.1093142E3,1.877763E2,7.100046E2,1.8801447E3,4.3807364E2],"tree_param":{"num_deleted":"0","num_feature":"49","num_nodes":"127","size_leaf_vector":"1"}},{"base_weights":[3.0590473E-3,-4.1080773E-1,4.89628E-1,-6.44636E-1,-2.1035394E-1,2.175897E-1,6.7355365E-1,-8.291491E-1,-5.5997795E-1,-6.598593E-2,-4.0034992E-1,4.0047124E-1,-1.113053E-1,8.5576576E-1,2.221116E-1,-9.368671E-1,-7.6204586E-1,-4.7689816E-1,-7.348932E-1,-1.7873095E-1,1.6143613E-1,-5.4402256E-1,-2.8191054E-1,1.5537442E-1,4.809195E-1,-2.6685476E-1,4.1909415E-2,6.501771E-1,1.00998E0,-4.3465823E-2,4.0850323E-1,-1.1141402E0,-8.897948E-1,-5.918497E-1,-8.086137E-1,-4.288121E-1,-7.669909E-1,-6.923005E-1,-9.9459064E-1,-1.3401203E-1,-6.07791E-1,7.760699E-2,5.060105E-1,-5.051842E-1,-8.54023E-1,-1.5281908E-1,-5.4879296E-1,2.2485936E-1,-3.514515E-1,3.354721E-1,6.293813E-1,-1.9669457E-1,-5.6611717E-1,1.7661962E-1,-3.099169E-1,8.9540607E-1,2.4666019E-1,1.0796752E0,1.1975486E-1,-2.1125452E-1,3.4772176E-1,5.393888E-1,2.2118673E-1,-5.696928E-2,-3.0350804E-2,-4.587486E-2,-2.3429645E-2,-2.601873E-2,-4.1454673E-2,-3.894896E-2,-5.277705E-2,-2.4411889E-2,-1.0168841E-2,-3.417584E-2,-4.5940842E-2,-4.151682E-2,-3.1306814E-2,-3.8285382E-2,-5.2876115E-2,-1.0717225E-2,4.23092E-3,-3.529446E-2,-1.8567186E-2,-8.970384E-3,7.220931E-3,2.7073324E-2,-8.794977E-3,-2.713688E-2,-1.0151117E-2,-4.7467705E-2,-3.0414214E-2,-5.3713173E-3,-2.9237542E-2,-3.8671385E-2,-2.4241297E-2,2.9757096E-2,8.530505E-3,-5.5673774E-3,-2.3290759E-2,2.3838505E-2,9.476041E-3,2.5917267E-2,3.7607085E-2,-5.8279615E-3,-2.0917295E-2,1.0225279E-3,-3.09386E-2,2.918039E-3,1.7009549E-2,-1.122148E-2,-3.17252E-2,4.9399383E-2,3.673298E-2,2.0439807E-2,-4.237934E-3,4.8065003E-2,5.952338E-2,-9.1353655E-3,1.9531E-2,1.2112529E-3,-1.6077125E-2,3.9023362E-2,1.3471845E-3,3.256814E-2,1.1621049E-2,3.596731E-4,1.9490264E-2],"categories":[],"categories_nodes":[],"categories_segments":[],"categories_sizes":[],"default_left":[0,0,0,0,0,0,0,0,0,0,0,0,0,0,0,0,0,0,0,0,0,0,0,0,0,0,0,0,0,0,0,0,0,0,0,0,0,0,0,0,0,0,0,0,0,0,0,0,0,0,0,0,0,0,0,0,0,0,0,0,0,0,0,0,0,0,0,0,0,0,0,0,0,0,0,0,0,0,0,0,0,0,0,0,0,0,0,0,0,0,0,0,0,0,0,0,0,0,0,0,0,0,0,0,0,0,0,0,0,0,0,0,0,0,0,0,0,0,0,0,0,0,0,0,0,0,0],"id":10,"left_children":[1,3,5,7,9,11,13,15,17,19,21,23,25,27,29,31,33,35,37,39,41,43,45,47,49,51,53,55,57,59,61,63,65,67,69,71,73,75,77,79,81,83,85,87,89,91,93,95,97,99,101,103,105,107,109,111,113,115,117,119,121,123,125,-1,-1,-1,-1,-1,-1,-1,-1,-1,-1,-1,-1,-1,-1,-1,-1,-1,-1,-1,-1,-1,-1,-1,-1,-1,-1,-1,-1,-1,-1,-1,-1,-1,-1,-1,-1,-1,-1,-1,-1,-1,-1,-1,-1,-1,-1,-1,-1,-1,-1,-1,-1,-1,-1,-1,-1,-1,-1,-1,-1,-1,-1,-1,-1],"loss_changes":[4.6579508E4,5.857994E3,5.31892E3,9.000078E2,1.8457625E3,2.5798625E3,5.216834E3,1.2956152E2,5.7380176E2,9.8067145E2,4.938789E2,5.430923E2,3.6537396E2,1.4311992E3,9.031881E2,5.605127E1,8.7475586E1,3.7319434E2,1.3930566E2,4.9018402E2,3.6579236E2,1.5693408E2,5.4842444E2,2.3999872E2,4.4736914E2,1.5921948E2,3.6587726E2,1.9161748E3,1.6010801E3,4.9376767E2,2.6232336E2,1.7040894E1,6.3094727E1,3.974518E1,6.2492188E1,3.078125E2,4.6867188E1,9.8700195E1,2.4062988E1,4.0684305E2,5.5151794E1,1.751098E2,6.0211975E1,1.319292E2,3.2813843E1,2.1016548E2,7.36012E1,1.1992682E2,2.220713E1,2.1580957E2,1.3890503E2,1.0918573E2,4.4872467E1,1.0780083E2,5.8721176E1,1.7771777E2,3.9380316E2,3.1178125E2,1.5387775E2,1.3691942E2,3.1295978E2,2.1623828E2,1.5902373E2,0E0,0E0,0E0,0E0,0E0,0E0,0E0,0E0,0E0,0E0,0E0,0E0,0E0,0E0,0E0,0E0,0E0,0E0,0E0,0E0,0E0,0E0,0E0,0E0,0E0,0E0,0E0,0E0,0E0,0E0,0E0,0E0,0E0,0E0,0E0,0E0,0E0,0E0,0E0,0E0,0E0,0E0,0E0,0E0,0E0,0E0,0E0,0E0,0E0,0E0,0E0,0E0,0E0,0E0,0E0,0E0,0E0,0E0,0E0,0E0,0E0,0E0,0E0,0E0],"parents":[2147483647,0,0,1,1,2,2,3,3,4,4,5,5,6,6,7,7,8,8,9,9,10,10,11,11,12,12,13,13,14,14,15,15,16,16,17,17,18,18,19,19,20,20,21,21,22,22,23,23,24,24,25,25,26,26,27,27,28,28,29,29,30,30,31,31,32,32,33,33,34,34,35,35,36,36,37,37,38,38,39,39,40,40,41,41,42,42,43,43,44,44,45,45,46,46,47,47,48,48,49,49,50,50,51,51,52,52,53,53,54,54,55,55,56,56,57,57,58,58,59,59,60,60,61,61,62,62],"right_children":[2,4,6,8,10,12,14,16,18,20,22,24,26,28,30,32,34,36,38,40,42,44,46,48,50,52,54,56,58,60,62,64,66,68,70,72,74,76,78,80,82,84,86,88,90,92,94,96,98,100,102,104,106,108,110,112,114,116,118,120,122,124,126,-1,-1,-1,-1,-1,-1,-1,-1,-1,-1,-1,-1,-1,-1,-1,-1,-1,-1,-1,-1,-1,-1,-1,-1,-1,-1,-1,-1,-1,-1,-1,-1,-1,-1,-1,-1,-1,-1,-1,-1,-1,-1,-1,-1,-1,-1,-1,-1,-1,-1,-1,-1,-1,-1,-1,-1,-1,-1,-1,-1,-1,-1,-1,-1],"split_conditions":[2.480266E3,2.1082373E3,2.7409392E3,1.7896555E3,8.838105E2,1.1506747E3,-1.5108919E-1,1.4952714E3,7.6119385E2,2.3374756E3,2.3148782E3,1.4045778E3,2.621778E3,2.934609E3,1.0007108E3,-6.77E-2,-3.684E-1,5.121E-1,5.56E-1,6.644E-1,1.8884775E3,6.492E-1,1.1627577E3,1.111445E-1,2.5928425E3,4.277E-1,1.443034E3,1.3214485E3,3.7866172E3,2.029445E3,3.5920752E3,4.392596E0,-8.622459E-2,-1.694E-1,5.8E-1,3.8035137E3,9.335E-1,1.7572675E3,-1.783E-1,1.5841371E3,1.5079592E3,1.084261E3,9.03E-1,2.0551538E3,1.3752323E3,6.974E-1,1.8497716E3,-5.194E-1,2.2703777E-1,8.67475E2,1.2337859E3,1.3874939E3,-5.503E-1,1.2337859E3,3.877E-1,1.1109558E3,1.5731578E3,3.1141316E3,1.3982726E3,3.077878E3,3.2590027E3,1.7798077E-1,1.4088839E3,-5.696928E-2,-3.0350804E-2,-4.587486E-2,-2.3429645E-2,-2.601873E-2,-4.1454673E-2,-3.894896E-2,-5.277705E-2,-2.4411889E-2,-1.0168841E-2,-3.417584E-2,-4.5940842E-2,-4.151682E-2,-3.1306814E-2,-3.8285382E-2,-5.2876115E-2,-1.0717225E-2,4.23092E-3,-3.529446E-2,-1.8567186E-2,-8.970384E-3,7.220931E-3,2.7073324E-2,-8.794977E-3,-2.713688E-2,-1.0151117E-2,-4.7467705E-2,-3.0414214E-2,-5.3713173E-3,-2.9237542E-2,-3.8671385E-2,-2.4241297E-2,2.9757096E-2,8.530505E-3,-5.5673774E-3,-2.3290759E-2,2.3838505E-2,9.476041E-3,2.5917267E-2,3.7607085E-2,-5.8279615E-3,-2.0917295E-2,1.0225279E-3,-3.09386E-2,2.918039E-3,1.7009549E-2,-1.122148E-2,-3.17252E-2,4.9399383E-2,3.673298E-2,2.0439807E-2,-4.237934E-3,4.8065003E-2,5.952338E-2,-9.1353655E-3,1.9531E-2,1.2112529E-3,-1.6077125E-2,3.9023362E-2,1.3471845E-3,3.256814E-2,1.1621049E-2,3.596731E-4,1.9490264E-2],"split_indices":[1,1,1,1,4,4,15,23,4,1,1,23,1,1,4,19,25,35,35,35,9,35,4,15,1,35,4,4,1,23,1,27,29,35,35,5,35,23,25,9,9,23,35,9,9,35,23,25,15,4,9,4,25,9,35,4,4,1,4,1,1,15,4,0,0,0,0,0,0,0,0,0,0,0,0,0,0,0,0,0,0,0,0,0,0,0,0,0,0,0,0,0,0,0,0,0,0,0,0,0,0,0,0,0,0,0,0,0,0,0,0,0,0,0,0,0,0,0,0,0,0,0,0,0,0,0,0],"split_type":[0,0,0,0,0,0,0,0,0,0,0,0,0,0,0,0,0,0,0,0,0,0,0,0,0,0,0,0,0,0,0,0,0,0,0,0,0,0,0,0,0,0,0,0,0,0,0,0,0,0,0,0,0,0,0,0,0,0,0,0,0,0,0,0,0,0,0,0,0,0,0,0,0,0,0,0,0,0,0,0,0,0,0,0,0,0,0,0,0,0,0,0,0,0,0,0,0,0,0,0,0,0,0,0,0,0,0,0,0,0,0,0,0,0,0,0,0,0,0,0,0,0,0,0,0,0,0],"sum_hessian":[2.3130545E5,1.2499018E5,1.06315266E5,5.769018E4,6.73E4,4.288718E4,6.3428086E4,1.8139732E4,3.9550445E4,3.8244207E4,2.9055795E4,2.7562436E4,1.5324745E4,4.5187426E4,1.824066E4,6.9549033E3,1.1184828E4,2.6818838E4,1.2731609E4,2.5570154E4,1.267405E4,1.3125777E4,1.5930017E4,6.8134536E3,2.0748982E4,7.605684E3,7.7190605E3,1.93713E4,2.5816127E4,7.521641E3,1.0719019E4,1.4522979E3,5.5026055E3,2.4081104E3,8.776719E3,2.3009037E4,3.8098005E3,1.094253E4,1.7890792E3,2.315889E4,2.411265E3,1.019617E4,2.4778804E3,1.1668173E4,1.4576049E3,1.0738994E4,5.1910225E3,5.9933228E3,8.2013104E2,1.048424E4,1.0264742E4,6.16392E3,1.4417642E3,5.583227E3,2.1358335E3,1.2047331E4,7.3239697E3,2.3941023E4,1.8751027E3,5.2650757E3,2.2565654E3,6.307303E3,4.4117153E3,1.3813021E3,7.099578E1,5.160814E3,3.417911E2,1.8546545E3,5.5345575E2,7.841781E3,9.349373E2,1.8206377E4,4.80266E3,2.4639255E3,1.3458749E3,3.5393716E3,7.403158E3,3.9037903E2,1.3987002E3,1.6937693E4,6.221196E3,1.7013163E3,7.099486E2,2.1017754E3,8.0943945E3,2.3563032E3,1.2157712E2,1.0376148E4,1.2920243E3,1.0466665E3,4.109384E2,9.719912E3,1.0190825E3,1.1463712E3,4.0446511E3,7.634113E2,5.229911E3,2.666504E2,5.5348065E2,5.324147E3,5.1600933E3,5.3946304E3,4.8701113E3,4.529952E3,1.6339678E3,1.1803095E2,1.3237333E3,3.2430093E3,2.3402178E3,1.693139E3,4.426945E2,7.63926E3,4.4080713E3,4.918855E3,2.405115E3,1.1581297E4,1.2359727E4,8.851629E2,9.899397E2,1.6781813E3,3.5868945E3,9.5935547E2,1.2972098E3,4.619483E3,1.6878202E3,1.9460267E3,2.4656885E3],"tree_param":{"num_deleted":"0","num_feature":"49","num_nodes":"127","size_leaf_vector":"1"}},{"base_weights":[1.2760278E-3,-3.4446898E-1,5.323929E-1,-5.723139E-1,-1.1313015E-1,6.300849E-1,1.5355465E-1,-7.51581E-1,-4.6550316E-1,-1.2606742E-2,-3.9278263E-1,3.5375142E-1,8.639546E-1,1.3754306E-3,3.8644814E-1,-8.102889E-1,-6.229159E-1,-3.540052E-1,-6.202297E-1,-1.6892649E-1,1.5421103E-1,-5.314813E-1,-2.75813E-1,5.2531505E-1,-7.856437E-2,9.1858035E-1,6.521367E-2,-1.5645799E-1,2.1046646E-1,7.995322E-2,4.702162E-1,-6.454801E-1,-8.415078E-1,-3.4974435E-1,-6.706501E-1,-4.9124825E-1,-2.3210342E-1,-5.756068E-1,-8.924218E-1,-1.2472175E-1,-5.817628E-1,8.693984E-2,4.689545E-1,-2.8193772E-1,-6.0090685E-1,-1.2671335E-1,-4.1832805E-1,3.991531E-1,7.068034E-1,5.7326768E-2,-2.986577E-1,7.6669693E-1,1.0939542E0,-2.3762195E-1,3.114532E-1,1.4247004E-2,-2.999176E-1,4.071131E-1,-6.0165748E-2,1.676334E-1,-2.8267607E-1,6.2521154E-1,3.2664105E-1,-2.6789773E-2,-3.9603677E-2,-4.5178782E-2,-3.8118657E-2,-9.718402E-3,-2.9603198E-2,-3.1775687E-2,-5.0890297E-2,-2.2435628E-2,-3.8588043E-2,-9.089115E-3,-2.5727605E-2,-2.6477193E-2,-4.345116E-2,-5.4919112E-2,-4.1841976E-2,1.905049E-4,-1.1961637E-2,-3.1701166E-2,-7.876973E-3,6.455625E-3,-1.4551781E-2,2.6377914E-2,7.287433E-3,-7.81805E-3,-2.3612356E-2,-2.444368E-2,-3.6480293E-2,-2.0103098E-3,-1.6175611E-2,-1.7074326E-2,-3.489859E-2,2.6594374E-2,8.906761E-3,3.1185219E-2,4.6161406E-2,-6.528474E-3,1.2369694E-2,-2.3378173E-2,-8.178464E-3,4.663376E-2,1.2727137E-2,2.4164386E-2,5.7095613E-2,-1.8486077E-2,-1.166702E-3,3.4562495E-2,8.236141E-3,9.0517495E-3,-1.1229868E-2,-3.8363095E-3,-2.0556498E-2,3.0237768E-2,9.623619E-3,-2.7172503E-4,-4.1533764E-2,-2.1811721E-3,1.53157115E-2,-7.845837E-3,-4.4569533E-2,3.567265E-2,1.450849E-2,1.8493284E-2,-1.2269293E-2],"categories":[],"categories_nodes":[],"categories_segments":[],"categories_sizes":[],"default_left":[0,0,0,0,0,0,0,0,0,0,0,0,0,0,0,0,0,0,0,0,0,0,0,0,0,0,0,0,0,0,0,0,0,0,0,0,0,0,0,0,0,0,0,0,0,0,0,0,0,0,0,0,0,0,0,0,0,0,0,0,0,0,0,0,0,0,0,0,0,0,0,0,0,0,0,0,0,0,0,0,0,0,0,0,0,0,0,0,0,0,0,0,0,0,0,0,0,0,0,0,0,0,0,0,0,0,0,0,0,0,0,0,0,0,0,0,0,0,0,0,0,0,0,0,0,0,0],"id":11,"left_children":[1,3,5,7,9,11,13,15,17,19,21,23,25,27,29,31,33,35,37,39,41,43,45,47,49,51,53,55,57,59,61,63,65,67,69,71,73,75,77,79,81,83,85,87,89,91,93,95,97,99,101,103,105,107,109,111,113,115,117,119,121,123,125,-1,-1,-1,-1,-1,-1,-1,-1,-1,-1,-1,-1,-1,-1,-1,-1,-1,-1,-1,-1,-1,-1,-1,-1,-1,-1,-1,-1,-1,-1,-1,-1,-1,-1,-1,-1,-1,-1,-1,-1,-1,-1,-1,-1,-1,-1,-1,-1,-1,-1,-1,-1,-1,-1,-1,-1,-1,-1,-1,-1,-1,-1,-1,-1],"loss_changes":[4.2310938E4,7.355742E3,3.3618848E3,1.3453125E3,1.9465693E3,4.666705E3,6.5999634E2,1.9704492E2,7.59458E2,1.3284694E3,2.964978E2,2.4559932E3,1.7061719E3,3.7193277E2,1.8865808E2,9.141797E1,1.0658374E2,4.280376E2,2.228584E2,4.7955035E2,5.2145087E2,1.4446191E2,2.1082397E2,5.4191504E2,2.8147614E2,9.7344336E2,1.8695306E2,1.5737926E2,2.5825085E2,5.0300613E1,1.279209E2,4.5160034E1,7.2853516E1,4.572635E1,8.395947E1,1.4277002E2,1.9241046E2,2.1315234E2,2.7824707E1,3.4981937E2,5.5870728E1,3.2363843E2,8.17525E1,4.3251495E1,9.345654E1,8.253458E1,1.0837018E2,4.0989258E2,1.7341943E2,2.077683E2,8.1575714E1,1.6674053E3,4.961543E2,3.159304E1,7.654468E1,1.16786736E2,8.635861E1,1.186705E2,8.562215E1,3.752714E1,2.286474E1,8.136755E1,7.442267E1,0E0,0E0,0E0,0E0,0E0,0E0,0E0,0E0,0E0,0E0,0E0,0E0,0E0,0E0,0E0,0E0,0E0,0E0,0E0,0E0,0E0,0E0,0E0,0E0,0E0,0E0,0E0,0E0,0E0,0E0,0E0,0E0,0E0,0E0,0E0,0E0,0E0,0E0,0E0,0E0,0E0,0E0,0E0,0E0,0E0,0E0,0E0,0E0,0E0,0E0,0E0,0E0,0E0,0E0,0E0,0E0,0E0,0E0,0E0,0E0,0E0,0E0,0E0,0E0],"parents":[2147483647,0,0,1,1,2,2,3,3,4,4,5,5,6,6,7,7,8,8,9,9,10,10,11,11,12,12,13,13,14,14,15,15,16,16,17,17,18,18,19,19,20,20,21,21,22,22,23,23,24,24,25,25,26,26,27,27,28,28,29,29,30,30,31,31,32,32,33,33,34,34,35,35,36,36,37,37,38,38,39,39,40,40,41,41,42,42,43,43,44,44,45,45,46,46,47,47,48,48,49,49,50,50,51,51,52,52,53,53,54,54,55,55,56,56,57,57,58,58,59,59,60,60,61,61,62,62],"right_children":[2,4,6,8,10,12,14,16,18,20,22,24,26,28,30,32,34,36,38,40,42,44,46,48,50,52,54,56,58,60,62,64,66,68,70,72,74,76,78,80,82,84,86,88,90,92,94,96,98,100,102,104,106,108,110,112,114,116,118,120,122,124,126,-1,-1,-1,-1,-1,-1,-1,-1,-1,-1,-1,-1,-1,-1,-1,-1,-1,-1,-1,-1,-1,-1,-1,-1,-1,-1,-1,-1,-1,-1,-1,-1,-1,-1,-1,-1,-1,-1,-1,-1,-1,-1,-1,-1,-1,-1,-1,-1,-1,-1,-1,-1,-1,-1,-1,-1,-1,-1,-1,-1,-1,-1,-1,-1],"split_conditions":[2.5645999E3,2.1855908E3,-9.509003E-2,1.8765111E3,1.0634385E3,2.8132847E3,1.2008672E3,5.5523296E3,7.456041E2,2.3608665E3,2.4119521E3,1.2796057E3,3.7866172E3,8.2707825E2,2.9007224E3,-4.518E-1,-4.518E-1,4.556141E3,5.389E-1,6.644E-1,1.9667593E3,-3.736E-1,1.2141626E3,2.6914353E3,1.4680759E3,3.0443127E3,1.2564281E3,3.0608538E3,3.4608367E3,1.5235636E3,3.5920752E3,-2.765E-1,1.7425228E3,-3.726E-1,5.876E-1,6.342E-1,4.222E-1,5.8E-1,6.443856E2,7.339308E2,3.0286428E3,6.342E-1,4.819E-1,-1.96E-1,1.1752856E3,1.795E-1,3.801E-1,1.0387815E3,1.6709407E3,2.6914353E3,2.7049922E3,1.5087166E3,2.7185203E3,1.01677673E3,4.0646516E3,1.7798077E-1,-2.433E-1,3.2469863E-1,4.596E-1,2.69816E3,3.3E-1,2.791785E-1,4.724E-1,-2.6789773E-2,-3.9603677E-2,-4.5178782E-2,-3.8118657E-2,-9.718402E-3,-2.9603198E-2,-3.1775687E-2,-5.0890297E-2,-2.2435628E-2,-3.8588043E-2,-9.089115E-3,-2.5727605E-2,-2.6477193E-2,-4.345116E-2,-5.4919112E-2,-4.1841976E-2,1.905049E-4,-1.1961637E-2,-3.1701166E-2,-7.876973E-3,6.455625E-3,-1.4551781E-2,2.6377914E-2,7.287433E-3,-7.81805E-3,-2.3612356E-2,-2.444368E-2,-3.6480293E-2,-2.0103098E-3,-1.6175611E-2,-1.7074326E-2,-3.489859E-2,2.6594374E-2,8.906761E-3,3.1185219E-2,4.6161406E-2,-6.528474E-3,1.2369694E-2,-2.3378173E-2,-8.178464E-3,4.663376E-2,1.2727137E-2,2.4164386E-2,5.7095613E-2,-1.8486077E-2,-1.166702E-3,3.4562495E-2,8.236141E-3,9.0517495E-3,-1.1229868E-2,-3.8363095E-3,-2.0556498E-2,3.0237768E-2,9.623619E-3,-2.7172503E-4,-4.1533764E-2,-2.1811721E-3,1.53157115E-2,-7.845837E-3,-4.4569533E-2,3.567265E-2,1.450849E-2,1.8493284E-2,-1.2269293E-2],"split_indices":[1,1,15,1,4,1,4,2,4,1,1,4,1,10,1,25,25,2,28,35,9,25,4,1,4,1,4,1,1,4,1,28,1,28,28,35,28,35,10,4,34,35,35,28,4,25,35,4,9,1,1,4,2,10,1,15,25,17,25,1,25,15,35,0,0,0,0,0,0,0,0,0,0,0,0,0,0,0,0,0,0,0,0,0,0,0,0,0,0,0,0,0,0,0,0,0,0,0,0,0,0,0,0,0,0,0,0,0,0,0,0,0,0,0,0,0,0,0,0,0,0,0,0,0,0,0,0],"split_type":[0,0,0,0,0,0,0,0,0,0,0,0,0,0,0,0,0,0,0,0,0,0,0,0,0,0,0,0,0,0,0,0,0,0,0,0,0,0,0,0,0,0,0,0,0,0,0,0,0,0,0,0,0,0,0,0,0,0,0,0,0,0,0,0,0,0,0,0,0,0,0,0,0,0,0,0,0,0,0,0,0,0,0,0,0,0,0,0,0,0,0,0,0,0,0,0,0,0,0,0,0,0,0,0,0,0,0,0,0,0,0,0,0,0,0,0,0,0,0,0,0,0,0,0,0,0,0],"sum_hessian":[2.304103E5,1.395596E5,9.08507E4,7.0308914E4,6.925068E4,7.222411E4,1.8626594E4,2.624671E4,4.4062203E4,5.0941992E4,1.830869E4,3.310861E4,3.91155E4,1.1267345E4,7.35925E3,1.801676E4,8.22995E3,2.5612223E4,1.844998E4,2.6300033E4,2.4641959E4,8.372745E3,9.935943E3,2.3703047E4,9.405563E3,3.661091E4,2.5045906E3,6.41945E3,4.847894E3,1.581328E3,5.777922E3,2.8753074E3,1.5141453E4,1.226988E3,7.0029624E3,1.2044639E4,1.3567585E4,1.5855584E4,2.594396E3,2.3758578E4,2.5414536E3,2.0304973E4,4.336986E3,1.8250458E3,6.547699E3,4.8584326E3,5.0775107E3,1.398636E4,9.716687E3,5.8141987E3,3.5913645E3,1.9623822E4,1.6987086E4,1.1223196E3,1.3822709E3,2.9301873E3,3.4892632E3,2.8085154E3,2.0393788E3,1.2749695E3,3.063585E2,2.775172E3,3.0027498E3,1.6493168E3,1.2259906E3,8.476402E3,6.665051E3,7.499699E2,4.7701813E2,6.3631997E3,6.397625E2,1.0462527E4,1.5821106E3,1.1518806E4,2.048779E3,1.3708083E4,2.1475002E3,5.4545465E2,2.0489414E3,1.1192385E4,1.2566194E4,2.2612185E3,2.802353E2,1.8268629E4,2.0363429E3,3.6694597E3,6.675262E2,1.1022009E3,7.228448E2,3.5051394E3,3.04256E3,3.3775176E3,1.4809152E3,3.9861821E3,1.0913286E3,8.736129E3,5.2502314E3,7.0253916E3,2.6912952E3,2.9226313E3,2.8915676E3,1.5931858E3,1.9981786E3,1.4819379E4,4.804444E3,1.2384858E3,1.5748601E4,6.924156E2,4.2990405E2,3.8322174E2,9.990492E2,1.7267274E3,1.2034597E3,1.1624781E3,2.326785E3,1.4599965E3,1.3485188E3,1.9056703E3,1.337086E2,5.0411514E2,7.708543E2,2.5562584E2,5.0732647E1,2.194559E3,5.8061304E2,2.7929321E3,2.0981749E2],"tree_param":{"num_deleted":"0","num_feature":"49","num_nodes":"127","size_leaf_vector":"1"}},{"base_weights":[4.804022E-6,-3.7848434E-1,4.4075012E-1,-6.338955E-1,-2.3017949E-1,1.9385278E-1,6.131988E-1,-5.185028E-1,-8.1491196E-1,-1.0801886E-1,-4.925831E-1,3.0579257E-1,-1.8663868E-1,7.7728164E-1,1.7021075E-1,-6.9106627E-1,-4.3018788E-1,-8.766925E-1,-5.685505E-1,-6.997752E-2,-5.184637E-1,-6.435806E-1,-3.205962E-1,3.5599563E-1,-3.775724E-2,-3.4659111E-1,4.8124745E-2,8.7307316E-1,4.6415627E-1,3.5956585E-1,-1.413993E-1,-8.5845613E-1,-6.2916845E-1,-3.8133353E-1,-7.463184E-1,-7.6625866E-1,-9.438486E-1,-5.288346E-1,-1.0384835E0,-1.9716036E-1,4.7256935E-2,-6.015712E-1,-3.8213882E-1,-5.6605095E-1,-8.1213456E-1,-4.2256635E-1,-1.5104143E-1,2.454108E-1,5.009806E-1,-1.5371333E-1,1.3855515E-1,-3.0486625E-1,-8.2150644E-1,-3.584084E-1,1.01288594E-1,7.026802E-1,1.0097978E0,-2.1334628E-2,5.859595E-1,1.7947172E-1,5.547521E-1,-2.838691E-1,2.3713253E-1,-5.9629288E-2,-4.1078027E-2,-2.469304E-2,-3.5761144E-2,-1.6923608E-2,-3.6806136E-2,-3.2930516E-2,-4.6282124E-2,-4.6713784E-2,-3.5839647E-2,-4.8590988E-2,-3.7184887E-2,-4.0075425E-2,-2.2834253E-2,-5.403573E-2,-4.8620547E-3,-7.5730653E-3,-2.389419E-2,3.9474983E-3,-1.978418E-2,-1.3684891E-2,-3.2036085E-2,-2.4158819E-2,-4.336816E-3,-3.139798E-2,-1.8499231E-2,-4.8784655E-2,-3.642578E-2,-1.32821E-2,-2.66878E-2,6.750031E-3,-1.0775339E-2,1.8293943E-2,7.08504E-3,2.7050251E-2,8.315145E-3,1.22719575E-2,-1.0917789E-2,8.268004E-3,-4.4797E-2,-9.91419E-3,-2.3532128E-2,-4.3767285E-2,5.533875E-3,3.9360553E-2,-2.1064786E-2,7.969374E-3,-1.3610551E-2,3.722251E-2,1.8992417E-2,5.3756345E-2,9.612417E-3,-2.033353E-2,3.5498762E-3,1.7655574E-2,4.1586917E-2,1.1654387E-2,-1.1919398E-2,3.5427194E-2,1.6766444E-2,-8.293579E-3,-2.5841458E-2,-9.644307E-3,1.7603884E-2],"categories":[],"categories_nodes":[],"categories_segments":[],"categories_sizes":[],"default_left":[0,0,0,0,0,0,0,0,0,0,0,0,0,0,0,0,0,0,0,0,0,0,0,0,0,0,0,0,0,0,0,0,0,0,0,0,0,0,0,0,0,0,