{"learner":{"attributes":{},"feature_names":["delz","nTracks","pion_ProbNNpi","kaon_IPCHI2_OWNPV","kaon_PX","mu_minus_ProbNNp","B0_pmu_TR3_CH","max_mu_P","mu_plus_PT","B0_pmu_TR4_PZ","kaon_PY","B0_OWNPV_NDOF","jpsi_FDCHI2_OWNPV","kaon_ProbNNghost","B0_M","mu_minus_PX","B0_pmu_TR1_PZ","M_missing","kstar_P","kstar_PX","max_mu_ETA","B0_pmu_TR2_CH","B0_pmu_TR3_PX","kaon_P","pion_PX","B0_PT","mu_plus_ProbNNmu","B0_pmu_ISOLATION_BDT2","mu_minus_ProbNNk","kaon_ProbNNmu","jpsi_DIRA_OWNPV","kstar_DIRA_OWNPV","mu_minus_ProbNNpi","B0_pmu_TR1_PX","mu_minus_ProbNNghost","jpsi_M","B0_P","kaon_ProbNNpi","mu_minus_PY","mu_minus_ProbNNe","mu_plus_PY","mu_plus_ProbNNe","min_mu_PT","B0_IP_OWNPV","jpsi_P","kaon_ProbNNe","pion_IPCHI2_OWNPV","kstar_ENDVERTEX_CHI2","mu_plus_PX","mu_minus_PT","B0_pmu_TR4_CH","mu_plus_ETA","B0_IPCHI2_OWNPV","kaon_ProbNNp","mu_plus_IPCHI2_OWNPV","kstar_PY","nSPDHits","B0_pmu_TR3_PY","tau_fd_p","pion_ProbNNmu","B0_pmu_TR4_PX","pion_ProbNNe","B0_pmu_ISOLATION_BDT1","B0_pmu_TR1_PY","mu_plus_ProbNNk","kstar_IPCHI2_OWNPV","B0_DIRA_OWNPV","B0_pmu_TR2_PZ","B0_pmu_TR3_PZ","mu_minus_IPCHI2_OWNPV","B0_FDCHI2_OWNPV","pion_P","mu_plus_ProbNNp","pion_ProbNNp","jpsi_PT","B0_PX","max_mu_PZ","B0_pmu_ISOLATION_BDT3","kstar_PT","mu_plus_ProbNNghost","pion_PY","mu_minus_ProbNNmu","mu_minus_ETA","mu_minus_P","pion_PT","B0_pmu_TR2_PY","jpsi_ENDVERTEX_CHI2","kaon_PT","mu_plus_P","Q_square","kaon_ETA","pion_ProbNNk","B0_pmu_TR2_PX","B0_ENDVERTEX_CHI2","B0_pmu_TR4_PY","kstar_FDCHI2_OWNPV","kaon_ProbNNk","B0_pmu_TR1_CH","mu_plus_ProbNNpi","nPV","tau_fd_m","B0_pmu_ISOLATION_BDT4","min_mu_PE","pion_ETA","B0_PY","pion_ProbNNghost"],"feature_types":["float","int","float","float","float","float","int","float","float","float","float","int","float","float","float","float","float","float","float","float","float","int","float","float","float","float","float","float","float","float","float","float","float","float","float","float","float","float","float","float","float","float","float","float","float","float","float","float","float","float","int","float","float","float","float","float","int","float","float","float","float","float","float","float","float","float","float","float","float","float","float","float","float","float","float","float","float","float","float","float","float","float","float","float","float","float","float","float","float","float","float","float","float","float","float","float","float","int","float","int","float","float","float","float","float","float"],"gradient_booster":{"model":{"gbtree_model_param":{"num_parallel_tree":"1","num_trees":"200"},"iteration_indptr":[0,1,2,3,4,5,6,7,8,9,10,11,12,13,14,15,16,17,18,19,20,21,22,23,24,25,26,27,28,29,30,31,32,33,34,35,36,37,38,39,40,41,42,43,44,45,46,47,48,49,50,51,52,53,54,55,56,57,58,59,60,61,62,63,64,65,66,67,68,69,70,71,72,73,74,75,76,77,78,79,80,81,82,83,84,85,86,87,88,89,90,91,92,93,94,95,96,97,98,99,100,101,102,103,104,105,106,107,108,109,110,111,112,113,114,115,116,117,118,119,120,121,122,123,124,125,126,127,128,129,130,131,132,133,134,135,136,137,138,139,140,141,142,143,144,145,146,147,148,149,150,151,152,153,154,155,156,157,158,159,160,161,162,163,164,165,166,167,168,169,170,171,172,173,174,175,176,177,178,179,180,181,182,183,184,185,186,187,188,189,190,191,192,193,194,195,196,197,198,199,200],"tree_info":[0,0,0,0,0,0,0,0,0,0,0,0,0,0,0,0,0,0,0,0,0,0,0,0,0,0,0,0,0,0,0,0,0,0,0,0,0,0,0,0,0,0,0,0,0,0,0,0,0,0,0,0,0,0,0,0,0,0,0,0,0,0,0,0,0,0,0,0,0,0,0,0,0,0,0,0,0,0,0,0,0,0,0,0,0,0,0,0,0,0,0,0,0,0,0,0,0,0,0,0,0,0,0,0,0,0,0,0,0,0,0,0,0,0,0,0,0,0,0,0,0,0,0,0,0,0,0,0,0,0,0,0,0,0,0,0,0,0,0,0,0,0,0,0,0,0,0,0,0,0,0,0,0,0,0,0,0,0,0,0,0,0,0,0,0,0,0,0,0,0,0,0,0,0,0,0,0,0,0,0,0,0,0,0,0,0,0,0,0,0,0,0,0,0,0,0,0,0,0,0],"trees":[{"base_weights":[-9.3088835E-4,-5.4870516E-1,6.826804E-1,-1.2632643E-1,-1.1094769E0,1.1165476E0,-7.364035E-2,1.7081521E-1,-6.828754E-1,-7.735939E-1,-1.4150476E0,7.5801307E-1,1.4648376E0,3.4714037E-1,-5.1980484E-1,-2.5361484E-1,3.9851967E-1,-4.494045E-1,-1.0170308E0,-5.1200026E-1,-1.0029302E0,-1.1922951E0,-1.5356518E0,1.0081087E0,1.5473022E-1,1.5764229E0,8.8389826E-1,-4.270879E-2,6.3875806E-1,-8.784511E-1,-2.4233408E-1,-4.5154613E-1,1.6244281E-2,2.396415E-1,7.038893E-1,-7.724719E-1,-2.1066713E-1,-1.1958866E0,-6.1520916E-1,-7.4839944E-1,-1.6004142E-1,-1.2013047E0,-7.967779E-1,-1.341116E0,-8.6022687E-1,-1.3865687E0,-1.6378789E0,1.1109631E0,6.767243E-1,4.531037E-1,-2.2677603E-1,1.5940893E0,7.204295E-2,1.0391963E0,1.2725344E-1,2.6986447E-1,-2.9791725E-1,1.0343792E0,4.219243E-1,-5.993579E-1,-1.099153E0,-4.508736E-1,1.4655586E-1,-5.726445E-1,-1.4656992E-1,-2.3003472E-1,2.2421421E-1,4.84628E-1,5.540846E-2,8.163461E-1,3.5296163E-1,-4.538827E-1,-1.056271E0,3.0480233E-1,-3.6427364E-1,-8.9961344E-1,-1.4281161E0,-3.177339E-1,-1.127257E0,-9.939738E-1,-5.0389075E-1,-3.4585086E-1,2.1851188E-1,-1.2736385E0,-6.1946106E-1,-8.4521985E-1,-7.166731E-2,-1.4420831E0,-1.078523E0,-6.46198E-1,-1.1739684E0,-1.4952159E0,-1.1086578E0,-1.6744134E0,-1.2540405E0,9.342987E-1,1.2738298E0,8.18616E-1,2.675553E-1,6.861196E-2,7.3252374E-1,-6.396071E-1,6.5907374E-2,1.4226916E0,1.7415396E0,3.190266E-1,-2.229287E-1,5.3458107E-1,1.2669239E0,-2.8215197E-1,6.3305527E-1,1.1385197E-1,8.001958E-1,-3.848999E-1,1.9729473E-1,7.265676E-1,1.3484921E0,3.5567033E-1,9.796745E-1,-8.7101865E-1,-1.1964333E-1,-1.2964263E0,-8.5275173E-1,-6.9161075E-1,-1.2658192E-1,4.926314E-1,-1.141885E-1,-1.8607434E-2,-5.3235102E-2,1.007159E-2,-2.4987025E-2,-3.914009E-2,-4.2415815E-3,3.4544242E-3,3.6582515E-2,4.580562E-2,6.942368E-3,-7.351584E-3,2.5147835E-2,4.8889797E-2,7.747166E-2,1.4987365E-2,5.6225438E-2,-6.6064643E-3,-5.1867135E-2,-6.26517E-2,-9.13693E-2,-0E0,4.5824993E-2,-4.5132767E-2,-3.9220806E-3,-9.220513E-2,-5.5713836E-2,-1.2149198E-1,-9.38673E-2,-4.7247265E-2,-0E0,-5.0873484E-2,-9.430059E-2,-8.645944E-2,-5.0231796E-2,-4.766554E-2,-3.2784317E-3,-1.5514285E-3,-4.528852E-2,3.6948198E-3,4.3764915E-2,-1.0206906E-1,-6.5603405E-2,-2.014463E-2,-6.77105E-2,-7.16702E-2,-3.487166E-2,2.9473782E-2,-1.5793212E-2,-9.7234085E-2,-1.1694718E-1,-8.899995E-2,-5.263082E-2,-5.935243E-2,-1.090838E-2,-7.050243E-2,-1.0750123E-1,-1.1469527E-1,-6.7266114E-2,-6.991229E-2,-1.0475623E-1,-1.2927024E-1,-1.0964203E-1,-7.426746E-2,-1.03712946E-1,7.8239165E-2,4.7622867E-2,8.464845E-2,1.0543076E-1,8.351658E-2,4.7956504E-2,-3.1046455E-3,5.0388616E-2,2.9153997E-2,-2.263872E-2,6.7186914E-2,7.85473E-3,-3.0366989E-2,-9.0819776E-2,2.5050037E-2,-5.3397514E-2,1.1374232E-1,7.389684E-2,1.3158192E-1,7.573566E-2,3.1921297E-2,-5.7012197E-3,-0E0,-3.8431354E-2,6.463938E-2,6.166573E-3,6.879069E-2,1.10691465E-1,3.0180195E-3,-4.7885712E-2,7.170934E-2,1.5469513E-2,-8.877775E-3,3.313106E-2,6.478754E-2,-1.6767615E-3,-3.9186567E-2,-8.914714E-3,3.599548E-2,-2.0612365E-2,6.5768E-2,2.23251E-2,1.04592085E-1,3.615326E-2,4.0824607E-2,1.1787222E-2,8.697382E-2,4.2473495E-2,-3.7273582E-2,-7.857236E-2,1.0338186E-2,-4.423493E-2,-1.0810446E-1,-7.689336E-2,-3.1962223E-2,-8.91932E-2,-3.8719848E-2,-7.2627E-2,9.972832E-3,-3.278799E-2,9.725374E-3,6.6903755E-2,6.882368E-3,-3.0179355E-2],"categories":[],"categories_nodes":[],"categories_segments":[],"categories_sizes":[],"default_left":[0,0,0,0,0,0,0,0,0,0,0,0,0,0,0,0,0,0,0,0,0,0,0,0,0,0,0,0,0,0,0,0,0,0,1,0,0,0,0,0,0,0,0,0,0,0,0,0,0,0,0,0,0,0,0,0,0,0,0,0,0,0,0,0,0,0,0,0,0,0,0,0,0,0,0,0,0,0,0,0,0,0,0,0,0,0,0,0,0,0,0,0,0,0,0,0,0,0,0,0,0,0,0,0,0,0,0,0,0,0,0,0,1,0,0,0,0,0,0,0,0,0,0,0,0,0,0,0,0,0,0,0,0,0,0,0,0,0,0,0,0,0,0,0,0,0,0,0,0,0,0,0,0,0,0,0,0,0,0,0,0,0,0,0,0,0,0,0,0,0,0,0,0,0,0,0,0,0,0,0,0,0,0,0,0,0,0,0,0,0,0,0,0,0,0,0,0,0,0,0,0,0,0,0,0,0,0,0,0,0,0,0,0,0,0,0,0,0,0,0,0,0,0,0,0,0,0,0,0,0,0,0,0,0,0,0,0,0,0,0,0,0,0,0,0,0,0,0,0,0,0,0,0,0,0],"id":0,"left_children":[1,3,5,7,9,11,13,15,17,19,21,23,25,27,29,31,33,35,37,39,41,43,45,47,49,51,53,55,57,59,61,63,65,67,69,71,73,75,77,79,81,83,85,87,89,91,93,95,97,99,101,103,105,107,109,111,113,115,117,119,121,123,125,127,129,131,133,135,137,139,141,143,145,147,149,151,153,155,157,159,161,163,165,167,169,171,173,175,177,179,181,183,185,187,189,191,193,195,197,199,201,203,205,207,209,211,213,215,217,219,221,223,225,227,229,231,233,235,237,239,241,243,245,247,249,251,253,-1,-1,-1,-1,-1,-1,-1,-1,-1,-1,-1,-1,-1,-1,-1,-1,-1,-1,-1,-1,-1,-1,-1,-1,-1,-1,-1,-1,-1,-1,-1,-1,-1,-1,-1,-1,-1,-1,-1,-1,-1,-1,-1,-1,-1,-1,-1,-1,-1,-1,-1,-1,-1,-1,-1,-1,-1,-1,-1,-1,-1,-1,-1,-1,-1,-1,-1,-1,-1,-1,-1,-1,-1,-1,-1,-1,-1,-1,-1,-1,-1,-1,-1,-1,-1,-1,-1,-1,-1,-1,-1,-1,-1,-1,-1,-1,-1,-1,-1,-1,-1,-1,-1,-1,-1,-1,-1,-1,-1,-1,-1,-1,-1,-1,-1,-1,-1,-1,-1,-1,-1,-1,-1,-1,-1,-1,-1,-1],"loss_changes":[4.7157777E4,1.6556107E4,1.8388287E4,6.606687E3,3.0772812E3,4.4403125E3,3.843086E3,2.518991E3,1.082396E3,8.5699316E2,4.1473047E2,2.6458086E3,1.1617383E3,1.2012272E3,9.864407E2,4.894828E2,8.215332E2,6.3176294E2,4.0561914E2,5.5705054E2,3.0787158E2,2.6903906E2,1.4633203E2,4.1864648E2,5.9463025E2,3.9282812E2,3.395703E2,3.6459692E2,5.1551904E2,2.6303442E2,4.606605E2,1.92323E2,2.0133748E2,5.036361E2,2.2562744E2,3.1176416E2,3.8030466E2,2.653506E2,2.6999323E2,2.3849487E2,1.9631917E2,1.5658398E2,1.27893555E2,9.453711E1,1.14656494E2,1.1920557E2,7.427832E1,2.673584E2,1.6951074E2,3.1105072E2,2.8168E2,3.6848047E2,1.9615286E1,2.7389795E2,1.17111786E2,1.6807487E2,1.1161638E2,2.0125122E2,1.4576611E2,2.492633E2,1.120376E2,2.848424E2,1.8365382E2,1.678606E2,8.492676E1,8.93308E1,9.924462E1,2.3891577E2,2.8220184E2,1.5373926E2,8.744789E1,1.4419803E2,6.2213257E1,1.08465195E2,2.7276837E2,8.7638306E1,6.709131E1,1.155091E2,3.391638E1,1.00505615E2,1.23145996E2,1.5454305E2,5.5972797E1,1.197124E2,4.3207184E1,1.4908179E2,2.1542538E1,3.9842773E1,4.1547974E1,7.579849E1,3.7400085E1,6.3668457E1,5.7007324E1,5.3362305E1,1.3434448E1,1.4986963E2,8.8788086E1,1.1369568E2,1.069303E2,1.5584915E2,1.7228131E2,1.270766E2,2.8695508E2,2.9464746E2,1.0801758E2,9.098292E0,8.771107E0,1.13686935E2,1.17565674E2,4.031878E1,3.1432854E1,1.2741212E2,3.0815186E1,7.7867584E1,5.715583E1,6.907306E1,3.935486E1,1.3197964E2,2.6899963E1,7.919513E1,9.6382484E1,4.6700928E1,1.5550153E2,1.0038257E2,1.3506787E2,1.2371776E2,7.2497925E1,0E0,0E0,0E0,0E0,0E0,0E0,0E0,0E0,0E0,0E0,0E0,0E0,0E0,0E0,0E0,0E0,0E0,0E0,0E0,0E0,0E0,0E0,0E0,0E0,0E0,0E0,0E0,0E0,0E0,0E0,0E0,0E0,0E0,0E0,0E0,0E0,0E0,0E0,0E0,0E0,0E0,0E0,0E0,0E0,0E0,0E0,0E0,0E0,0E0,0E0,0E0,0E0,0E0,0E0,0E0,0E0,0E0,0E0,0E0,0E0,0E0,0E0,0E0,0E0,0E0,0E0,0E0,0E0,0E0,0E0,0E0,0E0,0E0,0E0,0E0,0E0,0E0,0E0,0E0,0E0,0E0,0E0,0E0,0E0,0E0,0E0,0E0,0E0,0E0,0E0,0E0,0E0,0E0,0E0,0E0,0E0,0E0,0E0,0E0,0E0,0E0,0E0,0E0,0E0,0E0,0E0,0E0,0E0,0E0,0E0,0E0,0E0,0E0,0E0,0E0,0E0,0E0,0E0,0E0,0E0,0E0,0E0,0E0,0E0,0E0,0E0,0E0,0E0],"parents":[2147483647,0,0,1,1,2,2,3,3,4,4,5,5,6,6,7,7,8,8,9,9,10,10,11,11,12,12,13,13,14,14,15,15,16,16,17,17,18,18,19,19,20,20,21,21,22,22,23,23,24,24,25,25,26,26,27,27,28,28,29,29,30,30,31,31,32,32,33,33,34,34,35,35,36,36,37,37,38,38,39,39,40,40,41,41,42,42,43,43,44,44,45,45,46,46,47,47,48,48,49,49,50,50,51,51,52,52,53,53,54,54,55,55,56,56,57,57,58,58,59,59,60,60,61,61,62,62,63,63,64,64,65,65,66,66,67,67,68,68,69,69,70,70,71,71,72,72,73,73,74,74,75,75,76,76,77,77,78,78,79,79,80,80,81,81,82,82,83,83,84,84,85,85,86,86,87,87,88,88,89,89,90,90,91,91,92,92,93,93,94,94,95,95,96,96,97,97,98,98,99,99,100,100,101,101,102,102,103,103,104,104,105,105,106,106,107,107,108,108,109,109,110,110,111,111,112,112,113,113,114,114,115,115,116,116,117,117,118,118,119,119,120,120,121,121,122,122,123,123,124,124,125,125,126,126],"right_children":[2,4,6,8,10,12,14,16,18,20,22,24,26,28,30,32,34,36,38,40,42,44,46,48,50,52,54,56,58,60,62,64,66,68,70,72,74,76,78,80,82,84,86,88,90,92,94,96,98,100,102,104,106,108,110,112,114,116,118,120,122,124,126,128,130,132,134,136,138,140,142,144,146,148,150,152,154,156,158,160,162,164,166,168,170,172,174,176,178,180,182,184,186,188,190,192,194,196,198,200,202,204,206,208,210,212,214,216,218,220,222,224,226,228,230,232,234,236,238,240,242,244,246,248,250,252,254,-1,-1,-1,-1,-1,-1,-1,-1,-1,-1,-1,-1,-1,-1,-1,-1,-1,-1,-1,-1,-1,-1,-1,-1,-1,-1,-1,-1,-1,-1,-1,-1,-1,-1,-1,-1,-1,-1,-1,-1,-1,-1,-1,-1,-1,-1,-1,-1,-1,-1,-1,-1,-1,-1,-1,-1,-1,-1,-1,-1,-1,-1,-1,-1,-1,-1,-1,-1,-1,-1,-1,-1,-1,-1,-1,-1,-1,-1,-1,-1,-1,-1,-1,-1,-1,-1,-1,-1,-1,-1,-1,-1,-1,-1,-1,-1,-1,-1,-1,-1,-1,-1,-1,-1,-1,-1,-1,-1,-1,-1,-1,-1,-1,-1,-1,-1,-1,-1,-1,-1,-1,-1,-1,-1,-1,-1,-1,-1],"split_conditions":[2.4986287E3,1.1993449E1,1.4090629E1,2.7182E0,3.4427E0,2.799845E3,3.384E0,2.0668577E3,4.6240706E0,2.6855785E1,2.6855785E1,2.4143E0,3.2171E0,2.814142E3,2.8767107E3,2.1565443E2,1.888978E2,6.520938E4,6.555229E4,5.623026E3,2.1291133E3,5.795889E3,8.2912E0,1.2753148E3,1.1196018E3,3.9265547E3,1.0048E1,2.7506302E1,3.2710945E1,4.7021594E0,2.328573E3,5.8252E3,1.8358092E3,8.838844E1,3.0790576E3,2.7276816E0,9.999295E-1,3.7644043E0,1.38076E1,2.123852E3,2.2986123E3,-2.7141845E-1,-5.2652687E-2,2.72264E2,5.951556E0,6.4716436E3,2.0531785E-2,2.6251594E3,1.2753E0,9.998505E-1,3.8178246E4,3.0080037E3,1.2339126E3,8.617285E4,1.4094664E5,3.5332193E2,4.7383022E3,5.9749697E3,8.498866E3,4.2660414E4,4.6707508E4,1.01322565E3,7.9301E0,9.9984616E-1,9.9994123E-1,3.9171946E3,2.7836453E3,1.0179649E3,2.873835E3,2.3223728E3,8.279546E2,9.9980706E-1,9.998837E-1,2.0901545E3,1.1348246E5,1.9426366E3,7.309813E4,2.1400051E3,5.9407525E0,3.8124725E2,3.887727E2,9.999058E-1,3.406829E2,7.5297915E3,-4.0262E0,1.8071888E3,-4.4542E2,7.9301E0,2.2035989E3,4.2116553E2,1.29391E1,-1.6079527E-1,8.047879E1,7.132386E3,1.2437438E0,5.9199142E0,9.998152E-1,9.998961E-1,3.2087059E4,4.6121E0,9.1044E0,5.2315E0,8.1101E0,1.5330753E3,1.2292688E-1,1.376E3,4.4097615E-6,1.321109E3,2.9667278E3,-1.1550986E-1,1.3622855E3,3.0139592E3,3.9213027E3,-4.186052E-1,7.487798E1,-9.558291E-2,-8.557482E-2,2.2768204E0,9.030287E1,8.1392664E2,4.5641838E1,-4.4000593E-1,1.14861E1,2.7380786E0,1.6133653E0,9.814614E4,3.053354E0,-1.8607434E-2,-5.3235102E-2,1.007159E-2,-2.4987025E-2,-3.914009E-2,-4.2415815E-3,3.4544242E-3,3.6582515E-2,4.580562E-2,6.942368E-3,-7.351584E-3,2.5147835E-2,4.8889797E-2,7.747166E-2,1.4987365E-2,5.6225438E-2,-6.6064643E-3,-5.1867135E-2,-6.26517E-2,-9.13693E-2,-0E0,4.5824993E-2,-4.5132767E-2,-3.9220806E-3,-9.220513E-2,-5.5713836E-2,-1.2149198E-1,-9.38673E-2,-4.7247265E-2,-0E0,-5.0873484E-2,-9.430059E-2,-8.645944E-2,-5.0231796E-2,-4.766554E-2,-3.2784317E-3,-1.5514285E-3,-4.528852E-2,3.6948198E-3,4.3764915E-2,-1.0206906E-1,-6.5603405E-2,-2.014463E-2,-6.77105E-2,-7.16702E-2,-3.487166E-2,2.9473782E-2,-1.5793212E-2,-9.7234085E-2,-1.1694718E-1,-8.899995E-2,-5.263082E-2,-5.935243E-2,-1.090838E-2,-7.050243E-2,-1.0750123E-1,-1.1469527E-1,-6.7266114E-2,-6.991229E-2,-1.0475623E-1,-1.2927024E-1,-1.0964203E-1,-7.426746E-2,-1.03712946E-1,7.8239165E-2,4.7622867E-2,8.464845E-2,1.0543076E-1,8.351658E-2,4.7956504E-2,-3.1046455E-3,5.0388616E-2,2.9153997E-2,-2.263872E-2,6.7186914E-2,7.85473E-3,-3.0366989E-2,-9.0819776E-2,2.5050037E-2,-5.3397514E-2,1.1374232E-1,7.389684E-2,1.3158192E-1,7.573566E-2,3.1921297E-2,-5.7012197E-3,-0E0,-3.8431354E-2,6.463938E-2,6.166573E-3,6.879069E-2,1.10691465E-1,3.0180195E-3,-4.7885712E-2,7.170934E-2,1.5469513E-2,-8.877775E-3,3.313106E-2,6.478754E-2,-1.6767615E-3,-3.9186567E-2,-8.914714E-3,3.599548E-2,-2.0612365E-2,6.5768E-2,2.23251E-2,1.04592085E-1,3.615326E-2,4.0824607E-2,1.1787222E-2,8.697382E-2,4.2473495E-2,-3.7273582E-2,-7.857236E-2,1.0338186E-2,-4.423493E-2,-1.0810446E-1,-7.689336E-2,-3.1962223E-2,-8.91932E-2,-3.8719848E-2,-7.2627E-2,9.972832E-3,-3.278799E-2,9.725374E-3,6.6903755E-2,6.882368E-3,-3.0179355E-2],"split_indices":[14,93,93,0,0,14,0,14,58,93,93,0,0,14,14,52,52,36,18,25,14,25,0,35,35,14,0,93,93,58,74,25,14,65,89,100,66,100,0,14,14,77,77,52,58,25,27,14,0,31,18,14,84,36,36,52,78,25,25,18,18,35,0,66,66,25,78,35,78,14,52,66,66,14,36,14,36,14,100,52,52,66,52,25,0,84,48,0,14,52,0,77,93,25,86,93,31,66,18,0,0,0,0,35,27,15,61,35,14,27,35,78,89,77,93,27,27,86,93,35,93,77,0,86,86,36,86,0,0,0,0,0,0,0,0,0,0,0,0,0,0,0,0,0,0,0,0,0,0,0,0,0,0,0,0,0,0,0,0,0,0,0,0,0,0,0,0,0,0,0,0,0,0,0,0,0,0,0,0,0,0,0,0,0,0,0,0,0,0,0,0,0,0,0,0,0,0,0,0,0,0,0,0,0,0,0,0,0,0,0,0,0,0,0,0,0,0,0,0,0,0,0,0,0,0,0,0,0,0,0,0,0,0,0,0,0,0,0,0,0,0,0,0,0,0,0,0,0,0,0,0,0,0,0,0],"split_type":[0,0,0,0,0,0,0,0,0,0,0,0,0,0,0,0,0,0,0,0,0,0,0,0,0,0,0,0,0,0,0,0,0,0,0,0,0,0,0,0,0,0,0,0,0,0,0,0,0,0,0,0,0,0,0,0,0,0,0,0,0,0,0,0,0,0,0,0,0,0,0,0,0,0,0,0,0,0,0,0,0,0,0,0,0,0,0,0,0,0,0,0,0,0,0,0,0,0,0,0,0,0,0,0,0,0,0,0,0,0,0,0,0,0,0,0,0,0,0,0,0,0,0,0,0,0,0,0,0,0,0,0,0,0,0,0,0,0,0,0,0,0,0,0,0,0,0,0,0,0,0,0,0,0,0,0,0,0,0,0,0,0,0,0,0,0,0,0,0,0,0,0,0,0,0,0,0,0,0,0,0,0,0,0,0,0,0,0,0,0,0,0,0,0,0,0,0,0,0,0,0,0,0,0,0,0,0,0,0,0,0,0,0,0,0,0,0,0,0,0,0,0,0,0,0,0,0,0,0,0,0,0,0,0,0,0,0,0,0,0,0,0,0,0,0,0,0,0,0,0,0,0,0,0,0],"sum_hessian":[1.258905E5,6.9894E4,5.59965E4,3.987475E4,3.001925E4,3.55875E4,2.0409E4,2.59905E4,1.388425E4,1.43155E4,1.570375E4,1.754975E4,1.803775E4,1.0497E4,9.912E3,9.066E3,1.69245E4,8.18875E3,5.6955E3,6.70475E3,7.61075E3,5.54675E3,1.0157E4,1.2398E4,5.15175E3,1.511775E4,2.92E3,4.48475E3,6.01225E3,4.311E3,5.601E3,5.241E3,3.825E3,1.114925E4,5.77525E3,3.466E3,4.72275E3,3.92625E3,1.76925E3,3.9985E3,2.70625E3,3.85525E3,3.7555E3,3.8105E3,1.73625E3,4.17625E3,5.98075E3,9.4415E3,2.9565E3,2.899E3,2.25275E3,1.493825E4,1.795E2,2.41525E3,5.0475E2,2.0055E3,2.47925E3,2.11425E3,3.898E3,1.92125E3,2.38975E3,3.65525E3,1.94575E3,3.7355E3,1.5055E3,1.73825E3,2.08675E3,4.7695E3,6.37975E3,4.3575E3,1.41775E3,1.647E3,1.819E3,1.07475E3,3.648E3,1.744E3,2.18225E3,1.13E3,6.3925E2,1.9775E3,2.021E3,1.82575E3,8.805E2,3.41625E3,4.39E2,3.51225E3,2.4325E2,2.7245E3,1.086E3,1.04975E3,6.865E2,2.976E3,1.20025E3,5.436E3,5.4475E2,4.55775E3,4.88375E3,2.182E3,7.745E2,1.23075E3,1.66825E3,9.41E2,1.31175E3,6.94425E3,7.994E3,1.0825E2,7.125E1,7.6275E2,1.6525E3,2.735E2,2.3125E2,1.5615E3,4.44E2,2.1195E3,3.5975E2,1.08325E3,1.031E3,3.49875E3,3.9925E2,1.217E3,7.0425E2,1.3055E3,1.08425E3,2.08525E3,1.57E3,8.4425E2,1.1015E3,1.145E3,2.5905E3,5.91E2,9.145E2,6.2925E2,1.109E3,1.26525E3,8.215E2,3.577E3,1.1925E3,4.1125E3,2.26725E3,2.54E3,1.8175E3,1.04125E3,3.765E2,6.655E2,9.815E2,8.155E2,1.0035E3,5.3375E2,5.41E2,2.0485E3,1.5995E3,5.2825E2,1.21575E3,9.8E2,1.20225E3,5.6175E2,5.6825E2,1.64E2,4.7525E2,1.29175E3,6.8575E2,1.55325E3,4.6775E2,8.24E2,1.00175E3,6.1675E2,2.6375E2,2.74575E3,6.705E2,2.1025E2,2.2875E2,2.68025E3,8.32E2,4.5E1,1.9825E2,1.32025E3,1.40425E3,8.155E2,2.705E2,7.9875E2,2.51E2,3.885E2,2.98E2,2.77125E3,2.0475E2,7.785E2,4.2175E2,4.223E3,1.213E3,2.1125E2,3.335E2,3.27675E3,1.281E3,2.458E3,2.42575E3,7.8925E2,1.39275E3,4.34E2,3.405E2,6.68E2,5.6275E2,1.30875E3,3.595E2,6.8175E2,2.5925E2,9.8225E2,3.295E2,5.61975E3,1.3245E3,7.76325E3,2.3075E2,9.625E1,1.2E1,4.05E1,3.075E1,4.31E2,3.3175E2,6.5175E2,1.00075E3,1.3725E2,1.3625E2,1.205E2,1.1075E2,9.065E2,6.55E2,4.1675E2,2.725E1,1.37175E3,7.4775E2,2.3225E2,1.275E2,7.835E2,2.9975E2,9.64E2,6.7E1,1.762E3,1.73675E3,2.61E2,1.3825E2,4.135E2,8.035E2,4.4925E2,2.55E2,8.0925E2,4.9625E2,4.945E2,5.8975E2,1.30925E3,7.76E2,8.4775E2,7.2225E2,4.5475E2,3.895E2,6.3325E2,4.6825E2],"tree_param":{"num_deleted":"0","num_feature":"106","num_nodes":"255","size_leaf_vector":"1"}},{"base_weights":[9.273648E-5,-5.250667E-1,6.146338E-1,-1.4250623E-1,-1.0397081E0,1.0339111E0,-6.470482E-2,8.716574E-2,-6.696343E-1,-8.045935E-1,-1.2829564E0,7.141364E-1,1.3928822E0,-4.509465E-1,1.663301E-1,-2.1545663E-1,3.4161338E-1,-9.015479E-1,-4.3690747E-1,-5.698612E-1,-1.0490113E0,-6.370697E-1,-1.3258367E0,8.9445573E-1,1.511503E-1,1.4861184E0,8.921127E-1,-1.0843905E-1,-7.4279976E-1,6.288919E-1,-5.0732948E-2,-4.675535E-1,-1.431492E-2,1.7816831E-1,6.6425216E-1,-7.5996983E-1,-1.1890162E0,-1.97018E-1,-8.354493E-1,-7.6271856E-1,-2.1614969E-1,-1.1510954E0,-7.308816E-1,-9.103733E-1,-2.8235427E-1,-1.1284388E0,-1.4166368E0,7.5067145E-1,1.0778536E0,4.1686192E-1,-1.8153065E-1,1.5026773E0,3.6823645E-2,5.169942E-1,1.1090814E0,1.0447751E-1,-5.411267E-1,-3.5636687E-1,-8.6403286E-1,8.468535E-1,1.07996814E-1,-3.4427086E-1,1.9163434E-1,-6.629351E-1,-2.756507E-1,-2.2456564E-1,2.2978532E-1,4.1903365E-1,-5.841963E-3,8.258512E-1,4.2029673E-1,-9.4721234E-1,-5.545673E-1,-9.0394336E-1,-1.3696415E0,1.9688961E-1,-3.3072287E-1,-6.427341E-1,-1.084339E0,-9.1123736E-1,-4.241898E-1,1.23774394E-1,-4.571047E-1,-1.313849E0,-9.881996E-1,-5.2446127E-1,-1.079037E0,-1.0647668E0,-3.2984972E-1,-5.6723523E-1,-3.8130406E-2,-1.2531377E0,-8.911083E-1,-1.4466996E0,-9.382978E-1,9.628489E-1,5.76928E-1,9.281325E-1,1.212884E0,-0E0,6.2174445E-1,-4.1807634E-1,2.3481628E-1,1.3333933E0,1.6173778E0,4.533144E-1,-6.5779194E-2,6.974001E-1,-6.215014E-2,1.306165E0,7.3798484E-1,-1.0348792E-1,5.1155806E-1,-6.601693E-1,-0E0,-5.807024E-1,-7.922493E-2,-5.915907E-1,-1.098919E0,2.7278942E-1,1.0013225E0,-2.0154276E-1,3.43404E-1,-5.0895596E-1,-1.2378998E-2,-2.1289283E-1,2.9775834E-1,-4.0224977E-2,-7.240633E-2,2.2785286E-3,-3.4934174E-2,-2.6758755E-2,3.5762459E-3,2.8201476E-2,-6.006128E-3,4.0199E-2,-1.5730325E-3,-1.5330542E-2,1.6494775E-2,7.7102266E-2,4.9541824E-2,1.9116443E-2,5.1179994E-2,-8.1028074E-2,-4.4173293E-2,-1.97672E-2,-5.6719866E-2,-8.366922E-2,-4.938993E-2,-9.0102755E-2,-1.1131378E-1,-2.5319053E-2,2.8344018E-2,-4.11108E-2,5.6923516E-3,-5.7564586E-2,-1.7655449E-2,-4.3988794E-2,-8.948736E-2,-8.039628E-2,-4.885316E-2,-5.342859E-2,-1.2864188E-2,-3.188048E-2,2.5981545E-2,-5.4948635E-2,-1.49497725E-2,-1.00524135E-1,-5.1760428E-2,-3.831211E-2,-7.950704E-2,-4.948597E-2,-0E0,-8.640047E-2,-3.7480354E-2,-8.5857E-2,-2.4651561E-2,-0E0,-5.6375016E-2,-4.600247E-2,-0E0,5.899108E-3,-3.0223042E-2,-1.0128617E-1,-7.169033E-2,-8.101331E-2,-4.463656E-2,-1.10878356E-1,-8.034574E-2,-8.46306E-2,-5.4991327E-2,8.045443E-2,4.607075E-2,2.6411867E-2,5.9259232E-2,9.284093E-2,6.280618E-2,9.518196E-2,4.9278803E-2,2.1128481E-2,-2.1523785E-2,3.0856641E-2,7.250666E-2,-4.8236107E-3,-4.8008148E-2,2.9950386E-2,-2.5737278E-2,1.0559634E-1,6.641361E-2,1.21953E-1,3.6180295E-2,4.8221055E-2,-0E0,8.711521E-3,-2.3611331E-2,2.2948835E-2,6.466715E-2,1.9363523E-2,-3.20012E-2,7.3047966E-2,1.0582385E-1,2.4615765E-2,7.765467E-2,1.988685E-2,-2.2671925E-2,2.2077665E-2,6.2586874E-2,-1.4940581E-2,-5.8792945E-2,-1.6209105E-2,3.827853E-2,-2.8565785E-2,-5.6579445E-2,3.3579566E-2,-1.7841743E-2,-6.569019E-2,-1.7450001E-2,-8.65446E-2,-3.3858538E-2,4.0978696E-2,-3.2948616E-3,5.546904E-2,8.9438945E-2,-4.187679E-2,-8.7322766E-4,5.4978058E-2,-0E0,-2.1956723E-2,-5.6704596E-2,-4.166691E-2,1.01196235E-2,4.3942602E-3,-5.1501147E-2,4.7096065E-3,3.8455047E-2],"categories":[],"categories_nodes":[],"categories_segments":[],"categories_sizes":[],"default_left":[0,0,0,0,0,0,0,0,0,0,0,0,0,0,0,0,0,0,0,0,0,0,0,0,0,0,0,0,0,0,0,0,0,0,0,0,0,0,0,0,0,0,0,0,0,0,0,0,0,0,0,0,0,0,0,0,0,0,0,0,0,0,0,1,0,0,0,0,0,0,0,0,0,0,0,0,0,0,0,0,0,0,0,0,0,0,0,0,0,0,0,0,0,0,0,0,0,0,0,0,0,0,0,0,0,0,0,0,0,0,0,0,0,0,0,0,0,0,0,0,0,0,0,0,0,0,0,0,0,0,0,0,0,0,0,0,0,0,0,0,0,0,0,0,0,0,0,0,0,0,0,0,0,0,0,0,0,0,0,0,0,0,0,0,0,0,0,0,0,0,0,0,0,0,0,0,0,0,0,0,0,0,0,0,0,0,0,0,0,0,0,0,0,0,0,0,0,0,0,0,0,0,0,0,0,0,0,0,0,0,0,0,0,0,0,0,0,0,0,0,0,0,0,0,0,0,0,0,0,0,0,0,0,0,0,0,0,0,0,0,0,0,0,0,0,0,0,0,0,0,0,0,0,0,0],"id":1,"left_children":[1,3,5,7,9,11,13,15,17,19,21,23,25,27,29,31,33,35,37,39,41,43,45,47,49,51,53,55,57,59,61,63,65,67,69,71,73,75,77,79,81,83,85,87,89,91,93,95,97,99,101,103,105,107,109,111,113,115,117,119,121,123,125,127,129,131,133,135,137,139,141,143,145,147,149,151,153,155,157,159,161,163,165,167,169,171,173,175,177,179,181,183,185,187,189,191,193,195,197,199,201,203,205,207,209,211,213,215,217,219,221,223,225,227,229,231,233,235,237,239,241,243,245,247,249,251,253,-1,-1,-1,-1,-1,-1,-1,-1,-1,-1,-1,-1,-1,-1,-1,-1,-1,-1,-1,-1,-1,-1,-1,-1,-1,-1,-1,-1,-1,-1,-1,-1,-1,-1,-1,-1,-1,-1,-1,-1,-1,-1,-1,-1,-1,-1,-1,-1,-1,-1,-1,-1,-1,-1,-1,-1,-1,-1,-1,-1,-1,-1,-1,-1,-1,-1,-1,-1,-1,-1,-1,-1,-1,-1,-1,-1,-1,-1,-1,-1,-1,-1,-1,-1,-1,-1,-1,-1,-1,-1,-1,-1,-1,-1,-1,-1,-1,-1,-1,-1,-1,-1,-1,-1,-1,-1,-1,-1,-1,-1,-1,-1,-1,-1,-1,-1,-1,-1,-1,-1,-1,-1,-1,-1,-1,-1,-1,-1],"loss_changes":[4.0566316E4,1.3338781E4,1.6504602E4,4.716836E3,1.6480293E3,4.107414E3,1.9801765E3,2.0909514E3,6.357051E2,8.4170996E2,3.8605664E2,1.921625E3,7.799746E2,8.271858E2,1.3970089E3,6.268442E2,7.766166E2,2.375625E2,5.6551404E2,5.1162793E2,2.2915332E2,8.565073E1,2.3164062E2,3.756621E2,4.1440698E2,3.3221094E2,2.1391138E2,3.6119928E2,2.0634595E2,5.0003687E2,6.755663E2,2.0448083E2,3.5885193E2,4.3899817E2,1.9283496E2,1.508501E2,9.406421E1,1.9994417E2,1.03849E2,2.4165088E2,2.2507086E2,1.3903809E2,1.25982666E2,4.0735535E1,2.8356762E1,1.20260254E2,1.2279492E2,2.9580078E2,1.2278223E2,2.2081851E2,2.0782062E2,2.643379E2,1.5141422E1,1.10437805E2,1.18031006E2,2.2491266E2,7.948834E1,6.685916E1,2.1383911E2,2.7231543E2,1.0209468E2,2.3204968E2,2.2511742E2,1.0181384E2,1.6877386E2,1.3938095E2,1.5019682E2,2.2781079E2,2.5534001E2,9.680408E1,8.65376E1,9.733276E1,1.1277118E2,3.7589783E1,1.6087646E1,9.7790855E1,2.5477585E2,6.372174E1,4.8631714E1,1.3970068E2,1.0980646E2,1.4345532E2,1.1223361E2,4.6839844E1,9.529834E1,8.613086E1,2.3989136E1,1.870517E1,2.3801443E1,7.6805954E0,1.7189169E1,7.7103516E1,8.1350586E1,1.1218164E2,1.8882141E1,1.3934717E2,2.1471533E2,8.025513E1,1.0554004E2,7.667792E1,1.2477081E2,1.0328108E2,7.732684E1,1.9762305E2,1.379707E2,8.490401E0,1.1348442E1,4.8055237E1,3.5925266E1,3.295508E1,7.206363E1,1.3064618E2,6.1392258E1,5.788736E1,3.4049347E1,1.9384277E1,4.8490288E1,1.622586E2,6.436279E1,6.552219E1,1.2030151E2,3.9177452E1,1.03825005E2,1.5210077E2,1.25961975E2,1.472265E2,2.079975E2,0E0,0E0,0E0,0E0,0E0,0E0,0E0,0E0,0E0,0E0,0E0,0E0,0E0,0E0,0E0,0E0,0E0,0E0,0E0,0E0,0E0,0E0,0E0,0E0,0E0,0E0,0E0,0E0,0E0,0E0,0E0,0E0,0E0,0E0,0E0,0E0,0E0,0E0,0E0,0E0,0E0,0E0,0E0,0E0,0E0,0E0,0E0,0E0,0E0,0E0,0E0,0E0,0E0,0E0,0E0,0E0,0E0,0E0,0E0,0E0,0E0,0E0,0E0,0E0,0E0,0E0,0E0,0E0,0E0,0E0,0E0,0E0,0E0,0E0,0E0,0E0,0E0,0E0,0E0,0E0,0E0,0E0,0E0,0E0,0E0,0E0,0E0,0E0,0E0,0E0,0E0,0E0,0E0,0E0,0E0,0E0,0E0,0E0,0E0,0E0,0E0,0E0,0E0,0E0,0E0,0E0,0E0,0E0,0E0,0E0,0E0,0E0,0E0,0E0,0E0,0E0,0E0,0E0,0E0,0E0,0E0,0E0,0E0,0E0,0E0,0E0,0E0,0E0],"parents":[2147483647,0,0,1,1,2,2,3,3,4,4,5,5,6,6,7,7,8,8,9,9,10,10,11,11,12,12,13,13,14,14,15,15,16,16,17,17,18,18,19,19,20,20,21,21,22,22,23,23,24,24,25,25,26,26,27,27,28,28,29,29,30,30,31,31,32,32,33,33,34,34,35,35,36,36,37,37,38,38,39,39,40,40,41,41,42,42,43,43,44,44,45,45,46,46,47,47,48,48,49,49,50,50,51,51,52,52,53,53,54,54,55,55,56,56,57,57,58,58,59,59,60,60,61,61,62,62,63,63,64,64,65,65,66,66,67,67,68,68,69,69,70,70,71,71,72,72,73,73,74,74,75,75,76,76,77,77,78,78,79,79,80,80,81,81,82,82,83,83,84,84,85,85,86,86,87,87,88,88,89,89,90,90,91,91,92,92,93,93,94,94,95,95,96,96,97,97,98,98,99,99,100,100,101,101,102,102,103,103,104,104,105,105,106,106,107,107,108,108,109,109,110,110,111,111,112,112,113,113,114,114,115,115,116,116,117,117,118,118,119,119,120,120,121,121,122,122,123,123,124,124,125,125,126,126],"right_children":[2,4,6,8,10,12,14,16,18,20,22,24,26,28,30,32,34,36,38,40,42,44,46,48,50,52,54,56,58,60,62,64,66,68,70,72,74,76,78,80,82,84,86,88,90,92,94,96,98,100,102,104,106,108,110,112,114,116,118,120,122,124,126,128,130,132,134,136,138,140,142,144,146,148,150,152,154,156,158,160,162,164,166,168,170,172,174,176,178,180,182,184,186,188,190,192,194,196,198,200,202,204,206,208,210,212,214,216,218,220,222,224,226,228,230,232,234,236,238,240,242,244,246,248,250,252,254,-1,-1,-1,-1,-1,-1,-1,-1,-1,-1,-1,-1,-1,-1,-1,-1,-1,-1,-1,-1,-1,-1,-1,-1,-1,-1,-1,-1,-1,-1,-1,-1,-1,-1,-1,-1,-1,-1,-1,-1,-1,-1,-1,-1,-1,-1,-1,-1,-1,-1,-1,-1,-1,-1,-1,-1,-1,-1,-1,-1,-1,-1,-1,-1,-1,-1,-1,-1,-1,-1,-1,-1,-1,-1,-1,-1,-1,-1,-1,-1,-1,-1,-1,-1,-1,-1,-1,-1,-1,-1,-1,-1,-1,-1,-1,-1,-1,-1,-1,-1,-1,-1,-1,-1,-1,-1,-1,-1,-1,-1,-1,-1,-1,-1,-1,-1,-1,-1,-1,-1,-1,-1,-1,-1,-1,-1,-1,-1],"split_conditions":[2.4784148E3,1.2203719E1,1.2878022E1,2.8076699E0,3.5922399E0,2.814142E3,2.7586917E3,2.1400051E3,8.345898E4,2.8887552E1,1.8115538E2,2.5100944E0,2.8856838E0,2.5100944E0,3.3591316E1,1.286178E2,1.862231E2,6.17805E0,7.811349E0,3.1701692E3,3.932617E3,4.8494827E1,2.6855785E1,2.6976304E3,1.152998E3,3.9265547E3,9.814614E4,3.84405E1,7.19329E2,3.4854474E0,5.469339E2,1.9640156E3,1.9347812E3,9.2500885E1,4.8610716E0,2.1128188E3,6.5462234E1,9.9996185E-1,1.3939953E1,3.665601E2,9.999073E-1,2.1128188E3,7.487798E1,2.2443518E3,5.352671E2,2.4381561E2,-2.2513995E-1,9.999027E-1,2.6308271E3,9.9982685E-1,1.148033E2,2.987141E3,6.3287876E1,6.17805E0,6.17805E0,3.364445E3,2.029894E3,4.638492E2,3.7417004E1,1.6515388E3,8.962323E4,1.170788E3,2.9565647E3,1.0586829E3,6.755487E1,3.0139592E3,5.9199142E0,1.0521305E3,6.911747E1,9.998381E-1,5.148801E2,2.6369736E2,1.2599327E2,2.004961E3,8.402445E0,1.862991E3,1.5082942E5,2.3265038E2,3.259041E1,2.2342144E3,2.0304822E3,1.9121202E3,2.1507754E3,2.4284268E3,4.717058E2,7.4285944E2,1.2523528E3,2.3117898E-1,4.162246E0,9.873421E-1,3.9493754E0,2.288934E3,2.0957988E3,5.2725894E3,8.360847E1,6.3725495E0,9.9982405E-1,9.998631E-1,1.4493577E3,4.788669E0,2.6420144E3,1.0828453E3,7.4656677E0,1.5610446E3,2.6681867E-1,7.4309945E0,4.4444385E3,6.0357547E4,1.1884172E2,2.9285872E3,1.632071E5,9.997889E-1,2.1884105E2,7.19329E2,3.829388E3,1.4357492E0,1.5647533E2,2.873835E3,8.939998E2,-1.6052355E-1,2.7356619E3,2.8934507E3,6.557788E0,1.8502966E0,2.987141E3,1.3892168E3,1.2898954E3,-4.0224977E-2,-7.240633E-2,2.2785286E-3,-3.4934174E-2,-2.6758755E-2,3.5762459E-3,2.8201476E-2,-6.006128E-3,4.0199E-2,-1.5730325E-3,-1.5330542E-2,1.6494775E-2,7.7102266E-2,4.9541824E-2,1.9116443E-2,5.1179994E-2,-8.1028074E-2,-4.4173293E-2,-1.97672E-2,-5.6719866E-2,-8.366922E-2,-4.938993E-2,-9.0102755E-2,-1.1131378E-1,-2.5319053E-2,2.8344018E-2,-4.11108E-2,5.6923516E-3,-5.7564586E-2,-1.7655449E-2,-4.3988794E-2,-8.948736E-2,-8.039628E-2,-4.885316E-2,-5.342859E-2,-1.2864188E-2,-3.188048E-2,2.5981545E-2,-5.4948635E-2,-1.49497725E-2,-1.00524135E-1,-5.1760428E-2,-3.831211E-2,-7.950704E-2,-4.948597E-2,-0E0,-8.640047E-2,-3.7480354E-2,-8.5857E-2,-2.4651561E-2,-0E0,-5.6375016E-2,-4.600247E-2,-0E0,5.899108E-3,-3.0223042E-2,-1.0128617E-1,-7.169033E-2,-8.101331E-2,-4.463656E-2,-1.10878356E-1,-8.034574E-2,-8.46306E-2,-5.4991327E-2,8.045443E-2,4.607075E-2,2.6411867E-2,5.9259232E-2,9.284093E-2,6.280618E-2,9.518196E-2,4.9278803E-2,2.1128481E-2,-2.1523785E-2,3.0856641E-2,7.250666E-2,-4.8236107E-3,-4.8008148E-2,2.9950386E-2,-2.5737278E-2,1.0559634E-1,6.641361E-2,1.21953E-1,3.6180295E-2,4.8221055E-2,-0E0,8.711521E-3,-2.3611331E-2,2.2948835E-2,6.466715E-2,1.9363523E-2,-3.20012E-2,7.3047966E-2,1.0582385E-1,2.4615765E-2,7.765467E-2,1.988685E-2,-2.2671925E-2,2.2077665E-2,6.2586874E-2,-1.4940581E-2,-5.8792945E-2,-1.6209105E-2,3.827853E-2,-2.8565785E-2,-5.6579445E-2,3.3579566E-2,-1.7841743E-2,-6.569019E-2,-1.7450001E-2,-8.65446E-2,-3.3858538E-2,4.0978696E-2,-3.2948616E-3,5.546904E-2,8.9438945E-2,-4.187679E-2,-8.7322766E-4,5.4978058E-2,-0E0,-2.1956723E-2,-5.6704596E-2,-4.166691E-2,1.01196235E-2,4.3942602E-3,-5.1501147E-2,4.7096065E-3,3.8455047E-2],"split_indices":[14,93,93,58,58,14,14,14,36,93,12,58,58,58,93,52,52,58,58,78,78,93,93,78,35,14,36,93,12,58,42,14,14,65,93,14,54,66,58,52,66,14,93,14,35,52,101,66,14,31,52,14,3,58,58,78,84,42,93,74,36,35,14,89,65,78,93,35,52,66,52,52,54,14,58,14,36,52,54,14,14,14,14,52,12,52,52,27,20,26,86,14,14,78,93,93,31,66,35,93,14,12,58,35,27,86,14,36,54,14,36,66,52,12,95,86,12,78,52,27,78,14,58,86,14,35,35,0,0,0,0,0,0,0,0,0,0,0,0,0,0,0,0,0,0,0,0,0,0,0,0,0,0,0,0,0,0,0,0,0,0,0,0,0,0,0,0,0,0,0,0,0,0,0,0,0,0,0,0,0,0,0,0,0,0,0,0,0,0,0,0,0,0,0,0,0,0,0,0,0,0,0,0,0,0,0,0,0,0,0,0,0,0,0,0,0,0,0,0,0,0,0,0,0,0,0,0,0,0,0,0,0,0,0,0,0,0,0,0,0,0,0,0,0,0,0,0,0,0,0,0,0,0,0,0],"split_type":[0,0,0,0,0,0,0,0,0,0,0,0,0,0,0,0,0,0,0,0,0,0,0,0,0,0,0,0,0,0,0,0,0,0,0,0,0,0,0,0,0,0,0,0,0,0,0,0,0,0,0,0,0,0,0,0,0,0,0,0,0,0,0,0,0,0,0,0,0,0,0,0,0,0,0,0,0,0,0,0,0,0,0,0,0,0,0,0,0,0,0,0,0,0,0,0,0,0,0,0,0,0,0,0,0,0,0,0,0,0,0,0,0,0,0,0,0,0,0,0,0,0,0,0,0,0,0,0,0,0,0,0,0,0,0,0,0,0,0,0,0,0,0,0,0,0,0,0,0,0,0,0,0,0,0,0,0,0,0,0,0,0,0,0,0,0,0,0,0,0,0,0,0,0,0,0,0,0,0,0,0,0,0,0,0,0,0,0,0,0,0,0,0,0,0,0,0,0,0,0,0,0,0,0,0,0,0,0,0,0,0,0,0,0,0,0,0,0,0,0,0,0,0,0,0,0,0,0,0,0,0,0,0,0,0,0,0,0,0,0,0,0,0,0,0,0,0,0,0,0,0,0,0,0,0],"sum_hessian":[1.25646734E5,6.7745516E4,5.7901215E4,3.886845E4,2.8877068E4,3.5807832E4,2.2093385E4,2.7067178E4,1.18012705E4,1.4704125E4,1.4172942E4,1.8952139E4,1.6855693E4,8.277248E3,1.3816137E4,1.2353051E4,1.4714126E4,5.8932373E3,5.908033E3,7.5189688E3,7.1851567E3,8.9437384E2,1.3278568E4,1.4345085E4,4.6070527E3,1.4194194E4,2.6614998E3,3.8195972E3,4.4576504E3,4.4190317E3,9.397105E3,5.467186E3,6.885865E3,9.782208E3,4.931918E3,3.9709697E3,1.9222677E3,3.7005833E3,2.2074497E3,4.8525513E3,2.666417E3,5.418622E3,1.7665345E3,4.9269745E2,4.016764E2,4.2190835E3,9.059485E3,8.069073E3,6.276012E3,2.570519E3,2.0365336E3,1.4029757E4,1.644372E2,9.8960864E2,1.6718911E3,2.5527683E3,1.2668287E3,1.0793635E3,3.378287E3,3.105963E3,1.3130688E3,4.2600586E3,5.137047E3,2.6896277E3,2.7775583E3,3.71237E3,3.1734949E3,4.248255E3,5.533953E3,2.9471948E3,1.9847234E3,2.0556643E3,1.9153053E3,7.664968E2,1.1557709E3,9.2634265E2,2.7742405E3,1.2646072E3,9.4284265E2,3.356636E3,1.4959155E3,1.0967955E3,1.5696216E3,2.6798267E3,2.7387954E3,1.1251929E3,6.4134174E2,3.7889584E2,1.138016E2,1.7221373E2,2.2946265E2,2.7396147E3,1.4794686E3,8.50544E3,5.540448E2,3.6102627E3,4.4588105E3,3.0100662E3,3.2659458E3,8.5191187E2,1.7186072E3,1.3075731E3,7.289604E2,5.705542E3,8.324215E3,4.123439E1,1.23202805E2,7.6163934E2,2.279693E2,1.0757681E3,5.96123E2,1.681953E3,8.7081537E2,1.0291713E3,2.376575E2,5.827334E2,4.966301E2,1.5814636E3,1.7968235E3,6.686497E2,2.437313E3,5.567924E2,7.562764E2,2.8342615E3,1.425797E3,1.0554554E3,4.0815916E3,1.9343445E3,7.5528314E2,1.0604913E3,1.7170669E3,2.503568E3,1.2088019E3,2.1613486E3,1.01214624E3,3.3523198E3,8.95935E2,2.9578694E3,2.576084E3,1.2731809E3,1.6740139E3,1.2430488E3,7.416745E2,1.4645989E3,5.910655E2,8.0843164E2,1.1068737E3,3.8550885E2,3.8098798E2,5.2935376E2,6.264171E2,2.2658826E2,6.9975433E2,1.8098457E3,9.643948E2,9.4818243E2,3.164247E2,1.9003363E2,7.52809E2,2.0222092E3,1.3344266E3,6.800454E2,8.158701E2,3.0882983E2,7.8796564E2,7.388443E2,8.307772E2,2.534727E3,1.4509975E2,3.938762E2,2.3449192E3,8.960127E2,2.2918019E2,5.529976E2,8.834412E1,3.3072626E2,4.8169586E1,6.190589E1,5.1895706E1,1.6422926E2,7.9844775E0,1.6405458E2,6.5408066E1,2.0023499E3,7.3726495E2,8.7335297E2,6.0611566E2,7.6907773E3,8.146628E2,2.5876056E2,2.9528424E2,2.6943162E3,9.1594653E2,2.213409E3,2.2454016E3,6.2728143E2,2.3827847E3,2.9247356E3,3.412102E2,4.3391702E2,4.1799484E2,1.0912861E3,6.273211E2,5.201165E2,7.874566E2,5.7511304E2,1.5384734E2,4.811499E3,8.94043E2,8.204395E3,1.19820755E2,3.34873E1,7.747088E0,5.8979652E1,6.422315E1,2.4324686E2,5.1839246E2,1.1355252E2,1.1441677E2,2.9396454E2,7.818036E2,2.6475726E2,3.3136572E2,5.79962E2,1.1019911E3,5.39034E2,3.317814E2,2.3465894E2,7.9451227E2,1.7618091E2,6.1476604E1,2.957341E2,2.869993E2,1.05211395E2,3.914187E2,8.643816E2,7.170821E2,1.6332764E3,1.6354718E2,3.658088E2,3.0284094E2,1.0720759E3,1.3652372E3,1.79497E2,3.772954E2,3.4487817E2,4.1139825E2,1.5416514E3,1.2926102E3,3.1029404E2,1.1155029E3,6.665346E2,3.889208E2,1.9767416E3,2.1048499E3],"tree_param":{"num_deleted":"0","num_feature":"106","num_nodes":"255","size_leaf_vector":"1"}},{"base_weights":[-1.2458923E-3,-4.5008242E-1,6.241161E-1,-5.7460025E-2,-9.131146E-1,9.949342E-1,-6.777937E-2,2.3143461E-1,-5.210056E-1,-6.0638845E-1,-1.2056316E0,1.1568096E0,3.872456E-1,2.8807268E-1,-4.788038E-1,-8.2186826E-2,4.8444408E-1,-2.8496844E-1,-8.142145E-1,-8.260809E-1,-3.5523725E-1,-1.069417E0,-1.3949529E0,8.867857E-1,1.388711E0,1.0771294E-1,7.909378E-1,-5.67045E-2,5.091626E-1,-8.1662947E-1,-2.588522E-1,-2.3939805E-1,1.524537E-1,3.072306E-1,6.859203E-1,-4.6152258E-1,4.120197E-2,-1.0109763E0,-5.1185524E-1,-6.5336305E-1,-1.0347811E0,-8.1077896E-2,-5.943375E-1,-1.233177E0,-8.461573E-1,-1.4901905E0,-1.2781221E0,1.0094893E0,6.528012E-1,1.4052651E0,1.123588E-1,-1.3286833E-1,5.363536E-1,9.419154E-1,9.073119E-2,1.4525506E-1,-3.2782558E-1,9.085587E-2,6.874231E-1,-9.9423224E-1,-5.516657E-1,-5.374994E-1,-1.0279389E-2,-4.781697E-1,-7.931109E-2,-1.1595861E-1,3.592699E-1,5.396598E-1,1.212257E-1,5.470856E-1,8.6256385E-1,-2.6494342E-1,-7.336925E-1,4.4453302E-1,-1.7738684E-1,-7.134453E-1,-1.2393993E0,-2.769853E-1,-9.656623E-1,-8.106561E-1,-3.5270977E-1,-1.101118E0,-4.7624895E-1,-3.465095E-1,1.922476E-1,-6.9093907E-1,-2.6888883E-1,-1.0860881E0,-1.3707204E0,-6.7358315E-1,-1.1756234E0,-1.5286249E0,-1.0749696E0,-1.0572097E0,-1.4290373E0,9.1891444E-1,1.2723076E0,5.067573E-1,9.4989926E-1,1.2230614E0,1.5084546E0,2.1136367E-1,-2.8195912E-1,8.959517E-2,-6.183359E-1,7.714876E-1,-9.750359E-2,6.097085E-1,1.27339E0,-3.2227346E-1,6.015464E-1,1.7863529E-2,7.525465E-1,-4.6595877E-1,-0E0,2.5713482E-1,-9.037739E-2,9.9089015E-1,5.023043E-1,-7.803702E-1,-1.1583453E0,-2.3005746E-1,-9.934743E-1,-3.089198E-1,-7.9373765E-1,1.5434918E-1,-3.4712178E-1,-2.8669225E-2,-6.5512374E-2,-1.7190928E-2,1.004445E-2,-3.5600405E-2,-1.5236472E-3,1.5035225E-2,4.768347E-2,3.2816842E-2,7.113021E-2,-8.472848E-4,2.9515812E-2,5.6571793E-2,2.5181375E-2,8.220915E-2,5.691919E-2,1.0762045E-3,-3.5626944E-2,-7.887718E-2,-4.3765146E-2,-8.034303E-3,5.204098E-2,-4.338406E-2,4.456897E-3,-7.615589E-2,-4.173208E-2,-1.065231E-1,-8.2645E-2,-3.9127406E-2,-1.3697208E-3,-5.4380428E-2,-9.213309E-2,-6.621653E-2,-2.1944722E-2,-5.0074175E-2,-9.6088555E-3,-8.88845E-2,-6.062211E-2,-5.9416022E-2,-2.3077955E-2,4.488388E-3,-3.5860438E-2,4.0907166E-3,4.5005247E-2,-5.825008E-2,-1.5757645E-2,-1.5128085E-3,-5.088809E-2,-6.5521605E-2,-9.220414E-2,-1.06968224E-1,-8.921123E-2,-3.8563058E-2,-7.044423E-2,-9.3016356E-2,-4.7291867E-2,-1.03727736E-1,-1.1872606E-1,-0E0,-8.2765914E-2,-8.942288E-2,-5.726455E-2,-5.874974E-2,-1.0856658E-1,8.4820874E-2,6.0319353E-2,1.015958E-1,8.715353E-2,2.5506526E-2,5.500247E-2,8.5141994E-2,6.0863078E-2,9.7881526E-2,7.534051E-2,1.1370041E-1,4.5705143E-2,-2.9666638E-3,3.1503305E-2,-3.4394987E-2,-0E0,-6.5261163E-3,3.346756E-2,-9.100176E-3,-6.750564E-2,8.991804E-2,4.765474E-2,2.0178748E-2,-3.1609446E-2,3.0590585E-2,6.7783944E-2,-0E0,9.661788E-2,-0E0,-3.8990688E-2,5.1574904E-2,-1.7148282E-2,-9.47491E-3,3.866012E-2,8.786901E-2,4.3089584E-2,-4.774094E-2,-0E0,-2.6402596E-2,1.0628497E-2,5.607453E-2,1.4670179E-2,1.0812229E-2,-1.7758384E-2,5.4886993E-2,9.193993E-2,5.14469E-2,2.3830887E-2,-3.8833544E-2,-7.27883E-2,-9.29704E-2,-5.8338713E-2,-2.21043E-5,-4.213528E-2,-1.0040772E-2,-7.905751E-2,-3.452907E-2,-3.3633532E-3,-4.7625154E-2,-7.1429096E-2,3.2050945E-2,-0E0,-1.0043485E-2,-5.9526693E-2],"categories":[],"categories_nodes":[],"categories_segments":[],"categories_sizes":[],"default_left":[0,0,0,0,0,0,0,0,0,0,0,0,0,0,0,0,0,0,0,0,0,0,0,0,0,0,0,0,0,0,0,0,0,0,0,0,0,0,0,0,0,0,0,0,0,0,0,0,0,0,0,0,0,0,0,0,0,0,0,0,0,0,0,0,0,0,0,0,0,0,0,0,0,0,0,0,0,0,0,0,0,0,0,0,0,0,0,0,0,0,0,0,0,0,0,0,0,0,0,0,0,0,0,0,0,0,0,0,0,0,0,0,0,0,0,0,0,0,0,0,0,0,0,0,0,0,0,0,0,0,0,0,0,0,0,0,0,0,0,0,0,0,0,0,0,0,0,0,0,0,0,0,0,0,0,0,0,0,0,0,0,0,0,0,0,0,0,0,0,0,0,0,0,0,0,0,0,0,0,0,0,0,0,0,0,0,0,0,0,0,0,0,0,0,0,0,0,0,0,0,0,0,0,0,0,0,0,0,0,0,0,0,0,0,0,0,0,0,0,0,0,0,0,0,0,0,0,0,0,0,0,0,0,0,0,0,0,0,0,0,0,0,0,0,0,0,0,0,0,0,0,0,0,0,0],"id":2,"left_children":[1,3,5,7,9,11,13,15,17,19,21,23,25,27,29,31,33,35,37,39,41,43,45,47,49,51,53,55,57,59,61,63,65,67,69,71,73,75,77,79,81,83,85,87,89,91,93,95,97,99,101,103,105,107,109,111,113,115,117,119,121,123,125,127,129,131,133,135,137,139,141,143,145,147,149,151,153,155,157,159,161,163,165,167,169,171,173,175,177,179,181,183,185,187,189,191,193,195,197,199,201,203,205,207,209,211,213,215,217,219,221,223,225,227,229,231,233,235,237,239,241,243,245,247,249,251,253,-1,-1,-1,-1,-1,-1,-1,-1,-1,-1,-1,-1,-1,-1,-1,-1,-1,-1,-1,-1,-1,-1,-1,-1,-1,-1,-1,-1,-1,-1,-1,-1,-1,-1,-1,-1,-1,-1,-1,-1,-1,-1,-1,-1,-1,-1,-1,-1,-1,-1,-1,-1,-1,-1,-1,-1,-1,-1,-1,-1,-1,-1,-1,-1,-1,-1,-1,-1,-1,-1,-1,-1,-1,-1,-1,-1,-1,-1,-1,-1,-1,-1,-1,-1,-1,-1,-1,-1,-1,-1,-1,-1,-1,-1,-1,-1,-1,-1,-1,-1,-1,-1,-1,-1,-1,-1,-1,-1,-1,-1,-1,-1,-1,-1,-1,-1,-1,-1,-1,-1,-1,-1,-1,-1,-1,-1,-1,-1],"loss_changes":[3.5166145E4,1.3256719E4,1.3436023E4,5.295917E3,2.998707E3,3.3476055E3,2.6799973E3,1.9354205E3,1.0489121E3,9.006929E2,4.3611523E2,1.6795742E3,8.106736E2,7.514318E2,6.3006067E2,4.0439716E2,4.801858E2,4.8975793E2,3.990664E2,3.1151074E2,5.008238E2,3.6087793E2,7.228418E1,3.543711E2,2.974629E2,4.4793927E2,3.0610535E2,2.1490746E2,4.434945E2,1.5430127E2,3.570065E2,2.4923633E2,2.4621472E2,3.1072748E2,1.5260449E2,2.9255322E2,2.6847595E2,2.7323438E2,2.859319E2,2.2454858E2,1.4048389E2,2.6598666E2,1.2602222E2,1.105918E2,2.397351E2,5.373828E1,1.0261279E2,1.9060254E2,1.8609412E2,2.609922E2,1.1784082E1,3.036812E2,2.3744601E2,2.61677E2,1.2387912E2,1.7108522E2,7.470682E1,5.820462E1,2.3343811E2,6.582471E1,1.9288785E2,1.4089374E2,1.5883347E2,9.830701E1,1.3035275E2,6.627995E1,1.0891229E2,1.3185443E2,1.5123921E2,1.5572705E2,6.330371E1,1.9471204E2,1.0737952E2,1.5365367E2,1.9077815E2,8.353784E1,5.1385742E1,1.1354991E2,5.4461853E1,1.1935864E2,1.1868201E2,8.533496E1,2.3053581E1,1.04095856E2,1.0042114E2,1.30651E2,9.852138E1,8.284595E1,2.4925781E1,1.1801404E2,4.9166138E1,2.1663086E1,1.0562225E1,5.078015E1,2.253833E1,1.4406396E2,1.325293E1,1.0990991E2,3.2942505E1,9.19834E1,1.055957E2,1.4090059E1,5.0747633E0,1.254489E2,1.20786896E2,6.412335E1,5.769643E1,7.167322E1,3.4972412E1,2.3306652E1,2.5062317E1,1.407473E2,2.6472473E1,9.8153366E1,3.1456593E1,3.0601143E1,3.338891E1,9.292175E1,8.8527466E1,4.254608E1,3.0559326E1,6.1909786E1,2.640625E1,5.1752968E1,2.6403687E1,8.134532E1,8.819495E1,0E0,0E0,0E0,0E0,0E0,0E0,0E0,0E0,0E0,0E0,0E0,0E0,0E0,0E0,0E0,0E0,0E0,0E0,0E0,0E0,0E0,0E0,0E0,0E0,0E0,0E0,0E0,0E0,0E0,0E0,0E0,0E0,0E0,0E0,0E0,0E0,0E0,0E0,0E0,0E0,0E0,0E0,0E0,0E0,0E0,0E0,0E0,0E0,0E0,0E0,0E0,0E0,0E0,0E0,0E0,0E0,0E0,0E0,0E0,0E0,0E0,0E0,0E0,0E0,0E0,0E0,0E0,0E0,0E0,0E0,0E0,0E0,0E0,0E0,0E0,0E0,0E0,0E0,0E0,0E0,0E0,0E0,0E0,0E0,0E0,0E0,0E0,0E0,0E0,0E0,0E0,0E0,0E0,0E0,0E0,0E0,0E0,0E0,0E0,0E0,0E0,0E0,0E0,0E0,0E0,0E0,0E0,0E0,0E0,0E0,0E0,0E0,0E0,0E0,0E0,0E0,0E0,0E0,0E0,0E0,0E0,0E0,0E0,0E0,0E0,0E0,0E0,0E0],"parents":[2147483647,0,0,1,1,2,2,3,3,4,4,5,5,6,6,7,7,8,8,9,9,10,10,11,11,12,12,13,13,14,14,15,15,16,16,17,17,18,18,19,19,20,20,21,21,22,22,23,23,24,24,25,25,26,26,27,27,28,28,29,29,30,30,31,31,32,32,33,33,34,34,35,35,36,36,37,37,38,38,39,39,40,40,41,41,42,42,43,43,44,44,45,45,46,46,47,47,48,48,49,49,50,50,51,51,52,52,53,53,54,54,55,55,56,56,57,57,58,58,59,59,60,60,61,61,62,62,63,63,64,64,65,65,66,66,67,67,68,68,69,69,70,70,71,71,72,72,73,73,74,74,75,75,76,76,77,77,78,78,79,79,80,80,81,81,82,82,83,83,84,84,85,85,86,86,87,87,88,88,89,89,90,90,91,91,92,92,93,93,94,94,95,95,96,96,97,97,98,98,99,99,100,100,101,101,102,102,103,103,104,104,105,105,106,106,107,107,108,108,109,109,110,110,111,111,112,112,113,113,114,114,115,115,116,116,117,117,118,118,119,119,120,120,121,121,122,122,123,123,124,124,125,125,126,126],"right_children":[2,4,6,8,10,12,14,16,18,20,22,24,26,28,30,32,34,36,38,40,42,44,46,48,50,52,54,56,58,60,62,64,66,68,70,72,74,76,78,80,82,84,86,88,90,92,94,96,98,100,102,104,106,108,110,112,114,116,118,120,122,124,126,128,130,132,134,136,138,140,142,144,146,148,150,152,154,156,158,160,162,164,166,168,170,172,174,176,178,180,182,184,186,188,190,192,194,196,198,200,202,204,206,208,210,212,214,216,218,220,222,224,226,228,230,232,234,236,238,240,242,244,246,248,250,252,254,-1,-1,-1,-1,-1,-1,-1,-1,-1,-1,-1,-1,-1,-1,-1,-1,-1,-1,-1,-1,-1,-1,-1,-1,-1,-1,-1,-1,-1,-1,-1,-1,-1,-1,-1,-1,-1,-1,-1,-1,-1,-1,-1,-1,-1,-1,-1,-1,-1,-1,-1,-1,-1,-1,-1,-1,-1,-1,-1,-1,-1,-1,-1,-1,-1,-1,-1,-1,-1,-1,-1,-1,-1,-1,-1,-1,-1,-1,-1,-1,-1,-1,-1,-1,-1,-1,-1,-1,-1,-1,-1,-1,-1,-1,-1,-1,-1,-1,-1,-1,-1,-1,-1,-1,-1,-1,-1,-1,-1,-1,-1,-1,-1,-1,-1,-1,-1,-1,-1,-1,-1,-1,-1,-1,-1,-1,-1,-1],"split_conditions":[2.534206E3,1.0454375E1,1.5784251E1,2.2517E0,3.4427E0,2.9575E0,3.9457E0,2.1667534E3,3.7644043E0,2.1829463E3,6.9829326E0,2.814142E3,2.8444102E3,2.814142E3,2.8850002E3,2.1565443E2,1.1303617E2,4.507008E4,1.0431631E5,3.033553E1,2.2861572E1,7.1865625E4,5.0387305E4,5.3242354E0,3.9265547E3,5.559684E4,9.5441E0,4.0612648E1,4.9855988E2,4.603297E4,5.2927454E2,1.9273777E3,1.8882838E3,8.570465E1,2.6750457E3,3.0109153E0,9.99969E-1,3.1900795E0,1.29391E1,3.665601E2,-3.1693733E-1,2.7116653E3,3.9934941E3,4.2599006E0,8.617475E0,4.055932E-1,1.42797E1,1.862231E2,3.2547417E3,2.9667278E3,2.008367E3,4.7021594E0,9.7947E0,4.570529E4,1.4094664E5,4.4841406E3,-3.4400013E-1,2.0375786E0,3.543349E1,4.6240706E0,1.29391E1,1.5811728E0,4.507065E0,4.676791E0,2.7713748E3,3.8537867E4,2.9140298E3,1.8071888E3,2.9417344E3,9.998324E-1,9.998293E-1,9.998675E-1,1.9916016E3,1.9121202E3,2.1184272E3,2.7531406E4,6.3061586E4,2.208659E3,1.3387202E1,4.57988E3,2.397645E3,2.6908672E3,1.9550619E-1,9.996988E-1,3.8124725E2,-2.6506728E-1,6.501909E1,2.9295826E0,-5.2583396E-1,3.6401344E1,1.8381358E5,9.3246E0,-1.515847E3,1.3753645E5,9.998375E-1,6.888283E1,9.998961E-1,1.3787813E2,9.999401E-1,1.285548E0,2.4929585E-1,9.5198554E-1,9.9826264E-1,1.2657858E2,3.2431448E0,9.9997723E-1,8.827586E0,3.0916396E3,9.9983525E-1,-4.6501826E-2,2.5746704E1,3.5332193E2,9.999086E-1,3.0968228E3,3.5613235E2,2.010356E1,5.6813137E1,2.8480903E3,2.363832E0,4.1996684E0,1.1024622E4,4.7073868E1,9.9974406E-1,3.553714E4,1.53223E1,8.1101E0,1.58974E1,-2.8669225E-2,-6.5512374E-2,-1.7190928E-2,1.004445E-2,-3.5600405E-2,-1.5236472E-3,1.5035225E-2,4.768347E-2,3.2816842E-2,7.113021E-2,-8.472848E-4,2.9515812E-2,5.6571793E-2,2.5181375E-2,8.220915E-2,5.691919E-2,1.0762045E-3,-3.5626944E-2,-7.887718E-2,-4.3765146E-2,-8.034303E-3,5.204098E-2,-4.338406E-2,4.456897E-3,-7.615589E-2,-4.173208E-2,-1.065231E-1,-8.2645E-2,-3.9127406E-2,-1.3697208E-3,-5.4380428E-2,-9.213309E-2,-6.621653E-2,-2.1944722E-2,-5.0074175E-2,-9.6088555E-3,-8.88845E-2,-6.062211E-2,-5.9416022E-2,-2.3077955E-2,4.488388E-3,-3.5860438E-2,4.0907166E-3,4.5005247E-2,-5.825008E-2,-1.5757645E-2,-1.5128085E-3,-5.088809E-2,-6.5521605E-2,-9.220414E-2,-1.06968224E-1,-8.921123E-2,-3.8563058E-2,-7.044423E-2,-9.3016356E-2,-4.7291867E-2,-1.03727736E-1,-1.1872606E-1,-0E0,-8.2765914E-2,-8.942288E-2,-5.726455E-2,-5.874974E-2,-1.0856658E-1,8.4820874E-2,6.0319353E-2,1.015958E-1,8.715353E-2,2.5506526E-2,5.500247E-2,8.5141994E-2,6.0863078E-2,9.7881526E-2,7.534051E-2,1.1370041E-1,4.5705143E-2,-2.9666638E-3,3.1503305E-2,-3.4394987E-2,-0E0,-6.5261163E-3,3.346756E-2,-9.100176E-3,-6.750564E-2,8.991804E-2,4.765474E-2,2.0178748E-2,-3.1609446E-2,3.0590585E-2,6.7783944E-2,-0E0,9.661788E-2,-0E0,-3.8990688E-2,5.1574904E-2,-1.7148282E-2,-9.47491E-3,3.866012E-2,8.786901E-2,4.3089584E-2,-4.774094E-2,-0E0,-2.6402596E-2,1.0628497E-2,5.607453E-2,1.4670179E-2,1.0812229E-2,-1.7758384E-2,5.4886993E-2,9.193993E-2,5.14469E-2,2.3830887E-2,-3.8833544E-2,-7.27883E-2,-9.29704E-2,-5.8338713E-2,-2.21043E-5,-4.213528E-2,-1.0040772E-2,-7.905751E-2,-3.452907E-2,-3.3633532E-3,-4.7625154E-2,-7.1429096E-2,3.2050945E-2,-0E0,-1.0043485E-2,-5.9526693E-2],"split_indices":[14,93,93,0,0,0,0,14,100,14,100,14,14,14,14,52,52,18,36,93,93,36,18,93,14,18,0,93,42,18,42,14,14,65,78,58,66,58,0,52,101,78,78,58,58,62,0,52,78,14,84,58,0,18,36,78,77,86,93,58,0,86,86,86,78,36,78,84,78,66,66,66,14,14,14,18,36,14,58,78,78,95,62,66,52,77,93,100,101,93,36,0,33,36,31,65,66,52,66,58,27,26,81,52,100,66,100,14,66,62,58,52,66,95,42,93,93,78,86,100,16,93,31,44,0,0,0,0,0,0,0,0,0,0,0,0,0,0,0,0,0,0,0,0,0,0,0,0,0,0,0,0,0,0,0,0,0,0,0,0,0,0,0,0,0,0,0,0,0,0,0,0,0,0,0,0,0,0,0,0,0,0,0,0,0,0,0,0,0,0,0,0,0,0,0,0,0,0,0,0,0,0,0,0,0,0,0,0,0,0,0,0,0,0,0,0,0,0,0,0,0,0,0,0,0,0,0,0,0,0,0,0,0,0,0,0,0,0,0,0,0,0,0,0,0,0,0,0,0,0,0,0,0,0,0],"split_type":[0,0,0,0,0,0,0,0,0,0,0,0,0,0,0,0,0,0,0,0,0,0,0,0,0,0,0,0,0,0,0,0,0,0,0,0,0,0,0,0,0,0,0,0,0,0,0,0,0,0,0,0,0,0,0,0,0,0,0,0,0,0,0,0,0,0,0,0,0,0,0,0,0,0,0,0,0,0,0,0,0,0,0,0,0,0,0,0,0,0,0,0,0,0,0,0,0,0,0,0,0,0,0,0,0,0,0,0,0,0,0,0,0,0,0,0,0,0,0,0,0,0,0,0,0,0,0,0,0,0,0,0,0,0,0,0,0,0,0,0,0,0,0,0,0,0,0,0,0,0,0,0,0,0,0,0,0,0,0,0,0,0,0,0,0,0,0,0,0,0,0,0,0,0,0,0,0,0,0,0,0,0,0,0,0,0,0,0,0,0,0,0,0,0,0,0,0,0,0,0,0,0,0,0,0,0,0,0,0,0,0,0,0,0,0,0,0,0,0,0,0,0,0,0,0,0,0,0,0,0,0,0,0,0,0,0,0,0,0,0,0,0,0,0,0,0,0,0,0,0,0,0,0,0,0],"sum_hessian":[1.2523867E5,7.291571E4,5.232296E4,3.946688E4,3.344883E4,3.407007E4,1.825289E4,2.4307227E4,1.5159654E4,1.6342989E4,1.710584E4,2.68934E4,7.17667E3,9.776052E3,8.476839E3,1.08444E4,1.3462826E4,8.413577E3,6.7460776E3,8.700695E3,7.642294E3,9.980089E3,7.125751E3,1.2445054E4,1.4448346E4,4.2516455E3,2.925025E3,3.8103945E3,5.9656567E3,3.3284263E3,5.1484126E3,6.5083926E3,4.3360073E3,7.182909E3,6.2799175E3,5.4693467E3,2.9442302E3,4.0698718E3,2.6762058E3,4.784185E3,3.9165107E3,3.573716E3,4.068578E3,5.7327227E3,4.2473657E3,3.8747512E3,3.251E3,8.1396772E3,4.305377E3,1.4258499E4,1.8984718E2,2.7161328E3,1.5355125E3,2.3983494E3,5.266755E2,2.1724177E3,1.6379768E3,1.7939722E3,4.1716846E3,1.9736174E3,1.3548088E3,2.4143606E3,2.734052E3,2.5947712E3,3.9136216E3,1.8754764E3,2.4605308E3,3.1760437E3,4.0068652E3,3.5430083E3,2.7369092E3,3.192218E3,2.2771287E3,1.0428381E3,1.9013921E3,1.7850992E3,2.2847725E3,1.7757845E3,9.0042126E2,3.124213E3,1.6599719E3,3.4882822E3,4.2822852E2,1.8233236E3,1.7503925E3,3.120432E3,9.4814594E2,2.806249E3,2.9264736E3,2.806175E3,1.4411907E3,3.5247622E3,3.4998907E2,1.3469152E3,1.9040847E3,6.08205E3,2.0576274E3,2.9061692E3,1.3992075E3,5.1926665E3,9.065832E3,1.6486423E2,2.4982948E1,1.8564316E3,8.5970123E2,1.126136E3,4.0937637E2,1.2117516E3,1.1865978E3,2.8567477E2,2.4100069E2,1.8067222E3,3.6569565E2,1.1456332E3,4.923436E2,9.5150134E2,8.424708E2,1.5627224E3,2.6089622E3,8.8136395E2,1.0922535E3,7.9486475E2,5.599441E2,1.2922601E3,1.1221005E3,1.826229E3,9.0782294E2,2.1164407E3,4.7833038E2,2.3102217E3,1.6034E3,3.769951E2,1.4984813E3,1.5888567E3,8.716741E2,2.5728918E3,6.031518E2,2.6884114E3,1.3184539E3,1.7507115E3,1.7922966E3,7.8352246E2,1.9533866E3,1.3673839E3,1.824834E3,6.957973E2,1.5813314E3,3.2052777E2,7.223103E2,7.1075287E2,1.1906392E3,5.7944855E2,1.2056506E3,9.1577405E2,1.3689984E3,8.95048E2,8.8073663E2,4.960564E2,4.0436487E2,2.711586E3,4.1262714E2,6.7266113E2,9.8731085E2,2.6432285E3,8.450538E2,1.3054875E2,2.9767978E2,4.4086453E2,1.3824591E3,1.324859E3,4.2553345E2,2.6199446E3,5.004873E2,6.027481E2,3.4539786E2,1.1935011E3,1.6127479E3,2.124425E3,8.020487E2,1.7930646E3,1.01311053E3,1.2630038E3,1.7818684E2,1.1285293E3,2.396233E3,1.2643745E1,3.3734534E2,8.8726385E2,4.5965137E2,8.364953E1,1.8204352E3,2.0327051E3,4.0493445E3,1.0666888E3,9.909386E2,1.7104475E3,1.1957217E3,5.515935E2,8.476141E2,3.6530588E3,1.5396077E3,8.917213E3,1.4861902E2,6.394259E1,1.0092164E2,2.1238811E1,3.744137E0,1.2339131E3,6.225185E2,3.2325427E2,5.3644696E2,2.4827058E2,8.778655E2,1.8422466E2,2.2515173E2,7.417372E2,4.7001443E2,1.6410114E1,1.1701876E3,1.0208822E2,1.8358655E2,2.2454134E2,1.645935E1,1.3941062E3,4.1261606E2,9.132498E1,2.7437067E2,8.4221313E2,3.0341998E2,1.4510957E2,3.4723404E2,8.9172356E1,8.62329E2,3.094714E2,5.329994E2,7.7545404E2,7.872683E2,1.2718608E3,1.3371013E3,3.9510782E2,4.8625616E2,8.6905206E2,2.232014E2,4.8345374E2,3.11411E2,4.6531902E1,5.134122E2,8.014912E2,4.9076895E2,6.001883E2,5.2191223E2,6.5735785E2,1.1688711E3,6.284584E2,2.793646E2],"tree_param":{"num_deleted":"0","num_feature":"106","num_nodes":"255","size_leaf_vector":"1"}},{"base_weights":[-9.550126E-4,-4.7632092E-1,5.136953E-1,-1.4331046E-1,-9.2431766E-1,8.788965E-1,-7.4425615E-2,1.2528801E-1,-5.558628E-1,-6.740876E-1,-1.2029724E0,5.357545E-1,1.1619922E0,2.7149168E-1,-4.693493E-1,-1.6897753E-1,3.2659322E-1,-3.4371555E-1,-8.353595E-1,-4.6818444E-1,-8.474867E-1,-1.0559883E0,-1.3294681E0,7.470698E-1,2.5531437E-2,1.2637444E0,6.383443E-1,-7.922568E-2,5.205691E-1,-7.683474E-1,-2.1905339E-1,7.412936E-2,-3.3393648E-1,1.3672802E-1,5.109135E-1,-5.374442E-1,-7.953929E-2,-1.0661495E0,-6.264041E-1,-6.3526547E-1,-1.5500788E-1,-1.8554766E-1,-9.0078443E-1,-1.1639556E0,-7.793676E-1,-1.3813668E0,-1.112352E0,8.7455165E-1,4.874442E-1,2.8213435E-1,-3.5676104E-1,1.0829812E0,1.3770524E0,3.4287593E-1,9.1228044E-1,1.6810063E-1,-3.108301E-1,7.92661E-1,2.982234E-1,-5.9475434E-1,-1.0402315E0,-4.090423E-1,6.330129E-2,-1.9833952E-1,3.9013895E-1,-4.8278275E-1,1.15768565E-2,3.6039165E-1,-5.6008752E-2,6.423765E-1,2.9992417E-1,-2.5297415E-1,-7.339789E-1,3.150708E-1,-2.9004285E-1,-7.981895E-1,-1.2796545E0,-3.911047E-1,-9.510722E-1,-7.561857E-1,-3.2379273E-1,1.364793E-1,-3.5612723E-1,5.419571E-2,-4.1234735E-1,-9.8032945E-1,-5.8228076E-1,-9.6121925E-1,-1.262542E0,-5.541056E-1,-1.1199116E0,-1.277892E0,-1.4670995E0,-8.041841E-1,-1.3295426E0,1.117849E0,7.867416E-1,6.7253834E-1,2.5655717E-1,2.05928E-2,5.599299E-1,-5.5687916E-1,9.417182E-2,1.1810089E0,6.9245577E-1,1.3951561E0,-0E0,4.82888E-1,-4.8591015E-1,1.1135932E0,3.8753766E-1,-3.8504317E-2,4.5599195E-1,-1.4542781E-1,-5.1985174E-1,5.2989507E-1,9.871397E-1,1.8959798E-2,4.3490586E-1,-3.5403103E-1,-8.252533E-1,-1.1956986E0,-7.0935977E-1,-2.0737113E-1,-6.2892675E-1,3.9438787E-1,-2.608202E-1,1.1888546E-2,-2.5086856E-2,5.487741E-2,1.655062E-2,-2.4794336E-2,-5.2520122E-2,2.7131591E-2,-1.9812295E-2,4.2072516E-2,7.8083794E-3,5.970283E-3,-2.2643764E-2,6.700976E-2,4.088232E-2,7.4069845E-3,3.774578E-2,-4.608173E-2,5.3767324E-3,-6.697418E-2,-3.714029E-2,-9.0865925E-4,4.607958E-2,-4.181343E-2,-2.1578784E-3,-8.199799E-2,-4.7654647E-2,-7.524404E-2,-1.0177909E-1,-7.1036764E-3,-4.334804E-2,-5.4921936E-2,-8.817655E-2,-7.1757905E-2,-4.2776674E-2,-5.7404302E-2,-1.2113869E-2,-2.5332076E-2,2.5275687E-2,-4.2698666E-2,2.6410157E-4,-1.2430683E-2,1.7055854E-2,-3.8080823E-2,1.7306638E-3,-8.645544E-2,-6.3895784E-2,-2.4022482E-2,-6.253937E-2,-8.269845E-2,-5.7441197E-2,-1.0042786E-1,-8.508063E-2,-2.0744607E-2,-5.579308E-2,-9.510456E-2,-6.2503345E-2,-1.0551722E-1,-8.6827E-2,-1.116292E-1,-7.122082E-2,-2.998176E-2,-6.9921166E-2,-1.0314035E-1,-7.586E-2,9.033598E-2,6.756882E-2,4.882523E-2,7.8857586E-2,7.359537E-2,3.951723E-2,-0E0,4.5319285E-2,2.7948154E-2,-1.4467722E-2,7.7848425E-3,5.2174725E-2,-5.4181725E-2,4.3526525E-3,1.9151235E-2,-3.0760001E-2,1.0202553E-1,8.201454E-2,6.560479E-2,1.718143E-2,1.0602205E-1,7.543425E-2,1.9531133E-2,-1.63978E-2,4.9731936E-2,6.44982E-3,-0E0,-5.3577114E-2,6.474096E-2,9.837821E-2,1.2506684E-2,6.228026E-2,-1.1122211E-2,4.129679E-2,5.876364E-2,1.9694576E-2,-1.6233375E-2,2.2428852E-2,-3.658219E-3,-4.9344793E-2,1.9288689E-2,5.1057816E-2,2.371876E-2,7.8875124E-2,1.8622007E-2,-1.216262E-2,7.296456E-3,3.8183134E-2,-4.894079E-2,5.9147207E-3,-6.90751E-2,-2.4621738E-2,-7.9693966E-2,-1.04916096E-1,-1.7001884E-2,-7.811281E-2,-2.9841742E-2,5.958313E-3,-3.1872325E-2,-6.441265E-2,9.796171E-3,5.453566E-2,-5.245212E-3,-4.2735215E-2],"categories":[],"categories_nodes":[],"categories_segments":[],"categories_sizes":[],"default_left":[0,0,0,0,0,0,0,0,0,0,0,0,0,0,0,0,0,0,0,0,0,0,0,0,0,0,0,0,0,0,0,0,0,0,0,0,0,0,0,0,0,0,0,0,0,0,0,0,0,0,0,0,0,0,0,0,0,0,0,0,0,0,0,0,0,0,0,0,0,0,0,0,0,0,0,0,0,0,0,0,0,0,0,0,0,0,0,0,0,0,0,0,0,0,0,0,0,0,0,0,0,0,0,0,0,0,0,0,0,0,0,0,0,0,0,0,0,0,0,0,0,0,0,0,0,0,0,0,0,0,0,0,0,0,0,0,0,0,0,0,0,0,0,0,0,0,0,0,0,0,0,0,0,0,0,0,0,0,0,0,0,0,0,0,0,0,0,0,0,0,0,0,0,0,0,0,0,0,0,0,0,0,0,0,0,0,0,0,0,0,0,0,0,0,0,0,0,0,0,0,0,0,0,0,0,0,0,0,0,0,0,0,0,0,0,0,0,0,0,0,0,0,0,0,0,0,0,0,0,0,0,0,0,0,0,0,0,0,0,0,0,0,0,0,0,0,0,0,0,0,0,0,0,0,0],"id":3,"left_children":[1,3,5,7,9,11,13,15,17,19,21,23,25,27,29,31,33,35,37,39,41,43,45,47,49,51,53,55,57,59,61,63,65,67,69,71,73,75,77,79,81,83,85,87,89,91,93,95,97,99,101,103,105,107,109,111,113,115,117,119,121,123,125,127,129,131,133,135,137,139,141,143,145,147,149,151,153,155,157,159,161,163,165,167,169,171,173,175,177,179,181,183,185,187,189,191,193,195,197,199,201,203,205,207,209,211,213,215,217,219,221,223,225,227,229,231,233,235,237,239,241,243,245,247,249,251,253,-1,-1,-1,-1,-1,-1,-1,-1,-1,-1,-1,-1,-1,-1,-1,-1,-1,-1,-1,-1,-1,-1,-1,-1,-1,-1,-1,-1,-1,-1,-1,-1,-1,-1,-1,-1,-1,-1,-1,-1,-1,-1,-1,-1,-1,-1,-1,-1,-1,-1,-1,-1,-1,-1,-1,-1,-1,-1,-1,-1,-1,-1,-1,-1,-1,-1,-1,-1,-1,-1,-1,-1,-1,-1,-1,-1,-1,-1,-1,-1,-1,-1,-1,-1,-1,-1,-1,-1,-1,-1,-1,-1,-1,-1,-1,-1,-1,-1,-1,-1,-1,-1,-1,-1,-1,-1,-1,-1,-1,-1,-1,-1,-1,-1,-1,-1,-1,-1,-1,-1,-1,-1,-1,-1,-1,-1,-1,-1],"loss_changes":[3.048051E4,9.659881E3,1.285292E4,4.1258984E3,1.9216934E3,3.5814395E3,3.1382424E3,1.3380487E3,8.6857666E2,5.182412E2,2.3727734E2,1.7981777E3,1.071127E3,1.0726005E3,8.00697E2,3.704713E2,4.6765308E2,4.2687036E2,3.0206396E2,3.483275E2,2.7402344E2,1.7706104E2,7.205176E1,3.881421E2,4.8784363E2,3.4041602E2,2.6614502E2,2.955851E2,4.317578E2,2.2794775E2,3.184268E2,3.2414825E2,2.8508478E2,2.899051E2,1.8655957E2,2.674579E2,3.012115E2,1.664961E2,2.5389392E2,1.6156653E2,1.4260117E2,3.806067E1,1.8117969E2,8.182617E1,1.3117358E2,4.269922E1,8.8340576E1,1.663247E2,1.6612885E2,2.1393317E2,1.8325366E2,2.4607715E2,2.5702734E2,1.9439919E2,1.7634644E2,1.5128082E2,9.080652E1,1.6121155E2,1.4991934E2,1.6483154E2,9.250415E1,1.5505493E2,2.5919952E2,1.0148243E2,1.0002371E2,1.2665839E2,1.6718736E2,1.590318E2,1.2408903E2,9.9577515E1,1.08006256E2,2.4276216E2,1.0691858E2,1.2845099E2,1.639656E2,6.273871E1,3.1063965E1,1.0845032E2,6.567383E1,1.1494165E2,8.991435E1,9.763645E1,1.1426346E2,1.531324E1,1.7924835E1,1.2527197E2,9.7395386E1,3.7506348E1,2.351416E1,5.5238678E1,2.4718506E1,3.4495117E1,3.464453E1,2.8614716E1,6.259033E0,3.574292E1,2.0691089E2,9.5698364E1,1.6092496E2,1.2369116E2,8.7436615E1,1.485408E2,5.516928E1,7.515381E1,1.1247827E2,8.9203125E1,1.380496E1,9.880118E1,2.8846409E1,5.692285E1,4.8501083E1,9.781022E1,6.561508E1,5.177059E1,7.3836914E1,5.6377533E1,7.94917E1,6.0336193E1,6.6246E1,2.013607E2,7.132861E1,2.8917847E1,9.901373E1,1.0710058E2,7.728204E1,1.0334514E2,7.035765E1,0E0,0E0,0E0,0E0,0E0,0E0,0E0,0E0,0E0,0E0,0E0,0E0,0E0,0E0,0E0,0E0,0E0,0E0,0E0,0E0,0E0,0E0,0E0,0E0,0E0,0E0,0E0,0E0,0E0,0E0,0E0,0E0,0E0,0E0,0E0,0E0,0E0,0E0,0E0,0E0,0E0,0E0,0E0,0E0,0E0,0E0,0E0,0E0,0E0,0E0,0E0,0E0,0E0,0E0,0E0,0E0,0E0,0E0,0E0,0E0,0E0,0E0,0E0,0E0,0E0,0E0,0E0,0E0,0E0,0E0,0E0,0E0,0E0,0E0,0E0,0E0,0E0,0E0,0E0,0E0,0E0,0E0,0E0,0E0,0E0,0E0,0E0,0E0,0E0,0E0,0E0,0E0,0E0,0E0,0E0,0E0,0E0,0E0,0E0,0E0,0E0,0E0,0E0,0E0,0E0,0E0,0E0,0E0,0E0,0E0,0E0,0E0,0E0,0E0,0E0,0E0,0E0,0E0,0E0,0E0,0E0,0E0,0E0,0E0,0E0,0E0,0E0,0E0],"parents":[2147483647,0,0,1,1,2,2,3,3,4,4,5,5,6,6,7,7,8,8,9,9,10,10,11,11,12,12,13,13,14,14,15,15,16,16,17,17,18,18,19,19,20,20,21,21,22,22,23,23,24,24,25,25,26,26,27,27,28,28,29,29,30,30,31,31,32,32,33,33,34,34,35,35,36,36,37,37,38,38,39,39,40,40,41,41,42,42,43,43,44,44,45,45,46,46,47,47,48,48,49,49,50,50,51,51,52,52,53,53,54,54,55,55,56,56,57,57,58,58,59,59,60,60,61,61,62,62,63,63,64,64,65,65,66,66,67,67,68,68,69,69,70,70,71,71,72,72,73,73,74,74,75,75,76,76,77,77,78,78,79,79,80,80,81,81,82,82,83,83,84,84,85,85,86,86,87,87,88,88,89,89,90,90,91,91,92,92,93,93,94,94,95,95,96,96,97,97,98,98,99,99,100,100,101,101,102,102,103,103,104,104,105,105,106,106,107,107,108,108,109,109,110,110,111,111,112,112,113,113,114,114,115,115,116,116,117,117,118,118,119,119,120,120,121,121,122,122,123,123,124,124,125,125,126,126],"right_children":[2,4,6,8,10,12,14,16,18,20,22,24,26,28,30,32,34,36,38,40,42,44,46,48,50,52,54,56,58,60,62,64,66,68,70,72,74,76,78,80,82,84,86,88,90,92,94,96,98,100,102,104,106,108,110,112,114,116,118,120,122,124,126,128,130,132,134,136,138,140,142,144,146,148,150,152,154,156,158,160,162,164,166,168,170,172,174,176,178,180,182,184,186,188,190,192,194,196,198,200,202,204,206,208,210,212,214,216,218,220,222,224,226,228,230,232,234,236,238,240,242,244,246,248,250,252,254,-1,-1,-1,-1,-1,-1,-1,-1,-1,-1,-1,-1,-1,-1,-1,-1,-1,-1,-1,-1,-1,-1,-1,-1,-1,-1,-1,-1,-1,-1,-1,-1,-1,-1,-1,-1,-1,-1,-1,-1,-1,-1,-1,-1,-1,-1,-1,-1,-1,-1,-1,-1,-1,-1,-1,-1,-1,-1,-1,-1,-1,-1,-1,-1,-1,-1,-1,-1,-1,-1,-1,-1,-1,-1,-1,-1,-1,-1,-1,-1,-1,-1,-1,-1,-1,-1,-1,-1,-1,-1,-1,-1,-1,-1,-1,-1,-1,-1,-1,-1,-1,-1,-1,-1,-1,-1,-1,-1,-1,-1,-1,-1,-1,-1,-1,-1,-1,-1,-1,-1,-1,-1,-1,-1,-1,-1,-1,-1],"split_conditions":[2.4535884E3,1.2203719E1,1.2878022E1,2.2958E0,4.2201E0,2.7392217E3,3.5611E0,2.0901545E3,4.0074615E0,2.6855785E1,5.951556E0,2.4582E0,3.2728E0,2.7586917E3,2.8444102E3,9.99856E-1,1.06795525E2,7.656128E4,8.5618484E4,3.1701692E3,1.9382849E2,8.9037125E4,1.3436323E5,1.152998E3,1.1089785E3,2.9196624E3,1.12476625E5,2.7506302E1,3.84405E1,1.1588605E3,4.574593E4,4.3495168E4,9.338297E4,8.838844E1,4.8610716E0,9.9986076E-1,9.999611E-1,6.0783E0,6.700735E0,4.0424362E2,9.999073E-1,1.4941202E0,4.2333794E3,3.6532342E0,9.06328E0,6.2959795E0,1.65081E1,6.022237E1,7.322E-1,7.132635E1,1.480056E2,1.4600288E3,4.0736177E3,6.9829326E0,8.4832E0,2.9851118E3,1.0826837E3,2.5421953E3,6.793461E2,8.4832E0,5.1595125E4,1.8502966E0,1.29391E1,9.9942E-1,9.9968606E-1,4.431646E0,9.999752E-1,4.891605E2,4.2992964E0,9.997391E-1,2.5948442E3,4.435493E4,2.1881143E3,2.08444E3,6.2850316E4,2.5532666E4,2.9259295E0,9.9997914E-1,1.47922E1,2.123852E3,1.8358092E3,1.9121202E3,1.1056174E5,5.2180023E4,9.1449976E2,2.024242E3,5.6813137E1,5.4308492E4,6.0357547E4,9.9995434E-1,2.177603E3,6.202999E4,-1.4281242E-1,3.946421E0,2.4673677E5,1.1582065E0,1.915649E2,9.998675E-1,3.1866875E4,8.430545E1,2.8037314E4,6.70017E4,7.1258E0,7.518376E1,1.3326E0,3.7301958E-1,1.3869118E2,4.2599006E0,3.1430488E0,2.9667278E3,9.707345E4,5.025454E2,9.999011E-1,7.692517E2,9.473792E2,2.9380051E3,1.2641367E3,1.5238521E0,2.9285872E3,7.747654E4,1.5297792E5,8.4832E0,8.6816E0,1.062095E3,1.11693E1,1.25811836E5,3.053354E0,1.1888546E-2,-2.5086856E-2,5.487741E-2,1.655062E-2,-2.4794336E-2,-5.2520122E-2,2.7131591E-2,-1.9812295E-2,4.2072516E-2,7.8083794E-3,5.970283E-3,-2.2643764E-2,6.700976E-2,4.088232E-2,7.4069845E-3,3.774578E-2,-4.608173E-2,5.3767324E-3,-6.697418E-2,-3.714029E-2,-9.0865925E-4,4.607958E-2,-4.181343E-2,-2.1578784E-3,-8.199799E-2,-4.7654647E-2,-7.524404E-2,-1.0177909E-1,-7.1036764E-3,-4.334804E-2,-5.4921936E-2,-8.817655E-2,-7.1757905E-2,-4.2776674E-2,-5.7404302E-2,-1.2113869E-2,-2.5332076E-2,2.5275687E-2,-4.2698666E-2,2.6410157E-4,-1.2430683E-2,1.7055854E-2,-3.8080823E-2,1.7306638E-3,-8.645544E-2,-6.3895784E-2,-2.4022482E-2,-6.253937E-2,-8.269845E-2,-5.7441197E-2,-1.0042786E-1,-8.508063E-2,-2.0744607E-2,-5.579308E-2,-9.510456E-2,-6.2503345E-2,-1.0551722E-1,-8.6827E-2,-1.116292E-1,-7.122082E-2,-2.998176E-2,-6.9921166E-2,-1.0314035E-1,-7.586E-2,9.033598E-2,6.756882E-2,4.882523E-2,7.8857586E-2,7.359537E-2,3.951723E-2,-0E0,4.5319285E-2,2.7948154E-2,-1.4467722E-2,7.7848425E-3,5.2174725E-2,-5.4181725E-2,4.3526525E-3,1.9151235E-2,-3.0760001E-2,1.0202553E-1,8.201454E-2,6.560479E-2,1.718143E-2,1.0602205E-1,7.543425E-2,1.9531133E-2,-1.63978E-2,4.9731936E-2,6.44982E-3,-0E0,-5.3577114E-2,6.474096E-2,9.837821E-2,1.2506684E-2,6.228026E-2,-1.1122211E-2,4.129679E-2,5.876364E-2,1.9694576E-2,-1.6233375E-2,2.2428852E-2,-3.658219E-3,-4.9344793E-2,1.9288689E-2,5.1057816E-2,2.371876E-2,7.8875124E-2,1.8622007E-2,-1.216262E-2,7.296456E-3,3.8183134E-2,-4.894079E-2,5.9147207E-3,-6.90751E-2,-2.4621738E-2,-7.9693966E-2,-1.04916096E-1,-1.7001884E-2,-7.811281E-2,-2.9841742E-2,5.958313E-3,-3.1872325E-2,-6.441265E-2,9.796171E-3,5.453566E-2,-5.245212E-3,-4.2735215E-2],"split_indices":[14,93,93,0,0,14,0,14,100,93,58,0,0,14,14,66,52,36,36,78,12,36,36,35,35,14,36,93,93,35,44,36,36,65,93,66,66,0,58,52,66,86,78,100,100,100,0,65,0,52,52,35,14,100,0,78,35,78,49,0,18,86,0,66,66,93,66,12,93,66,78,36,14,14,18,18,58,66,0,14,14,14,36,36,35,14,93,36,36,66,14,36,101,100,36,100,52,66,18,65,18,18,0,65,0,62,3,58,58,14,18,52,66,52,12,14,74,86,14,36,36,0,0,35,0,36,86,0,0,0,0,0,0,0,0,0,0,0,0,0,0,0,0,0,0,0,0,0,0,0,0,0,0,0,0,0,0,0,0,0,0,0,0,0,0,0,0,0,0,0,0,0,0,0,0,0,0,0,0,0,0,0,0,0,0,0,0,0,0,0,0,0,0,0,0,0,0,0,0,0,0,0,0,0,0,0,0,0,0,0,0,0,0,0,0,0,0,0,0,0,0,0,0,0,0,0,0,0,0,0,0,0,0,0,0,0,0,0,0,0,0,0,0,0,0,0,0,0,0,0,0,0,0,0,0],"split_type":[0,0,0,0,0,0,0,0,0,0,0,0,0,0,0,0,0,0,0,0,0,0,0,0,0,0,0,0,0,0,0,0,0,0,0,0,0,0,0,0,0,0,0,0,0,0,0,0,0,0,0,0,0,0,0,0,0,0,0,0,0,0,0,0,0,0,0,0,0,0,0,0,0,0,0,0,0,0,0,0,0,0,0,0,0,0,0,0,0,0,0,0,0,0,0,0,0,0,0,0,0,0,0,0,0,0,0,0,0,0,0,0,0,0,0,0,0,0,0,0,0,0,0,0,0,0,0,0,0,0,0,0,0,0,0,0,0,0,0,0,0,0,0,0,0,0,0,0,0,0,0,0,0,0,0,0,0,0,0,0,0,0,0,0,0,0,0,0,0,0,0,0,0,0,0,0,0,0,0,0,0,0,0,0,0,0,0,0,0,0,0,0,0,0,0,0,0,0,0,0,0,0,0,0,0,0,0,0,0,0,0,0,0,0,0,0,0,0,0,0,0,0,0,0,0,0,0,0,0,0,0,0,0,0,0,0,0,0,0,0,0,0,0,0,0,0,0,0,0,0,0,0,0,0,0],"sum_hessian":[1.2453632E5,6.4745004E4,5.9791316E4,3.7148832E4,2.7596172E4,3.6891285E4,2.2900035E4,2.2492924E4,1.4655905E4,1.4557181E4,1.3038992E4,1.669102E4,2.0200266E4,1.22002E4,1.0699835E4,9.125344E3,1.336758E4,8.348212E3,6.307694E3,6.676309E3,7.8808716E3,6.0680103E3,6.9709824E3,1.1793518E4,4.897501E3,1.6900115E4,3.30015E3,5.057738E3,7.1424624E3,4.86158E3,5.838255E3,3.675462E3,5.4498823E3,6.60338E3,6.7642007E3,4.8014346E3,3.546777E3,2.9769656E3,3.3307283E3,4.339103E3,2.337206E3,5.9659503E2,7.2842764E3,4.341028E3,1.7269823E3,5.588827E3,1.3821552E3,7.8889185E3,3.904599E3,2.94015E3,1.9573511E3,6.5462793E3,1.0353836E4,1.6018092E3,1.6983407E3,2.434211E3,2.6235269E3,3.19599E3,3.9464722E3,2.987226E3,1.8743542E3,3.5012754E3,2.3369795E3,1.9645613E3,1.7109006E3,3.8197195E3,1.6301628E3,3.0689492E3,3.5344304E3,4.1459805E3,2.6182205E3,1.9772944E3,2.8241401E3,1.2236094E3,2.3231677E3,1.3398246E3,1.637141E3,1.9461622E3,1.384566E3,3.1084924E3,1.2306105E3,9.429138E2,1.3942922E3,2.789193E2,3.176757E2,5.807978E3,1.4762986E3,1.4523369E3,2.888691E3,1.0554315E3,6.7155084E2,2.5892466E3,2.9995803E3,5.8951636E2,7.926388E2,2.0633137E3,5.825605E3,2.1494014E3,1.7551978E3,1.5271543E3,1.4129956E3,1.364034E3,5.93317E2,5.2150127E3,1.3312667E3,1.0218722E4,1.3511406E2,1.377604E3,2.2420528E2,1.2165001E3,4.8184055E2,1.4072653E3,1.0269457E3,1.4835269E3,1.1399999E3,1.3777957E3,1.8181943E3,1.3121544E3,2.6343179E3,1.4780332E3,1.5091929E3,1.2567842E3,6.1757E2,1.8437294E3,1.657546E3,1.164541E3,1.1724385E3,5.340267E2,1.4305345E3,5.4647845E2,1.1644222E3,2.2894758E3,1.5302437E3,7.2675806E2,9.034047E2,1.6961742E3,1.372775E3,2.2667478E3,1.2676825E3,1.1002542E3,3.045726E3,1.3414772E3,1.2767433E3,9.3942505E2,1.0378694E3,1.6524934E3,1.1716467E3,5.796606E2,6.4394885E2,1.1295609E3,1.1936068E3,4.463474E2,8.934772E2,4.1086102E2,1.2262799E3,7.733543E2,1.172808E3,7.3495294E2,6.4961316E2,1.4467489E3,1.6617434E3,3.1467288E2,9.1593756E2,2.7172537E2,6.711885E2,8.804522E2,5.1384E2,1.084147E2,1.705046E2,2.6991885E2,4.7756855E1,2.3667134E3,3.4412644E3,7.456449E2,7.3065375E2,7.97763E2,6.545739E2,1.6830771E3,1.2056139E3,4.500156E2,6.054159E2,4.1376117E2,2.5778967E2,1.1503009E3,1.4389457E3,2.8289504E3,1.7063004E2,1.600795E2,4.294369E2,6.542881E2,1.3835074E2,1.411208E3,6.5210565E2,3.9223555E3,1.9032496E3,6.559768E2,1.4934244E3,1.01851447E3,7.366833E2,5.854716E2,9.416827E2,3.4099E2,1.0720056E3,1.0774596E3,2.8657446E2,4.5930475E2,1.3401225E2,1.5725127E3,3.6425E3,9.380649E2,3.9320184E2,9.583693E3,6.350282E2,6.3419968E1,7.1694084E1,9.308151E2,4.4678885E2,7.249582E1,1.5170946E2,5.7175775E2,6.447423E2,3.347982E2,1.4704239E2,1.1964335E3,2.1083174E2,3.6220923E2,6.647364E2,1.2901854E3,1.9334143E2,2.7316922E2,8.668307E2,5.152581E2,8.625375E2,1.7969235E2,1.6385021E3,5.9225916E2,7.1989526E2,5.0206976E2,2.132248E3,8.785561E2,5.9947705E2,1.2440707E3,2.6512213E2,8.0927136E2,4.4751282E2,2.6363202E2,3.5393802E2,1.11569E3,7.280393E2,9.073981E2,7.5014795E2,6.6540686E2,4.9913416E2,7.416529E2,4.3078555E2],"tree_param":{"num_deleted":"0","num_feature":"106","num_nodes":"255","size_leaf_vector":"1"}},{"base_weights":[-1.0478104E-3,3.1136405E-1,-6.1030704E-1,5.7228297E-1,-1.2627368E-1,-2.2892314E-1,-7.778338E-1,4.0456668E-1,7.926806E-1,-2.5728953E-1,2.3812443E-1,-5.0038934E-1,9.274721E-2,-9.1653013E-1,-5.12371E-1,5.82351E-1,1.6574521E-1,9.0125525E-1,5.827985E-1,-3.8406196E-1,4.0783692E-2,4.0333796E-1,-3.0960232E-1,-2.389898E-1,-8.270788E-1,3.7703827E-1,-3.5211083E-1,-7.3138696E-1,-1.0879451E0,-1.8129255E-1,-8.026216E-1,7.103878E-1,3.0389383E-1,-1.700663E-1,3.1877697E-1,9.7943044E-1,7.232739E-1,3.0357566E-1,7.7181625E-1,-1.6143973E-1,-7.067701E-1,1.8539496E-1,-1.850542E-1,5.2514076E-1,1.8441248E-1,-3.8922158E-1,2.9670393E-1,8.2222015E-2,-4.6831158E-1,-5.268008E-1,-1.0629649E0,2.5138232E-1,7.8063756E-1,-1.6788791E-1,-8.991673E-1,-4.4806144E-1,-8.618018E-1,-1.1892033E0,-7.687098E-1,-3.5899314E-1,1.2593527E-1,-9.6189886E-1,-3.7892827E-1,5.6047356E-1,7.9570144E-1,5.963158E-2,5.12389E-1,5.5127717E-3,-4.6797168E-1,1.9920997E-1,5.1008713E-1,1.054559E0,8.614265E-1,4.6675736E-1,8.3713496E-1,4.7829166E-1,1.2740672E-3,1.1532339E0,7.201401E-1,-3.6278877E-1,5.69192E-2,-8.1250435E-1,-4.2237797E-1,-1.5044154E-1,2.986508E-1,-4.411795E-1,-3.9931543E-2,6.4364356E-1,3.2429284E-1,-7.104818E-2,3.2060605E-1,-6.6117334E-1,-1.7281695E-1,-0E0,5.137517E-1,3.3429554E-1,-1.4484154E-1,-7.801079E-1,-2.4117926E-1,-7.948787E-1,-3.317174E-1,-1.205199E0,-8.7779766E-1,5.893258E-1,6.0681008E-2,1.0522755E0,6.5975267E-1,-3.757727E-1,2.986029E-1,-1.0736057E0,-2.9049945E-1,-6.4359164E-1,-1.7183599E-1,-1.0329857E0,-6.688844E-1,-1.0078354E0,-1.2871559E0,-6.3561255E-1,-9.895318E-1,-1.1945978E-1,-5.518013E-1,2.8969607E-1,-1.2155075E-1,-1.057615E0,-5.4348505E-1,-2.0522775E-1,-7.388007E-1,6.135931E-2,3.4878455E-2,7.555149E-2,5.282195E-2,2.1205064E-2,-6.3113226E-3,4.10968E-2,-2.1761062E-2,5.454262E-3,-2.5948316E-2,-6.1479867E-2,-2.2328993E-2,4.4118673E-2,6.6164634E-3,5.896161E-2,2.8801924E-2,7.393791E-2,9.277168E-2,5.679828E-2,7.477265E-2,5.054781E-2,2.2407174E-2,7.3704705E-2,5.4629445E-2,4.2863045E-2,1.35114305E-2,-3.6025118E-2,7.956492E-3,-0E0,8.673847E-2,3.746532E-2,6.370721E-2,-1.7890174E-2,-4.08385E-2,2.499409E-2,-6.3217054E-3,-0E0,-6.3760296E-2,-1.5710266E-2,-4.52365E-2,-1.9085687E-2,4.4890093E-3,3.2045506E-3,3.070953E-2,-1.4730579E-2,-4.221406E-2,-1.0426303E-2,1.844873E-2,3.7854183E-2,6.2511116E-2,1.639528E-2,4.7774002E-2,1.3727652E-2,-1.7692914E-2,5.2288886E-2,1.7201437E-2,-3.647063E-2,-7.69571E-2,-2.02895E-2,2.8563023E-2,8.397364E-3,-2.5212377E-2,7.4221953E-3,5.9045207E-2,3.883716E-2,-5.9046242E-3,-3.835037E-2,3.7635143E-3,-3.30719E-2,-6.968395E-2,5.796674E-3,-3.58714E-2,-4.2880654E-2,-7.2363004E-2,-2.1968968E-3,-4.2026605E-2,-7.57527E-2,-9.834282E-2,-4.243644E-2,-8.1767485E-2,3.0730655E-2,6.317616E-2,1.0896975E-2,-2.3690812E-2,8.268339E-2,7.5903255E-3,3.2898083E-2,6.7839086E-2,1.7459496E-3,-4.4535227E-2,3.9710976E-2,-5.4407874E-3,-3.46372E-2,-8.744664E-2,2.1972312E-3,-4.4664852E-2,-3.65348E-2,-6.866274E-2,-5.8251513E-5,-2.9181002E-2,-8.353478E-2,-5.268753E-2,-3.863512E-2,-6.958239E-2,-8.936237E-2,-5.272004E-2,-9.844849E-2,-7.12953E-2,-5.978043E-2,-3.512606E-2,-5.874134E-2,-8.089132E-2,2.762683E-3,-2.9673653E-2,-4.7429763E-2,-3.6066405E-3,5.3825743E-2,1.298999E-2,2.873871E-2,-1.830581E-2,-6.555809E-2,-9.144765E-2,-1.7449338E-2,-7.883007E-2,-1.9109988E-3,-3.506912E-2,-6.4053856E-2,-2.639335E-3],"categories":[],"categories_nodes":[],"categories_segments":[],"categories_sizes":[],"default_left":[0,0,0,0,0,0,0,0,0,0,0,0,0,0,0,0,0,0,0,0,0,0,0,0,0,0,0,0,0,0,0,0,0,0,0,0,0,0,0,0,0,0,0,0,0,0,0,0,0,0,0,0,0,0,0,0,0,0,0,0,0,0,0,0,0,0,1,0,0,0,0,0,0,0,0,0,0,0,0,0,0,0,0,0,0,0,0,0,0,0,0,0,0,0,0,0,0,0,0,0,0,0,0,0,0,1,0,0,0,0,0,0,0,0,0,0,0,0,0,0,0,0,0,0,0,0,0,0,0,0,0,0,0,0,0,0,0,0,0,0,0,0,0,0,0,0,0,0,0,0,0,0,0,0,0,0,0,0,0,0,0,0,0,0,0,0,0,0,0,0,0,0,0,0,0,0,0,0,0,0,0,0,0,0,0,0,0,0,0,0,0,0,0,0,0,0,0,0,0,0,0,0,0,0,0,0,0,0,0,0,0,0,0,0,0,0,0,0,0,0,0,0,0,0,0,0,0,0,0,0,0,0,0,0,0,0,0,0,0,0,0,0,0,0,0,0,0,0,0,0,0,0,0,0,0],"id":4,"left_children":[1,3,5,7,9,11,13,15,17,19,21,23,25,27,29,31,33,35,37,39,41,43,45,47,49,51,53,55,57,59,61,63,65,67,69,71,73,75,77,79,81,83,85,87,89,91,93,95,97,99,101,103,105,107,109,111,113,115,117,119,121,123,125,127,129,131,133,135,137,139,141,143,145,147,149,151,153,155,157,159,161,163,165,167,169,171,173,175,177,179,181,183,185,187,189,191,193,195,197,199,201,203,205,207,209,211,213,215,217,219,221,223,225,227,229,231,233,235,237,239,241,243,245,247,249,251,253,-1,-1,-1,-1,-1,-1,-1,-1,-1,-1,-1,-1,-1,-1,-1,-1,-1,-1,-1,-1,-1,-1,-1,-1,-1,-1,-1,-1,-1,-1,-1,-1,-1,-1,-1,-1,-1,-1,-1,-1,-1,-1,-1,-1,-1,-1,-1,-1,-1,-1,-1,-1,-1,-1,-1,-1,-1,-1,-1,-1,-1,-1,-1,-1,-1,-1,-1,-1,-1,-1,-1,-1,-1,-1,-1,-1,-1,-1,-1,-1,-1,-1,-1,-1,-1,-1,-1,-1,-1,-1,-1,-1,-1,-1,-1,-1,-1,-1,-1,-1,-1,-1,-1,-1,-1,-1,-1,-1,-1,-1,-1,-1,-1,-1,-1,-1,-1,-1,-1,-1,-1,-1,-1,-1,-1,-1,-1,-1],"loss_changes":[2.355148E4,9.341449E3,2.6767979E3,1.892459E3,1.4620249E3,1.1254792E3,1.0696367E3,1.2352134E3,5.0145996E2,8.5297424E2,7.3616406E2,5.938651E2,7.4871277E2,6.0339746E2,9.616306E2,5.927217E2,6.441538E2,1.9929688E2,3.9807275E2,1.1336221E3,2.2256396E2,1.6452869E2,9.523358E1,2.9182758E2,2.1585791E2,1.8260858E2,2.3107755E2,3.381172E2,3.153418E2,2.6122797E2,3.5657446E2,1.4384863E2,2.68158E2,2.094338E2,1.9584094E2,8.578613E1,1.2851611E2,1.6159454E2,8.756445E1,4.1601004E2,1.9103638E2,1.5996347E2,9.719028E1,9.319287E1,8.1892624E1,9.738274E1,1.7504187E1,9.7971825E1,1.6092752E2,7.1309265E1,4.09812E1,1.7786238E2,2.5869995E1,1.7315872E2,5.6329315E1,1.5713892E2,2.0511426E2,1.2792871E2,6.898047E1,1.3738794E2,7.373204E1,1.5057227E2,9.249147E1,1.0140112E2,1.3624219E2,8.387174E1,9.2172E1,6.136978E1,8.74147E1,2.3064612E2,1.1351782E2,7.022656E1,5.344702E1,4.855963E1,4.6375977E1,5.351349E1,6.295008E1,4.9173584E0,1.13663574E2,1.1055542E2,1.8175629E2,1.5431055E2,6.797751E1,2.5752499E1,8.773309E1,2.6903412E1,5.1514675E1,6.420862E1,5.0199783E1,3.6963264E1,5.1699112E1,4.53154E1,5.68825E1,9.300648E0,1.3457027E1,6.534123E1,6.788616E1,4.6261658E1,1.07727104E2,1.935727E1,5.6369347E1,1.4726318E1,4.9259216E1,4.392206E1,6.0927994E1,6.764435E0,3.1664703E1,1.1162279E2,5.1601776E1,2.0595032E1,2.0882309E1,7.143207E1,4.632798E1,8.850366E1,1.1775537E2,1.4816016E2,4.3646973E1,4.028009E1,1.3040161E1,6.447882E1,6.622717E1,5.3488174E1,4.7326378E1,8.978613E1,1.1723041E2,4.832397E1,3.5526886E1,0E0,0E0,0E0,0E0,0E0,0E0,0E0,0E0,0E0,0E0,0E0,0E0,0E0,0E0,0E0,0E0,0E0,0E0,0E0,0E0,0E0,0E0,0E0,0E0,0E0,0E0,0E0,0E0,0E0,0E0,0E0,0E0,0E0,0E0,0E0,0E0,0E0,0E0,0E0,0E0,0E0,0E0,0E0,0E0,0E0,0E0,0E0,0E0,0E0,0E0,0E0,0E0,0E0,0E0,0E0,0E0,0E0,0E0,0E0,0E0,0E0,0E0,0E0,0E0,0E0,0E0,0E0,0E0,0E0,0E0,0E0,0E0,0E0,0E0,0E0,0E0,0E0,0E0,0E0,0E0,0E0,0E0,0E0,0E0,0E0,0E0,0E0,0E0,0E0,0E0,0E0,0E0,0E0,0E0,0E0,0E0,0E0,0E0,0E0,0E0,0E0,0E0,0E0,0E0,0E0,0E0,0E0,0E0,0E0,0E0,0E0,0E0,0E0,0E0,0E0,0E0,0E0,0E0,0E0,0E0,0E0,0E0,0E0,0E0,0E0,0E0,0E0,0E0],"parents":[2147483647,0,0,1,1,2,2,3,3,4,4,5,5,6,6,7,7,8,8,9,9,10,10,11,11,12,12,13,13,14,14,15,15,16,16,17,17,18,18,19,19,20,20,21,21,22,22,23,23,24,24,25,25,26,26,27,27,28,28,29,29,30,30,31,31,32,32,33,33,34,34,35,35,36,36,37,37,38,38,39,39,40,40,41,41,42,42,43,43,44,44,45,45,46,46,47,47,48,48,49,49,50,50,51,51,52,52,53,53,54,54,55,55,56,56,57,57,58,58,59,59,60,60,61,61,62,62,63,63,64,64,65,65,66,66,67,67,68,68,69,69,70,70,71,71,72,72,73,73,74,74,75,75,76,76,77,77,78,78,79,79,80,80,81,81,82,82,83,83,84,84,85,85,86,86,87,87,88,88,89,89,90,90,91,91,92,92,93,93,94,94,95,95,96,96,97,97,98,98,99,99,100,100,101,101,102,102,103,103,104,104,105,105,106,106,107,107,108,108,109,109,110,110,111,111,112,112,113,113,114,114,115,115,116,116,117,117,118,118,119,119,120,120,121,121,122,122,123,123,124,124,125,125,126,126],"right_children":[2,4,6,8,10,12,14,16,18,20,22,24,26,28,30,32,34,36,38,40,42,44,46,48,50,52,54,56,58,60,62,64,66,68,70,72,74,76,78,80,82,84,86,88,90,92,94,96,98,100,102,104,106,108,110,112,114,116,118,120,122,124,126,128,130,132,134,136,138,140,142,144,146,148,150,152,154,156,158,160,162,164,166,168,170,172,174,176,178,180,182,184,186,188,190,192,194,196,198,200,202,204,206,208,210,212,214,216,218,220,222,224,226,228,230,232,234,236,238,240,242,244,246,248,250,252,254,-1,-1,-1,-1,-1,-1,-1,-1,-1,-1,-1,-1,-1,-1,-1,-1,-1,-1,-1,-1,-1,-1,-1,-1,-1,-1,-1,-1,-1,-1,-1,-1,-1,-1,-1,-1,-1,-1,-1,-1,-1,-1,-1,-1,-1,-1,-1,-1,-1,-1,-1,-1,-1,-1,-1,-1,-1,-1,-1,-1,-1,-1,-1,-1,-1,-1,-1,-1,-1,-1,-1,-1,-1,-1,-1,-1,-1,-1,-1,-1,-1,-1,-1,-1,-1,-1,-1,-1,-1,-1,-1,-1,-1,-1,-1,-1,-1,-1,-1,-1,-1,-1,-1,-1,-1,-1,-1,-1,-1,-1,-1,-1,-1,-1,-1,-1,-1,-1,-1,-1,-1,-1,-1,-1,-1,-1,-1,-1],"split_conditions":[3.5009E0,9.46117E0,7.948738E0,5.4848E3,6.95041E3,9.888349E4,4.574593E4,1.0908006E0,1.2112646E0,-4.0810657E-1,5.0076244E1,4.128256E0,8.6816E0,4.6261096E0,1.03088E1,1.1950266E0,4.7517785E4,1.0437989E0,8.5618484E4,2.7506302E1,3.2895837E0,1.7295468E0,-4.0629426E-1,2.7276816E0,3.6532342E0,1.8381358E5,1.451656E1,2.7678223E0,-2.9771218E-1,1.3924828E5,-2.8833765E-1,3.884958E4,5.3995055E4,1.8173E0,8.398739E4,9.99959E-1,6.7822234E4,1.4216783E0,9.999486E-1,4.738265E3,2.3175376E3,4.7942197E2,6.4415497E2,1.5235729E0,7.888074E4,1.0948018E3,-1.12186E3,1.7791663E0,6.0700613E4,6.1380477E4,7.263127E4,9.999777E-1,9.9999154E-1,1.8803333E5,2.1705358E5,5.8730176E4,6.0357547E4,7.5883E0,3.1116195E0,3.876968E0,2.5592976E1,2.0971884E5,3.8774207E0,9.9951243E-1,9.998324E-1,9.997889E-1,4.013331E3,2.8877225E0,3.3916332E4,9.998536E-1,9.999625E-1,7.1865625E4,8.498866E3,9.998778E-1,9.999719E-1,9.9997073E-1,4.7517785E4,2.065943E4,1.25811836E5,1.9599509E0,9.998293E-1,1.7501485E2,5.5019165E1,1.9505406E4,5.5476013E2,-3.7386E0,1.3433967E3,1.6888779E3,2.6471488E4,1.8668396E-4,9.999401E-1,2.0666357E3,3.4309739E3,6.649266E2,9.7485906E-1,9.999431E-1,5.491972E4,9.9983525E-1,9.999486E-1,8.292475E1,5.4301E0,6.17805E0,8.1101E0,1.2456844E5,7.1258E0,1.5419714E3,2.4673677E5,9.9997723E-1,1.15434675E1,3.6249935E1,1.0807309E1,2.9295826E0,9.999011E-1,-2.8833765E-1,8.617475E0,6.489378E4,1.1348246E5,7.76306E1,3.0959039E0,9.999625E-1,-2.6506728E-1,9.999762E-1,9.9995106E-1,1.0807309E1,1.8860239E1,2.62105E1,6.015605E4,6.135931E-2,3.4878455E-2,7.555149E-2,5.282195E-2,2.1205064E-2,-6.3113226E-3,4.10968E-2,-2.1761062E-2,5.454262E-3,-2.5948316E-2,-6.1479867E-2,-2.2328993E-2,4.4118673E-2,6.6164634E-3,5.896161E-2,2.8801924E-2,7.393791E-2,9.277168E-2,5.679828E-2,7.477265E-2,5.054781E-2,2.2407174E-2,7.3704705E-2,5.4629445E-2,4.2863045E-2,1.35114305E-2,-3.6025118E-2,7.956492E-3,-0E0,8.673847E-2,3.746532E-2,6.370721E-2,-1.7890174E-2,-4.08385E-2,2.499409E-2,-6.3217054E-3,-0E0,-6.3760296E-2,-1.5710266E-2,-4.52365E-2,-1.9085687E-2,4.4890093E-3,3.2045506E-3,3.070953E-2,-1.4730579E-2,-4.221406E-2,-1.0426303E-2,1.844873E-2,3.7854183E-2,6.2511116E-2,1.639528E-2,4.7774002E-2,1.3727652E-2,-1.7692914E-2,5.2288886E-2,1.7201437E-2,-3.647063E-2,-7.69571E-2,-2.02895E-2,2.8563023E-2,8.397364E-3,-2.5212377E-2,7.4221953E-3,5.9045207E-2,3.883716E-2,-5.9046242E-3,-3.835037E-2,3.7635143E-3,-3.30719E-2,-6.968395E-2,5.796674E-3,-3.58714E-2,-4.2880654E-2,-7.2363004E-2,-2.1968968E-3,-4.2026605E-2,-7.57527E-2,-9.834282E-2,-4.243644E-2,-8.1767485E-2,3.0730655E-2,6.317616E-2,1.0896975E-2,-2.3690812E-2,8.268339E-2,7.5903255E-3,3.2898083E-2,6.7839086E-2,1.7459496E-3,-4.4535227E-2,3.9710976E-2,-5.4407874E-3,-3.46372E-2,-8.744664E-2,2.1972312E-3,-4.4664852E-2,-3.65348E-2,-6.866274E-2,-5.8251513E-5,-2.9181002E-2,-8.353478E-2,-5.268753E-2,-3.863512E-2,-6.958239E-2,-8.936237E-2,-5.272004E-2,-9.844849E-2,-7.12953E-2,-5.978043E-2,-3.512606E-2,-5.874134E-2,-8.089132E-2,2.762683E-3,-2.9673653E-2,-4.7429763E-2,-3.6066405E-3,5.3825743E-2,1.298999E-2,2.873871E-2,-1.830581E-2,-6.555809E-2,-9.144765E-2,-1.7449338E-2,-7.883007E-2,-1.9109988E-3,-3.506912E-2,-6.4053856E-2,-2.639335E-3],"split_indices":[0,93,93,25,25,36,44,100,100,101,93,58,0,100,0,58,36,58,36,93,86,58,101,100,100,36,100,58,77,36,77,36,36,0,36,66,36,58,66,25,95,8,49,100,36,95,19,58,36,36,36,66,66,36,36,36,36,0,86,58,93,36,86,66,66,66,89,100,36,66,66,36,25,66,66,66,36,44,36,58,66,12,93,71,49,0,8,95,71,91,66,70,84,12,26,66,36,66,66,54,0,58,0,36,0,17,36,66,58,69,58,100,66,77,58,36,36,93,58,66,77,66,66,58,100,0,88,0,0,0,0,0,0,0,0,0,0,0,0,0,0,0,0,0,0,0,0,0,0,0,0,0,0,0,0,0,0,0,0,0,0,0,0,0,0,0,0,0,0,0,0,0,0,0,0,0,0,0,0,0,0,0,0,0,0,0,0,0,0,0,0,0,0,0,0,0,0,0,0,0,0,0,0,0,0,0,0,0,0,0,0,0,0,0,0,0,0,0,0,0,0,0,0,0,0,0,0,0,0,0,0,0,0,0,0,0,0,0,0,0,0,0,0,0,0,0,0,0,0,0,0,0,0,0,0],"split_type":[0,0,0,0,0,0,0,0,0,0,0,0,0,0,0,0,0,0,0,0,0,0,0,0,0,0,0,0,0,0,0,0,0,0,0,0,0,0,0,0,0,0,0,0,0,0,0,0,0,0,0,0,0,0,0,0,0,0,0,0,0,0,0,0,0,0,0,0,0,0,0,0,0,0,0,0,0,0,0,0,0,0,0,0,0,0,0,0,0,0,0,0,0,0,0,0,0,0,0,0,0,0,0,0,0,0,0,0,0,0,0,0,0,0,0,0,0,0,0,0,0,0,0,0,0,0,0,0,0,0,0,0,0,0,0,0,0,0,0,0,0,0,0,0,0,0,0,0,0,0,0,0,0,0,0,0,0,0,0,0,0,0,0,0,0,0,0,0,0,0,0,0,0,0,0,0,0,0,0,0,0,0,0,0,0,0,0,0,0,0,0,0,0,0,0,0,0,0,0,0,0,0,0,0,0,0,0,0,0,0,0,0,0,0,0,0,0,0,0,0,0,0,0,0,0,0,0,0,0,0,0,0,0,0,0,0,0,0,0,0,0,0,0,0,0,0,0,0,0,0,0,0,0,0,0],"sum_hessian":[1.2366132E5,8.173965E4,4.1921668E4,5.1216566E4,3.0523086E4,1.2807638E4,2.911403E4,2.9105076E4,2.2111488E4,2.246354E4,8.059547E3,6.9545454E3,5.8530923E3,1.9102674E4,1.00113545E4,1.6667703E4,1.2437373E4,1.4546681E4,7.564808E3,1.577343E4,6.690108E3,6.2007446E3,1.8588024E3,3.8766892E3,3.0778564E3,3.5793066E3,2.273786E3,9.209074E3,9.8936E3,4.6888535E3,5.3225015E3,1.1399595E4,5.268109E3,3.8814988E3,8.555874E3,1.0073217E4,4.4734644E3,3.0699583E3,4.4948496E3,9.348058E3,6.4253726E3,4.094579E3,2.5955288E3,3.9638098E3,2.2369348E3,1.6526555E3,2.0614684E2,1.605237E3,2.2714521E3,1.3701038E3,1.7077528E3,2.7449727E3,8.343339E2,1.7124681E3,5.613177E2,2.9218997E3,6.287175E3,7.4898213E3,2.4037786E3,2.9822231E3,1.7066302E3,3.8549917E3,1.4675096E3,4.169117E3,7.2304775E3,2.4409443E3,2.8271643E3,2.432128E3,1.4493708E3,5.288426E3,3.2674485E3,6.1070537E3,3.9661628E3,1.3965989E3,3.0768657E3,1.9320198E3,1.1379385E3,5.1367395E2,3.9811758E3,4.8760425E3,4.472015E3,4.664132E3,1.7612411E3,1.0193746E3,3.0752043E3,9.21595E2,1.673934E3,2.4697239E3,1.4940859E3,7.636485E2,1.4732863E3,7.171407E2,9.355149E2,8.304193E1,1.23104904E2,7.720295E2,8.332076E2,9.4280585E2,1.3286461E3,5.598467E2,8.10257E2,9.367964E2,7.7095636E2,9.764882E2,1.7684845E3,2.3353746E2,6.0079645E2,1.1936772E3,5.1879095E2,4.2671185E2,1.3460582E2,1.6957128E3,1.2261869E3,3.3069023E3,2.9802725E3,2.6617136E3,4.828108E3,1.5249934E3,8.7878503E2,1.346014E3,1.6362091E3,1.0407872E3,6.65843E2,3.1214934E3,7.334984E2,1.0045025E3,4.6300708E2,1.0747823E3,3.0943347E3,2.0699082E3,5.1605693E3,9.692995E2,1.4716448E3,2.7078145E3,1.1935002E2,2.0578088E3,3.7431918E2,4.5156357E2,9.9780725E2,1.1498523E3,4.1385737E3,9.862863E2,2.281162E3,4.5850093E3,1.5220441E3,2.3415413E3,1.6246216E3,5.9758453E2,7.990143E2,1.237129E3,1.8397367E3,1.4444529E3,4.8756696E2,1.9121149E2,9.46727E2,3.7263558E0,5.0994763E2,1.5290725E3,2.4521033E3,2.9444756E3,1.9315668E3,1.5219633E3,2.9500518E3,2.2930591E2,4.4348257E3,8.3509485E2,9.261462E2,6.9778864E2,3.2158594E2,9.5714685E2,2.1180576E3,3.2968042E2,5.9191455E2,1.2587838E3,4.151501E2,1.4719943E3,9.9772955E2,1.1400356E3,3.540503E2,2.8709848E2,4.7655E2,2.66E2,1.2072863E3,5.049889E2,2.1215176E2,8.045752E2,1.3093968E2,5.773597E1,2.5305962E1,5.9687702E1,6.3417206E1,5.417144E2,2.3031506E2,2.9671402E2,5.364936E2,3.1046692E2,6.323389E2,5.6013574E2,7.6851044E2,2.6847134E2,2.9137534E2,3.6365466E2,4.4660236E2,3.7848013E2,5.583163E2,3.3424478E2,4.367116E2,5.95744E2,3.8074417E2,1.4573826E3,3.1110193E2,2.1445013E2,1.9087318E1,3.3703598E2,2.6376047E2,4.166369E2,7.770403E2,3.2737933E2,1.9141164E2,6.9829666E1,3.568822E2,5.83356E1,7.627022E1,1.1071677E3,5.885451E2,7.052618E2,5.209251E2,2.6007812E3,7.06121E2,1.911222E3,1.0690504E3,1.6192731E3,1.0424407E3,4.389254E3,4.3885388E2,7.388275E2,7.861659E2,3.0777832E2,5.710067E2,8.4980676E2,4.9620724E2,1.3932316E3,2.4297758E2,2.0569075E2,8.3509644E2,1.1988877E2,5.459542E2,1.5305127E3,1.5909806E3,4.6735464E2,2.6614377E2,6.13538E2,3.9096448E2,3.8831992E2,7.468716E1],"tree_param":{"num_deleted":"0","num_feature":"106","num_nodes":"255","size_leaf_vector":"1"}},{"base_weights":[-8.279184E-6,3.5996693E-1,-4.1518813E-1,5.405337E-1,-1.6257407E-1,-1.5564898E-1,-6.7463315E-1,4.0502992E-1,8.77501E-1,-4.0475485E-1,1.683829E-1,5.1527932E-2,-4.4514358E-1,-7.58284E-1,-1.01585254E-1,5.595091E-1,1.115782E-1,1.0015639E0,6.904931E-1,-1.4724067E-1,-7.8662133E-1,4.089482E-1,-3.1081784E-1,-6.2740974E-2,4.5611477E-1,-6.4163965E-1,-1.3742681E-1,-8.403737E-1,-4.5152923E-1,-3.9538026E-1,2.8179497E-1,4.0246242E-1,7.005665E-1,-7.94078E-2,4.1951883E-1,8.984755E-1,1.1581492E0,4.6266696E-1,9.068844E-1,-4.209014E-1,4.458378E-2,-1.0102886E0,-5.945821E-1,2.67992E-1,7.178057E-1,4.4854347E-2,-6.1599684E-1,-2.0429976E-1,2.2551537E-1,2.7243826E-1,6.7231286E-1,-7.3546594E-1,-1.3903916E-1,-2.762826E-1,2.4570562E-1,-6.415549E-1,-9.896261E-1,-5.5915296E-1,-1.2712874E-1,-5.116244E-1,9.666852E-2,5.498394E-1,1.4395116E-1,5.217267E-1,2.1857278E-1,8.374664E-1,5.749877E-1,4.6189312E-2,-3.4342027E-1,4.9993888E-1,-3.780611E-2,7.8982E-1,1.0456268E0,1.1797348E0,5.47457E-1,6.1939627E-1,1.3582122E-1,7.456668E-1,1.0125067E0,-7.5828236E-1,-3.3022058E-1,1.4521635E-1,-4.8327976E-1,-7.671872E-1,-1.137631E0,-3.9594424E-1,-9.801896E-1,3.9468548E-1,-6.609601E-2,6.0336167E-1,9.876441E-1,-1.1313359E-1,4.8235363E-1,-8.2171994E-1,-1.9447961E-1,-4.3172953E-1,-9.262793E-2,3.8900602E-1,-1.6010438E-1,4.1935647E-1,-1.3240647E-1,5.7733846E-1,9.574109E-1,-5.896671E-1,-8.680029E-1,-4.5856267E-1,6.312216E-2,-6.1528713E-2,-5.209759E-1,1.11687794E-1,5.224959E-1,-8.2913524E-1,-3.3313483E-1,-1.0605137E0,-5.566074E-1,-4.3061882E-1,-7.610509E-1,3.3357553E-2,-4.474023E-1,-2.5701588E-1,-8.0643576E-1,4.2904925E-1,-4.705597E-1,-0E0,6.3035476E-1,-4.5070037E-2,3.481664E-1,4.8913185E-2,3.0201366E-2,7.427146E-4,3.2682154E-2,5.108023E-2,7.313727E-2,3.1505406E-2,5.8390282E-2,-1.7052507E-2,1.5831113E-2,-1.4843218E-2,-3.966591E-2,5.475014E-2,2.8205538E-2,-1.2189395E-2,4.022909E-2,6.571941E-2,4.5413733E-2,8.5173234E-2,7.109885E-2,8.312091E-2,9.470814E-2,5.089682E-2,-6.0669878E-3,3.9307736E-2,7.367087E-2,-3.1215781E-2,1.9376013E-2,4.8117697E-2,7.645183E-2,8.0599345E-2,5.624808E-2,-2.073688E-2,-6.3939154E-2,-0E0,-3.698485E-2,3.211673E-2,-8.2947355E-4,-1.2817378E-2,-5.5224445E-2,-7.46338E-2,-4.8111644E-2,-1.879209E-2,-8.6915664E-2,-1.3690608E-3,-3.981388E-2,-5.711296E-2,-8.473865E-2,5.373098E-2,2.2298759E-2,-1.4674424E-2,2.2141341E-2,6.399041E-2,3.491899E-2,8.2999624E-2,5.8090765E-2,-2.362538E-2,1.394222E-2,4.8861966E-2,7.836969E-3,-4.5542162E-2,-7.9456344E-2,1.2841668E-3,-4.4964068E-2,-2.2385921E-2,-4.9117915E-2,1.4588446E-2,-1.5155722E-2,4.797473E-2,2.0090882E-2,-2.220245E-2,1.2424979E-2,7.1460935E-3,4.1454677E-2,-0E0,-3.65403E-2,5.2601982E-2,2.996432E-2,7.494249E-2,-0E0,-5.415041E-2,-2.9110571E-2,-3.9742332E-2,-7.180888E-2,-4.5670476E-2,-0E0,-3.383517E-3,2.8255148E-2,-1.3258627E-2,2.4725411E-2,-2.4592793E-2,-5.3593967E-2,1.8725974E-2,-1.5333449E-2,1.2861078E-2,5.215151E-2,-4.6787087E-2,-6.892E-2,-1.1166804E-2,-4.887464E-2,-2.7428104E-2,-8.1589445E-2,-1.9639708E-2,-6.5702155E-2,-2.005037E-2,-4.2875387E-2,-4.1855574E-2,-6.5276146E-2,1.8686883E-2,-1.52887665E-2,-4.965955E-2,-1.953338E-2,-4.3544725E-2,2.685632E-3,-0E0,-6.7416936E-2,5.006088E-2,7.1312613E-3,-5.9348896E-2,-4.707573E-3,-4.386721E-3,2.8608715E-2,3.2837167E-2,5.8770835E-2,-2.060125E-2,1.29783405E-2,-0E0,3.268805E-2],"categories":[],"categories_nodes":[],"categories_segments":[],"categories_sizes":[],"default_left":[0,0,0,0,0,0,0,0,0,0,0,0,0,0,0,0,0,0,0,0,0,0,0,0,0,0,0,0,0,0,0,0,0,0,0,0,0,0,0,0,0,0,0,0,0,0,0,0,0,0,0,0,0,0,0,0,0,0,0,0,0,0,0,0,0,0,0,0,0,0,0,0,0,0,0,0,0,0,0,0,0,0,0,0,0,0,0,0,0,0,0,0,0,0,0,0,0,0,0,0,0,0,0,0,0,0,0,0,0,0,0,0,0,0,0,0,0,0,0,0,0,0,0,0,0,0,0,0,0,0,0,0,0,0,0,0,0,0,0,0,0,0,0,0,0,0,0,0,0,0,0,0,0,0,0,0,0,0,0,0,0,0,0,0,0,0,0,0,0,0,0,0,0,0,0,0,0,0,0,0,0,0,0,0,0,0,0,0,0,0,0,0,0,0,0,0,0,0,0,0,0,0,0,0,0,0,0,0,0,0,0,0,0,0,0,0,0,0,0,0,0,0,0,0,0,0,0,0,0,0,0,0,0,0,0,0,0,0,0,0,0,0,0,0,0,0,0,0,0,0,0,0,0,0,0],"id":5,"left_children":[1,3,5,7,9,11,13,15,17,19,21,23,25,27,29,31,33,35,37,39,41,43,45,47,49,51,53,55,57,59,61,63,65,67,69,71,73,75,77,79,81,83,85,87,89,91,93,95,97,99,101,103,105,107,109,111,113,115,117,119,121,123,125,127,129,131,133,135,137,139,141,143,145,147,149,151,153,155,157,159,161,163,165,167,169,171,173,175,177,179,181,183,185,187,189,191,193,195,197,199,201,203,205,207,209,211,213,215,217,219,221,223,225,227,229,231,233,235,237,239,241,243,245,247,249,251,253,-1,-1,-1,-1,-1,-1,-1,-1,-1,-1,-1,-1,-1,-1,-1,-1,-1,-1,-1,-1,-1,-1,-1,-1,-1,-1,-1,-1,-1,-1,-1,-1,-1,-1,-1,-1,-1,-1,-1,-1,-1,-1,-1,-1,-1,-1,-1,-1,-1,-1,-1,-1,-1,-1,-1,-1,-1,-1,-1,-1,-1,-1,-1,-1,-1,-1,-1,-1,-1,-1,-1,-1,-1,-1,-1,-1,-1,-1,-1,-1,-1,-1,-1,-1,-1,-1,-1,-1,-1,-1,-1,-1,-1,-1,-1,-1,-1,-1,-1,-1,-1,-1,-1,-1,-1,-1,-1,-1,-1,-1,-1,-1,-1,-1,-1,-1,-1,-1,-1,-1,-1,-1,-1,-1,-1,-1,-1,-1],"loss_changes":[1.8406855E4,6.226742E3,3.8494326E3,2.2374014E3,1.362939E3,1.7214961E3,1.3668613E3,1.584166E3,3.2283008E2,9.6246106E2,8.309968E2,7.7803705E2,7.2104004E2,6.2507715E2,4.1926245E2,5.0606494E2,7.1688214E2,1.3233691E2,2.759348E2,3.1342352E2,1.6684204E2,2.0776434E2,2.660044E2,5.340794E2,1.4568652E2,3.403186E2,2.5331342E2,5.8043164E2,1.8302454E2,1.23947815E2,5.879637E1,2.374187E2,2.0525635E2,2.5227386E2,1.7460223E2,7.8953125E1,3.7799805E1,1.4023035E2,4.581079E1,7.476129E1,1.8750407E2,5.1778687E1,1.6341815E2,1.4354672E2,4.4393738E1,8.438669E1,1.1010745E2,2.2205545E2,2.7414627E2,1.2470392E2,4.4414673E1,1.1632324E2,8.1688995E1,1.8083875E2,4.6353996E1,4.872627E2,3.395244E2,1.0185632E2,7.517804E1,1.26441864E2,8.347977E1,2.2317993E1,4.569624E1,1.0177698E2,1.9648549E2,1.22242676E2,1.9905542E2,2.3376627E2,6.546365E1,1.1233588E2,5.543389E1,4.6328735E1,1.50407715E1,1.376123E1,1.7042786E1,6.304303E1,6.821102E1,3.1649902E1,2.5393677E1,2.032724E1,1.0976312E2,1.3485648E2,4.2451294E1,1.6694061E1,2.0775879E1,7.2484695E1,2.0270996E1,7.543585E1,4.6924362E1,3.5802246E1,7.2506104E0,5.4074715E1,1.8076477E1,4.1812744E1,4.6106323E1,8.4954956E1,1.9026573E2,9.154233E1,6.0973278E1,6.403061E1,2.850896E1,2.7318329E1,1.6687866E1,7.834766E1,9.654736E1,3.370343E1,3.016743E1,8.872823E1,5.9290924E1,4.1898457E1,2.2392548E1,9.681641E1,1.9006424E2,2.0783789E2,1.5064682E2,5.6151947E1,3.2079468E1,5.0812107E1,1.8067665E1,9.56785E1,6.175345E1,1.9731209E1,1.7779007E1,7.7392535E0,1.197728E1,3.273162E1,1.647541E1,0E0,0E0,0E0,0E0,0E0,0E0,0E0,0E0,0E0,0E0,0E0,0E0,0E0,0E0,0E0,0E0,0E0,0E0,0E0,0E0,0E0,0E0,0E0,0E0,0E0,0E0,0E0,0E0,0E0,0E0,0E0,0E0,0E0,0E0,0E0,0E0,0E0,0E0,0E0,0E0,0E0,0E0,0E0,0E0,0E0,0E0,0E0,0E0,0E0,0E0,0E0,0E0,0E0,0E0,0E0,0E0,0E0,0E0,0E0,0E0,0E0,0E0,0E0,0E0,0E0,0E0,0E0,0E0,0E0,0E0,0E0,0E0,0E0,0E0,0E0,0E0,0E0,0E0,0E0,0E0,0E0,0E0,0E0,0E0,0E0,0E0,0E0,0E0,0E0,0E0,0E0,0E0,0E0,0E0,0E0,0E0,0E0,0E0,0E0,0E0,0E0,0E0,0E0,0E0,0E0,0E0,0E0,0E0,0E0,0E0,0E0,0E0,0E0,0E0,0E0,0E0,0E0,0E0,0E0,0E0,0E0,0E0,0E0,0E0,0E0,0E0,0E0,0E0],"parents":[2147483647,0,0,1,1,2,2,3,3,4,4,5,5,6,6,7,7,8,8,9,9,10,10,11,11,12,12,13,13,14,14,15,15,16,16,17,17,18,18,19,19,20,20,21,21,22,22,23,23,24,24,25,25,26,26,27,27,28,28,29,29,30,30,31,31,32,32,33,33,34,34,35,35,36,36,37,37,38,38,39,39,40,40,41,41,42,42,43,43,44,44,45,45,46,46,47,47,48,48,49,49,50,50,51,51,52,52,53,53,54,54,55,55,56,56,57,57,58,58,59,59,60,60,61,61,62,62,63,63,64,64,65,65,66,66,67,67,68,68,69,69,70,70,71,71,72,72,73,73,74,74,75,75,76,76,77,77,78,78,79,79,80,80,81,81,82,82,83,83,84,84,85,85,86,86,87,87,88,88,89,89,90,90,91,91,92,92,93,93,94,94,95,95,96,96,97,97,98,98,99,99,100,100,101,101,102,102,103,103,104,104,105,105,106,106,107,107,108,108,109,109,110,110,111,111,112,112,113,113,114,114,115,115,116,116,117,117,118,118,119,119,120,120,121,121,122,122,123,123,124,124,125,125,126,126],"right_children":[2,4,6,8,10,12,14,16,18,20,22,24,26,28,30,32,34,36,38,40,42,44,46,48,50,52,54,56,58,60,62,64,66,68,70,72,74,76,78,80,82,84,86,88,90,92,94,96,98,100,102,104,106,108,110,112,114,116,118,120,122,124,126,128,130,132,134,136,138,140,142,144,146,148,150,152,154,156,158,160,162,164,166,168,170,172,174,176,178,180,182,184,186,188,190,192,194,196,198,200,202,204,206,208,210,212,214,216,218,220,222,224,226,228,230,232,234,236,238,240,242,244,246,248,250,252,254,-1,-1,-1,-1,-1,-1,-1,-1,-1,-1,-1,-1,-1,-1,-1,-1,-1,-1,-1,-1,-1,-1,-1,-1,-1,-1,-1,-1,-1,-1,-1,-1,-1,-1,-1,-1,-1,-1,-1,-1,-1,-1,-1,-1,-1,-1,-1,-1,-1,-1,-1,-1,-1,-1,-1,-1,-1,-1,-1,-1,-1,-1,-1,-1,-1,-1,-1,-1,-1,-1,-1,-1,-1,-1,-1,-1,-1,-1,-1,-1,-1,-1,-1,-1,-1,-1,-1,-1,-1,-1,-1,-1,-1,-1,-1,-1,-1,-1,-1,-1,-1,-1,-1,-1,-1,-1,-1,-1,-1,-1,-1,-1,-1,-1,-1,-1,-1,-1,-1,-1,-1,-1,-1,-1,-1,-1,-1,-1],"split_conditions":[9.61854E0,2.6147618E0,2.9295826E0,1.170788E3,1.026956E5,2.4404643E0,1.380079E3,1.4627297E0,1.0437989E0,3.0522163E0,5.729635E0,1.2268771E3,7.938544E4,-3.1990358E-1,-3.916711E-1,4.9417876E3,8.451945E4,1.5196545E3,7.747654E4,5.839805E4,6.705096E4,1.1588605E3,6.9829326E0,6.624715E3,2.68517E4,1.2337059E3,1.1649342E3,3.5922399E0,1.0373654E3,7.105908E4,3.5842538E2,8.737089E-1,9.9992603E-1,3.3328643E0,7.296118E0,2.6976304E3,4.458682E-1,1.4193217E0,1.380079E3,3.600221E4,7.2965655E0,4.069093E0,7.460783E0,7.632498E0,1.8803333E5,1.9255377E5,1.9255377E5,3.972241E4,3.3591316E1,1.6584361E0,9.79849E3,4.328737E0,-7.0729864E-1,6.065553E0,1.5759542E3,8.136939E4,1.632071E5,3.170459E0,1.0828453E3,4.952688E0,1.1946205E1,3.9695493E2,1.642911E3,9.998293E-1,2.718831E4,5.1584926E4,9.4680766E4,4.6931305E4,1.265208E0,9.99969E-1,2.0345281E5,8.450601E-1,9.9995106E-1,1.7812224E3,2.5239072E3,1.642911E3,4.0321195E4,7.1946086E4,3.1249857E-2,2.3601564E1,9.998324E-1,9.999361E-1,5.2828625E1,2.0958031E4,9.988824E-1,9.9994123E-1,6.985097E0,9.9996775E-1,1.9255377E5,9.9995834E-1,5.224952E0,1.0422096E3,1.15434675E1,1.1935061E1,1.5218673E1,1.3792498E0,9.9968606E-1,9.998487E-1,3.175008E3,1.3712395E3,1.6820523E0,2.2861572E1,1.014604E2,5.3995055E4,6.0595127E1,3.3407327E3,1.642911E3,1.4094664E5,3.543349E1,8.000019E0,4.2374723E4,2.0546194E1,8.005849E0,1.686784E2,1.1946205E1,3.0023367E2,3.0959039E0,1.9244275E0,8.3638215E-1,7.263127E4,8.915538E2,6.1712103E0,-7.323906E-1,3.5156E2,4.728796E2,9.530089E3,9.991709E-1,4.8913185E-2,3.0201366E-2,7.427146E-4,3.2682154E-2,5.108023E-2,7.313727E-2,3.1505406E-2,5.8390282E-2,-1.7052507E-2,1.5831113E-2,-1.4843218E-2,-3.966591E-2,5.475014E-2,2.8205538E-2,-1.2189395E-2,4.022909E-2,6.571941E-2,4.5413733E-2,8.5173234E-2,7.109885E-2,8.312091E-2,9.470814E-2,5.089682E-2,-6.0669878E-3,3.9307736E-2,7.367087E-2,-3.1215781E-2,1.9376013E-2,4.8117697E-2,7.645183E-2,8.0599345E-2,5.624808E-2,-2.073688E-2,-6.3939154E-2,-0E0,-3.698485E-2,3.211673E-2,-8.2947355E-4,-1.2817378E-2,-5.5224445E-2,-7.46338E-2,-4.8111644E-2,-1.879209E-2,-8.6915664E-2,-1.3690608E-3,-3.981388E-2,-5.711296E-2,-8.473865E-2,5.373098E-2,2.2298759E-2,-1.4674424E-2,2.2141341E-2,6.399041E-2,3.491899E-2,8.2999624E-2,5.8090765E-2,-2.362538E-2,1.394222E-2,4.8861966E-2,7.836969E-3,-4.5542162E-2,-7.9456344E-2,1.2841668E-3,-4.4964068E-2,-2.2385921E-2,-4.9117915E-2,1.4588446E-2,-1.5155722E-2,4.797473E-2,2.0090882E-2,-2.220245E-2,1.2424979E-2,7.1460935E-3,4.1454677E-2,-0E0,-3.65403E-2,5.2601982E-2,2.996432E-2,7.494249E-2,-0E0,-5.415041E-2,-2.9110571E-2,-3.9742332E-2,-7.180888E-2,-4.5670476E-2,-0E0,-3.383517E-3,2.8255148E-2,-1.3258627E-2,2.4725411E-2,-2.4592793E-2,-5.3593967E-2,1.8725974E-2,-1.5333449E-2,1.2861078E-2,5.215151E-2,-4.6787087E-2,-6.892E-2,-1.1166804E-2,-4.887464E-2,-2.7428104E-2,-8.1589445E-2,-1.9639708E-2,-6.5702155E-2,-2.005037E-2,-4.2875387E-2,-4.1855574E-2,-6.5276146E-2,1.8686883E-2,-1.52887665E-2,-4.965955E-2,-1.953338E-2,-4.3544725E-2,2.685632E-3,-0E0,-6.7416936E-2,5.006088E-2,7.1312613E-3,-5.9348896E-2,-4.707573E-3,-4.386721E-3,2.8608715E-2,3.2837167E-2,5.8770835E-2,-2.060125E-2,1.29783405E-2,-0E0,3.268805E-2],"split_indices":[93,100,100,35,36,58,35,58,58,58,58,35,36,101,77,25,36,35,36,36,36,35,100,25,18,35,35,58,35,18,12,100,66,58,58,78,62,100,35,36,100,100,100,100,36,36,36,36,93,100,25,58,77,58,35,36,36,86,12,58,100,42,35,66,18,36,36,36,100,66,36,100,66,35,35,35,36,18,62,69,66,66,69,18,30,66,58,66,36,30,100,35,58,58,58,100,66,66,95,35,58,93,93,36,54,95,35,36,93,58,18,93,100,12,100,12,58,86,81,36,12,100,27,15,95,16,30,0,0,0,0,0,0,0,0,0,0,0,0,0,0,0,0,0,0,0,0,0,0,0,0,0,0,0,0,0,0,0,0,0,0,0,0,0,0,0,0,0,0,0,0,0,0,0,0,0,0,0,0,0,0,0,0,0,0,0,0,0,0,0,0,0,0,0,0,0,0,0,0,0,0,0,0,0,0,0,0,0,0,0,0,0,0,0,0,0,0,0,0,0,0,0,0,0,0,0,0,0,0,0,0,0,0,0,0,0,0,0,0,0,0,0,0,0,0,0,0,0,0,0,0,0,0,0,0],"split_type":[0,0,0,0,0,0,0,0,0,0,0,0,0,0,0,0,0,0,0,0,0,0,0,0,0,0,0,0,0,0,0,0,0,0,0,0,0,0,0,0,0,0,0,0,0,0,0,0,0,0,0,0,0,0,0,0,0,0,0,0,0,0,0,0,0,0,0,0,0,0,0,0,0,0,0,0,0,0,0,0,0,0,0,0,0,0,0,0,0,0,0,0,0,0,0,0,0,0,0,0,0,0,0,0,0,0,0,0,0,0,0,0,0,0,0,0,0,0,0,0,0,0,0,0,0,0,0,0,0,0,0,0,0,0,0,0,0,0,0,0,0,0,0,0,0,0,0,0,0,0,0,0,0,0,0,0,0,0,0,0,0,0,0,0,0,0,0,0,0,0,0,0,0,0,0,0,0,0,0,0,0,0,0,0,0,0,0,0,0,0,0,0,0,0,0,0,0,0,0,0,0,0,0,0,0,0,0,0,0,0,0,0,0,0,0,0,0,0,0,0,0,0,0,0,0,0,0,0,0,0,0,0,0,0,0,0,0,0,0,0,0,0,0,0,0,0,0,0,0,0,0,0,0,0,0],"sum_hessian":[1.23090664E5,6.59212E4,5.7169457E4,4.899999E4,1.6921217E4,2.8593639E4,2.8575818E4,3.496488E4,1.4035111E4,9.780778E3,7.1404395E3,1.6656404E4,1.1937233E4,2.4925941E4,3.649878E3,2.289132E4,1.2073557E4,8.409376E3,5.625735E3,5.853602E3,3.9271765E3,4.762333E3,2.3781064E3,1.2979324E4,3.67708E3,7.2712695E3,4.665964E3,1.964386E4,5.2820815E3,2.0748752E3,1.5750028E3,1.0857853E4,1.2033468E4,7.4419E3,4.6316567E3,5.1080405E3,3.301336E3,2.7590835E3,2.8666516E3,2.4229314E3,3.4306707E3,1.793076E3,2.1341003E3,3.2875474E3,1.4747855E3,1.0908463E3,1.2872601E3,8.718827E3,4.2604966E3,2.007027E3,1.6700531E3,6.1162427E3,1.1550269E3,3.436623E3,1.2293408E3,8.448192E3,1.1195668E4,3.9508213E3,1.3312601E3,1.6877975E3,3.8707764E2,5.168943E2,1.0581085E3,6.5630444E3,4.294808E3,5.7252476E3,6.30822E3,5.030007E3,2.4118933E3,3.9495002E3,6.821566E2,2.9743716E3,2.1336687E3,3.1761777E3,1.2515824E2,1.8506443E3,9.084392E2,1.1680453E3,1.6986063E3,4.9404532E2,1.928886E3,2.8928142E3,5.378565E2,6.408269E2,1.1522491E3,1.4233241E3,7.107763E2,2.3957485E3,8.9179877E2,1.0589398E3,4.1584564E2,7.936628E2,2.971836E2,8.5348804E2,4.337721E2,2.8507043E3,5.8681235E3,3.0025398E3,1.2579567E3,1.483043E3,5.239839E2,1.2762511E3,3.9380188E2,2.9426965E3,3.1735464E3,4.5693698E2,6.9808984E2,1.8453427E3,1.5912805E3,8.458626E2,3.8347815E2,5.2376846E3,3.2105076E3,9.604658E3,1.5910099E3,2.4385242E3,1.5122971E3,8.769512E2,4.5430893E2,9.198663E2,7.679313E2,2.510756E2,1.3600204E2,7.066725E1,4.4622705E2,5.3619977E2,5.219087E2,3.0420706E3,3.5209739E3,2.2152722E3,2.0795361E3,2.7798525E3,2.9453948E3,3.647598E3,2.6606223E3,1.880245E3,3.1497617E3,1.3838542E3,1.028039E3,1.3358798E3,2.6136204E3,5.706817E2,1.114749E2,1.957122E3,1.01724976E3,1.0085713E3,1.1250974E3,1.8759982E3,1.3001794E3,1.10520485E2,1.4637755E1,1.4960656E3,3.545787E2,1.5563693E2,7.528023E2,8.8014935E2,2.8789587E2,1.3239594E3,3.7464694E2,9.599184E1,3.980535E2,6.335885E2,1.2952976E3,1.0359623E3,1.8568518E3,2.5562723E2,2.8222928E2,1.9655019E2,4.442767E2,4.056717E1,1.111682E3,3.9165488E2,1.0316692E3,3.2156906E2,3.8920724E2,5.278209E2,1.8679276E3,6.689067E2,2.2289209E2,3.4772543E2,7.112144E2,2.3432988E2,1.8151576E2,4.844639E2,3.0919888E2,1.9177394E2,1.0540967E2,4.7485107E2,3.7863693E2,2.7841864E2,1.5535345E2,1.8212256E3,1.0294788E3,1.6099337E3,4.2581895E3,9.442162E2,2.0583237E3,8.98497E2,3.5945963E2,4.5265182E2,1.0303912E3,3.8720685E2,1.3677707E2,7.159705E2,5.6028064E2,3.741682E2,1.9633684E1,1.7311194E3,1.2115771E3,7.101927E2,2.4633538E3,3.4069943E2,1.16237564E2,5.0803058E2,1.900593E2,1.4373982E3,4.0794443E2,8.257498E2,7.655307E2,6.012102E2,2.446524E2,1.4160127E2,2.4187688E2,1.6848694E3,3.552815E3,2.05794E3,1.1525677E3,4.3377002E2,9.170888E3,8.46474E2,7.445358E2,1.1687991E3,1.2697251E3,5.713234E2,9.409737E2,4.715871E2,4.0536407E2,1.9058858E2,2.6372037E2,4.430288E2,4.7683746E2,8.143051E1,6.8650073E2,1.3346034E2,1.1761526E2,6.589219E1,7.010985E1,5.7974335E1,1.2692915E1,2.2419757E2,2.2202946E2,2.73438E2,2.627618E2,1.1245308E2,4.094556E2],"tree_param":{"num_deleted":"0","num_feature":"106","num_nodes":"255","size_leaf_vector":"1"}},{"base_weights":[-1.8379165E-4,-3.5474437E-1,5.562156E-1,-3.7346177E-2,-6.9444764E-1,8.423069E-1,-2.050137E-2,1.936986E-1,-3.5479248E-1,-4.8696405E-1,-1.0067627E0,9.3987286E-1,2.2605522E-1,2.3237258E-1,-3.7209246E-1,-8.490571E-2,4.301597E-1,-6.079791E-1,-1.3625114E-1,-6.53641E-1,-2.2847636E-1,-8.4314245E-1,-1.1211417E0,7.4167347E-1,1.1825637E0,-1.18251264E-1,4.9348825E-1,-4.9153402E-2,4.138357E-1,-6.679271E-1,-2.3159933E-1,-3.4524456E-1,4.0784888E-2,6.930964E-1,3.0167526E-1,-4.244576E-1,-8.016174E-1,1.3940357E-1,-3.1878E-1,-7.231469E-1,-2.90737E-1,-9.375894E-2,-5.503729E-1,-9.2053133E-1,-5.2758217E-1,-1.211313E0,-1.0018358E0,8.80332E-1,4.334986E-1,1.2040718E0,8.178568E-3,2.5844398E-1,-3.4508082E-1,2.9098356E-1,9.1861E-1,1.10957585E-1,-4.0847355E-1,2.701367E-1,7.857941E-1,-4.8460576E-1,-9.0866935E-1,-4.7249073E-1,-1.91474E-2,-9.9977806E-2,-4.9458525E-1,3.8920602E-1,-6.359994E-2,4.5506525E-1,9.5609313E-1,7.9781175E-2,5.2659434E-1,-5.833336E-1,-2.2979304E-1,-8.671232E-1,-4.5075098E-1,2.964343E-1,-1.9434409E-1,-1.9978382E-1,-7.4416214E-1,-5.6918395E-1,-8.6148953E-1,-1.5334705E-1,-7.2049737E-1,-3.3090797E-1,8.761805E-2,1.5507383E-2,-6.5141624E-1,-7.949695E-1,-1.0643482E0,-7.275309E-1,-2.3723271E-1,-1.1102753E0,-1.2960721E0,-8.393889E-1,-1.1151174E0,7.4425656E-1,1.0407217E0,6.273522E-1,1.1115038E-1,1.0879128E0,1.3157849E0,1.1571296E-1,-4.4984427E-1,5.5696845E-1,-8.132401E-2,-5.7836545E-1,-4.9333908E-2,4.7389585E-1,-3.3727145E-1,1.0439605E0,7.016275E-2,-1.3465555E-1,3.5611773E-1,1.3658662E-1,-5.0649273E-1,9.678958E-3,3.9224604E-1,9.770166E-1,4.4691023E-1,-5.4070926E-1,3.7026596E-1,-1.0398172E0,-6.6114247E-1,-6.1192274E-1,-1.6500095E-1,-1.0218837E-1,4.1048673E-1,-2.5088448E-2,1.7123925E-2,-4.6596806E-2,-1.7427105E-2,-0E0,4.9620904E-2,-2.7529025E-2,6.18215E-3,4.6783995E-2,1.1219353E-2,6.2828705E-2,8.890238E-2,